<?xml version="1.0" encoding="utf-8"?>
<opencv_storage>
    <cascade>
        <stageType>BOOST</stageType>
        <featureType>LBP</featureType>
        <height>140</height>
        <width>70</width>
        <stageParams>
            <boostType>GAB</boostType>
            <minHitRate>9.9900001287460327e-01</minHitRate>
            <maxFalseAlarm>5.0000000000000000e-01</maxFalseAlarm>
            <weightTrimRate>9.4999999999999996e-01</weightTrimRate>
            <maxDepth>1</maxDepth>
            <maxWeakCount>100</maxWeakCount></stageParams>
        <featureParams>
            <maxCatCount>256</maxCatCount>
            <featSize>1</featSize></featureParams>
        <stageNum>20</stageNum>
        <stages>
            <!-- stage 0 -->
            <_>
                <maxWeakCount>4</maxWeakCount>
                <stageThreshold>-1.2537249326705933e+00</stageThreshold>
                <weakClassifiers>
                    <_>
                        <internalNodes>
                            0 -1 18 -69214817 322664447 -28417 934771711 624903679
                            318986239 1610572287 425678815</internalNodes>
                        <leafValues>
                            -7.5985664129257202e-01 7.9078692197799683e-01</leafValues></_>
                    <_>
                        <internalNodes>
                            0 -1 71 -1031618048 -248315877 25170395 1973747717
                            -2138535793 -1467989374 -2113830773 26165507</internalNodes>
                        <leafValues>
                            -7.1357154846191406e-01 6.2536585330963135e-01</leafValues></_>
                    <_>
                        <internalNodes>
                            0 -1 58 1891808756 1360396291 19 1897075333 805406921
                            1074298886 -2105310742 1609548283</internalNodes>
                        <leafValues>
                            -6.7021960020065308e-01 6.2909859418869019e-01</leafValues></_>
                    <_>
                        <internalNodes>
                            0 -1 45 -1035352021 -788287205 75551161 1963266081
                            -494894966 -2093760381 115403 1108296939</internalNodes>
                        <leafValues>
                            -6.6072076559066772e-01 6.4699357748031616e-01</leafValues></_></weakClassifiers></_>
            <!-- stage 1 -->
            <_>
                <maxWeakCount>5</maxWeakCount>
                <stageThreshold>-6.8905079364776611e-01</stageThreshold>
                <weakClassifiers>
                    <_>
                        <internalNodes>
                            0 -1 14 -174074593 126046252 -503234237 1460085281 411519435
                            167772184 8507885 319509263</internalNodes>
                        <leafValues>
                            -7.5113123655319214e-01 6.3212436437606812e-01</leafValues></_>
                    <_>
                        <internalNodes>
                            0 -1 129 1114111863 33655342 1064828671 421231115 -411041793
                            108986367 863240191 -232524689</internalNodes>
                        <leafValues>
                            -5.1934367418289185e-01 6.7992132902145386e-01</leafValues></_>
                    <_>
                        <internalNodes>
                            0 -1 28 -483007629 1568667509 1065338679 1643904306 74907941
                            -1778920363 1608472023 -738209473</internalNodes>
                        <leafValues>
                            -5.3038519620895386e-01 6.5899300575256348e-01</leafValues></_>
                    <_>
                        <internalNodes>
                            0 -1 57 1358144738 1407579566 1073724155 1979449338
                            -172491269 419249485 -46137345 -805830914</internalNodes>
                        <leafValues>
                            -5.7559072971343994e-01 6.5250265598297119e-01</leafValues></_>
                    <_>
                        <internalNodes>
                            0 -1 125 1695552760 1562466453 -771641127 -645770095
                            -362235652 -611773818 234933215 999878913</internalNodes>
                        <leafValues>
                            -7.0124322175979614e-01 5.2772361040115356e-01</leafValues></_></weakClassifiers></_>
            <!-- stage 2 -->
            <_>
                <maxWeakCount>7</maxWeakCount>
                <stageThreshold>-1.4288705587387085e+00</stageThreshold>
                <weakClassifiers>
                    <_>
                        <internalNodes>
                            0 -1 3 522441695 319394183 8533 859914779 1359499411
                            359743491 1610744203 324225847</internalNodes>
                        <leafValues>
                            -7.6859503984451294e-01 5.4890865087509155e-01</leafValues></_>
                    <_>
                        <internalNodes>
                            0 -1 25 -6161601 44711852 -646250882 -549568518 2004104453
                            6520695 1433593727 -9438277</internalNodes>
                        <leafValues>
                            -4.5798248052597046e-01 6.5786987543106079e-01</leafValues></_>
                    <_>
                        <internalNodes>
                            0 -1 140 1078189047 3345717 -1426066690 2065297202
                            -1032068161 -348913665 1245175711 -209715585</internalNodes>
                        <leafValues>
                            -5.1846623420715332e-01 5.8974701166152954e-01</leafValues></_>
                    <_>
                        <internalNodes>
                            0 -1 108 -434650619 -748566265 17941341 1393676305
                            -2109193777 -1459060706 -528325714 841202243</internalNodes>
                        <leafValues>
                            -5.7403349876403809e-01 5.3303992748260498e-01</leafValues></_>
                    <_>
                        <internalNodes>
                            0 -1 124 -266285037 -707754076 -1694566401 -3046383
                            -1367367714 -1682898945 -1074003973 -256549037</internalNodes>
                        <leafValues>
                            -4.7599136829376221e-01 6.9341939687728882e-01</leafValues></_>
                    <_>
                        <internalNodes>
                            0 -1 37 1431153567 332079785 -134234145 2013265911 131009615
                            1399812079 -1075871761 -83893618</internalNodes>
                        <leafValues>
                            -5.0691527128219604e-01 6.3731056451797485e-01</leafValues></_>
                    <_>
                        <internalNodes>
                            0 -1 122 -1055143751 -36634622 -1874636719 1845563672
                            1209116810 -2002780160 1376274578 1745226304</internalNodes>
                        <leafValues>
                            -6.1128920316696167e-01 5.5560964345932007e-01</leafValues></_></weakClassifiers></_>
            <!-- stage 3 -->
            <_>
                <maxWeakCount>7</maxWeakCount>
                <stageThreshold>-8.4750485420227051e-01</stageThreshold>
                <weakClassifiers>
                    <_>
                        <internalNodes>
                            0 -1 123 -751831093 841034343 -1089558 33652990 -469778735
                            603975679 -4194305 51372543</internalNodes>
                        <leafValues>
                            -5.0185871124267578e-01 6.3088512420654297e-01</leafValues></_>
                    <_>
                        <internalNodes>
                            0 -1 44 -1073225566 -775776896 17856825 -679378943 22537131
                            -292962166 557860555 1132679503</internalNodes>
                        <leafValues>
                            -5.9100764989852905e-01 5.2419173717498779e-01</leafValues></_>
                    <_>
                        <internalNodes>
                            0 -1 78 1909182688 -720817807 306186324 -1312323564
                            -1392463737 285900800 -2105163523 1368117898</internalNodes>
                        <leafValues>
                            -6.5293109416961670e-01 4.6794909238815308e-01</leafValues></_>
                    <_>
                        <internalNodes>
                            0 -1 17 1538408663 -1157005244 -1073380987 -988872382
                            2055274967 329856 1485005635 155518531</internalNodes>
                        <leafValues>
                            -6.4957439899444580e-01 5.0692754983901978e-01</leafValues></_>
                    <_>
                        <internalNodes>
                            0 -1 48 -1071005611 -633901575 2054315517 1849148025
                            -2130393976 -537436776 1798632255 -291530915</internalNodes>
                        <leafValues>
                            -4.8267158865928650e-01 6.8696826696395874e-01</leafValues></_>
                    <_>
                        <internalNodes>
                            0 -1 60 830820694 -124526206 33576988 277352704 -236359006
                            1210583040 1348535440 1437064174</internalNodes>
                        <leafValues>
                            -6.3991510868072510e-01 4.7989299893379211e-01</leafValues></_>
                    <_>
                        <internalNodes>
                            0 -1 27 -89299975 864045211 83956160 1507169280 729427
                            150995073 4284691 2069611217</internalNodes>
                        <leafValues>
                            -6.8543392419815063e-01 4.6775016188621521e-01</leafValues></_></weakClassifiers></_>
            <!-- stage 4 -->
            <_>
                <maxWeakCount>7</maxWeakCount>
                <stageThreshold>-7.4161756038665771e-01</stageThreshold>
                <weakClassifiers>
                    <_>
                        <internalNodes>
                            0 -1 101 1096278831 33917962 864026617 722198431 -138936353
                            -1221611585 -746594849 1933570047</internalNodes>
                        <leafValues>
                            -4.8560461401939392e-01 6.0518997907638550e-01</leafValues></_>
                    <_>
                        <internalNodes>
                            0 -1 99 832395773 890442451 134338589 491278371 596817069
                            -1149157376 707707357 420164657</internalNodes>
                        <leafValues>
                            -5.6248098611831665e-01 5.0873291492462158e-01</leafValues></_>
                    <_>
                        <internalNodes>
                            0 -1 148 -614477217 1221544018 -788151972 1090900041
                            -1341931448 1107443712 -2113765127 1074454926</internalNodes>
                        <leafValues>
                            -5.5061864852905273e-01 5.3676289319992065e-01</leafValues></_>
                    <_>
                        <internalNodes>
                            0 -1 19 1610589071 1398235814 2147478527 2013265823 56557710
                            1644159982 2145375998 -536958901</internalNodes>
                        <leafValues>
                            -5.2557706832885742e-01 5.7037091255187988e-01</leafValues></_>
                    <_>
                        <internalNodes>
                            0 -1 89 -385700655 -13229688 1409928471 -1088569084
                            167931065 -376716534 -1702841651 -1731622495</internalNodes>
                        <leafValues>
                            -5.2340048551559448e-01 6.4146435260772705e-01</leafValues></_>
                    <_>
                        <internalNodes>
                            0 -1 144 -137128939 42176777 1879589645 81973399 1074353589
                            1078591561 -1308474941 1389288083</internalNodes>
                        <leafValues>
                            -6.7431360483169556e-01 5.1978743076324463e-01</leafValues></_>
                    <_>
                        <internalNodes>
                            0 -1 73 13757423 68277513 198680 360775810 -264158547
                            17432587 1208068249 155683783</internalNodes>
                        <leafValues>
                            -6.6901218891143799e-01 5.0343704223632812e-01</leafValues></_></weakClassifiers></_>
            <!-- stage 5 -->
            <_>
                <maxWeakCount>7</maxWeakCount>
                <stageThreshold>-1.2300219535827637e+00</stageThreshold>
                <weakClassifiers>
                    <_>
                        <internalNodes>
                            0 -1 84 -1073512425 -801195137 268435063 -746618945
                            -2135702017 -301989889 939524095 -852505217</internalNodes>
                        <leafValues>
                            -2.7665317058563232e-01 7.0430731773376465e-01</leafValues></_>
                    <_>
                        <internalNodes>
                            0 -1 0 -154803713 1494315595 -536700670 1497366912 159914639
                            1246437472 1208484479 1388271387</internalNodes>
                        <leafValues>
                            -6.1757534742355347e-01 4.7583818435668945e-01</leafValues></_>
                    <_>
                        <internalNodes>
                            0 -1 132 -502103465 -754316541 -1238155267 -147243343
                            -194314305 -138781185 -432548165 -80553157</internalNodes>
                        <leafValues>
                            -4.0944257378578186e-01 6.4102923870086670e-01</leafValues></_>
                    <_>
                        <internalNodes>
                            0 -1 120 -686763632 -741916646 -2117173223 -678412152
                            1369986952 -360124191 -1475835655 772152073</internalNodes>
                        <leafValues>
                            -5.6560081243515015e-01 4.5515850186347961e-01</leafValues></_>
                    <_>
                        <internalNodes>
                            0 -1 2 1396504443 1999634426 268385919 -201369997 1282819511
                            -746637441 -1250470419 -10241</internalNodes>
                        <leafValues>
                            -4.6919023990631104e-01 6.1095154285430908e-01</leafValues></_>
                    <_>
                        <internalNodes>
                            0 -1 150 -934821029 201441578 1384120370 -2147385271
                            1898547336 -1064173568 -931102582 1611389871</internalNodes>
                        <leafValues>
                            -5.5748581886291504e-01 5.3442525863647461e-01</leafValues></_>
                    <_>
                        <internalNodes>
                            0 -1 23 302510551 -1284251053 2138275827 526909439 139806116
                            -405858473 1593703935 -274898961</internalNodes>
                        <leafValues>
                            -4.6306133270263672e-01 6.4516675472259521e-01</leafValues></_></weakClassifiers></_>
            <!-- stage 6 -->
            <_>
                <maxWeakCount>7</maxWeakCount>
                <stageThreshold>-4.8205915093421936e-01</stageThreshold>
                <weakClassifiers>
                    <_>
                        <internalNodes>
                            0 -1 59 -2140700671 -251780105 -67112969 -806357507
                            -2046967409 -587220993 -962994279 -2063919777</internalNodes>
                        <leafValues>
                            -3.8175675272941589e-01 6.2103176116943359e-01</leafValues></_>
                    <_>
                        <internalNodes>
                            0 -1 53 -60768273 -680595970 -201624335 919928575 -151064610
                            -1660977610 -55083009 -187638074</internalNodes>
                        <leafValues>
                            -3.7256139516830444e-01 6.4501965045928955e-01</leafValues></_>
                    <_>
                        <internalNodes>
                            0 -1 143 -1062014249 -652054733 1811857149 1933029103
                            -625231173 -97288193 175884983 -76293195</internalNodes>
                        <leafValues>
                            -3.5701581835746765e-01 7.1661490201950073e-01</leafValues></_>
                    <_>
                        <internalNodes>
                            0 -1 121 -422083497 -785186617 -939409097 -1660370735
                            -2138535175 -1706972864 -2146776561 1553</internalNodes>
                        <leafValues>
                            -6.2311553955078125e-01 4.5314294099807739e-01</leafValues></_>
                    <_>
                        <internalNodes>
                            0 -1 4 -683584049 726008193 36869 663781378 327880971
                            168820867 746625171 -627203846</internalNodes>
                        <leafValues>
                            -5.6803876161575317e-01 5.4031747579574585e-01</leafValues></_>
                    <_>
                        <internalNodes>
                            0 -1 42 1572928986 -1862232829 16844986 462622851 1361754121
                            1108369410 1611284683 1538228363</internalNodes>
                        <leafValues>
                            -5.7763075828552246e-01 4.9311065673828125e-01</leafValues></_>
                    <_>
                        <internalNodes>
                            0 -1 107 211341329 -716898020 226497883 957829280
                            -2130161512 -1966473079 -2013220659 335809024</internalNodes>
                        <leafValues>
                            -6.9305104017257690e-01 4.0327888727188110e-01</leafValues></_></weakClassifiers></_>
            <!-- stage 7 -->
            <_>
                <maxWeakCount>9</maxWeakCount>
                <stageThreshold>-6.5415108203887939e-01</stageThreshold>
                <weakClassifiers>
                    <_>
                        <internalNodes>
                            0 -1 97 -1072201449 -596009863 1006630831 2104467451
                            -459700547 -597860497 -1649496065 -721035905</internalNodes>
                        <leafValues>
                            -2.3575130105018616e-01 7.0289856195449829e-01</leafValues></_>
                    <_>
                        <internalNodes>
                            0 -1 5 -213682349 -537002315 -1619174146 2147276797
                            1985238288 -8388745 1442176373 -1052913451</internalNodes>
                        <leafValues>
                            -4.2455753684043884e-01 5.9628254175186157e-01</leafValues></_>
                    <_>
                        <internalNodes>
                            0 -1 100 -15263726 521162788 34668761 203416209 1376792675
                            546308865 -1693726565 1525192623</internalNodes>
                        <leafValues>
                            -5.9994119405746460e-01 4.2569589614868164e-01</leafValues></_>
                    <_>
                        <internalNodes>
                            0 -1 142 -2093094989 -1492772853 1344340232 1124553355
                            155203736 237215883 14745832 -112520993</internalNodes>
                        <leafValues>
                            -4.9019449949264526e-01 5.2203154563903809e-01</leafValues></_>
                    <_>
                        <internalNodes>
                            0 -1 141 -1476160320 323388608 419496154 964805964
                            -2147311174 -1132297056 285526457 1552490625</internalNodes>
                        <leafValues>
                            -6.3846451044082642e-01 3.9475697278976440e-01</leafValues></_>
                    <_>
                        <internalNodes>
                            0 -1 90 -417348347 -654862409 -16819202 1496778455
                            -492603462 -600449537 -469839906 -1710438634</internalNodes>
                        <leafValues>
                            -4.7841018438339233e-01 5.6476473808288574e-01</leafValues></_>
                    <_>
                        <internalNodes>
                            0 -1 24 -251272777 822542337 -2012195753 -662634431
                            1342260224 1938457105 1342371224 -1996254934</internalNodes>
                        <leafValues>
                            -6.2171161174774170e-01 4.5265632867813110e-01</leafValues></_>
                    <_>
                        <internalNodes>
                            0 -1 52 1975539676 1913132314 -103212640 -1051164644
                            1073989851 536938498 -2141896239 -232822517</internalNodes>
                        <leafValues>
                            -5.5136036872863770e-01 4.9316418170928955e-01</leafValues></_>
                    <_>
                        <internalNodes>
                            0 -1 10 -2069630033 -2025842176 1376797204 -721321718
                            1802311 -1878391568 1934186786 1341083955</internalNodes>
                        <leafValues>
                            -6.4206182956695557e-01 4.4583618640899658e-01</leafValues></_></weakClassifiers></_>
            <!-- stage 8 -->
            <_>
                <maxWeakCount>8</maxWeakCount>
                <stageThreshold>-1.2556978464126587e+00</stageThreshold>
                <weakClassifiers>
                    <_>
                        <internalNodes>
                            0 -1 118 -151525852 -705959048 805240428 296714236
                            1442805013 292902722 -1208049698 1935537503</internalNodes>
                        <leafValues>
                            -4.5679011940956116e-01 5.5834829807281494e-01</leafValues></_>
                    <_>
                        <internalNodes>
                            0 -1 16 -1413223741 277119045 25165968 -645562237 772313259
                            -2112913399 1082198391 333529920</internalNodes>
                        <leafValues>
                            -6.4030402898788452e-01 3.8418358564376831e-01</leafValues></_>
                    <_>
                        <internalNodes>
                            0 -1 134 -2107918853 269017667 -262143911 1093923633
                            1082491649 -2012917630 -2139027061 -1691639089</internalNodes>
                        <leafValues>
                            -4.9106311798095703e-01 4.9608483910560608e-01</leafValues></_>
                    <_>
                        <internalNodes>
                            0 -1 103 80957813 1050631 21205012 2111012880 570609833
                            -2004877181 721508504 268124842</internalNodes>
                        <leafValues>
                            -5.4184311628341675e-01 4.9187576770782471e-01</leafValues></_>
                    <_>
                        <internalNodes>
                            0 -1 56 414797273 -45138137 645869623 -809812694 -1600123484
                            -1375862923 -1904419141 -1074935921</internalNodes>
                        <leafValues>
                            -4.4655460119247437e-01 5.9145438671112061e-01</leafValues></_>
                    <_>
                        <internalNodes>
                            0 -1 105 -2120799954 309334289 1795164424 -1090055355
                            1258821672 1804173313 -1954296998 2118964353</internalNodes>
                        <leafValues>
                            -6.2158739566802979e-01 4.3457016348838806e-01</leafValues></_>
                    <_>
                        <internalNodes>
                            0 -1 41 -373839390 1124311554 2147483631 -142639107
                            842761358 -1921024403 -1208090945 -1367361101</internalNodes>
                        <leafValues>
                            -5.0485110282897949e-01 5.5568730831146240e-01</leafValues></_>
                    <_>
                        <internalNodes>
                            0 -1 137 934412472 -1793064624 575807876 629213265
                            -1865938724 -1440514014 176724171 42753168</internalNodes>
                        <leafValues>
                            -7.4447214603424072e-01 3.8908919692039490e-01</leafValues></_></weakClassifiers></_>
            <!-- stage 9 -->
            <_>
                <maxWeakCount>8</maxWeakCount>
                <stageThreshold>-1.3055242300033569e+00</stageThreshold>
                <weakClassifiers>
                    <_>
                        <internalNodes>
                            0 -1 139 -1052524455 34277376 -1073658303 2134018
                            -1836982111 16810240 1636160979 692063</internalNodes>
                        <leafValues>
                            -6.5454542636871338e-01 4.8503938317298889e-01</leafValues></_>
                    <_>
                        <internalNodes>
                            0 -1 33 -504707646 1183121 -754692004 385895425 -887887473
                            1141022857 1932189707 1103808666</internalNodes>
                        <leafValues>
                            -6.0031586885452271e-01 3.9782744646072388e-01</leafValues></_>
                    <_>
                        <internalNodes>
                            0 -1 75 1098963483 -146730720 -763468007 -580494019
                            -307716966 -201392388 1527738949 -221939946</internalNodes>
                        <leafValues>
                            -3.6571219563484192e-01 6.6291958093643188e-01</leafValues></_>
                    <_>
                        <internalNodes>
                            0 -1 110 -266964461 1896024081 -2130361966 507723826
                            68256491 -1157431291 -903675509 539772426</internalNodes>
                        <leafValues>
                            -6.4774942398071289e-01 3.8646003603935242e-01</leafValues></_>
                    <_>
                        <internalNodes>
                            0 -1 113 -823212243 -25198785 -1375732737 318488383
                            1728048371 -1082130829 -427374945 -768163001</internalNodes>
                        <leafValues>
                            -4.5794785022735596e-01 5.5206435918807983e-01</leafValues></_>
                    <_>
                        <internalNodes>
                            0 -1 92 2026956360 1426264904 270016642 336138785 1673672
                            100829186 -1060909687 570937866</internalNodes>
                        <leafValues>
                            -7.2849392890930176e-01 3.7011212110519409e-01</leafValues></_>
                    <_>
                        <internalNodes>
                            0 -1 1 -922270592 -1023196927 -1073741824 -1023410176
                            4326016 -939491326 -1072652213 -73318060</internalNodes>
                        <leafValues>
                            -6.4069145917892456e-01 4.0437024831771851e-01</leafValues></_>
                    <_>
                        <internalNodes>
                            0 -1 54 -927493837 -1698695971 258998245 -356694746
                            -1348842331 -147353769 -1702892545 -624970497</internalNodes>
                        <leafValues>
                            -4.4640231132507324e-01 6.1412954330444336e-01</leafValues></_></weakClassifiers></_>
            <!-- stage 10 -->
            <_>
                <maxWeakCount>8</maxWeakCount>
                <stageThreshold>-8.1411248445510864e-01</stageThreshold>
                <weakClassifiers>
                    <_>
                        <internalNodes>
                            0 -1 9 1735632526 -135823361 -1082654721 -74 90506127
                            1877989311 77498367 1196122819</internalNodes>
                        <leafValues>
                            -4.3724697828292847e-01 5.5696201324462891e-01</leafValues></_>
                    <_>
                        <internalNodes>
                            0 -1 128 -751315289 370213027 -788457717 542315523
                            -1895584855 1996835857 -1173871862 2062476891</internalNodes>
                        <leafValues>
                            -4.7229832410812378e-01 4.8287239670753479e-01</leafValues></_>
                    <_>
                        <internalNodes>
                            0 -1 119 -804003813 -797110895 -25239558 -214349953
                            -217008137 -1 -210724997 -2096805017</internalNodes>
                        <leafValues>
                            -4.4955983757972717e-01 5.6006753444671631e-01</leafValues></_>
                    <_>
                        <internalNodes>
                            0 -1 80 -1280606755 9021115 131011647 -1319482881 865582591
                            -2069512193 2056715157 -1081273441</internalNodes>
                        <leafValues>
                            -4.3696787953376770e-01 5.5363231897354126e-01</leafValues></_>
                    <_>
                        <internalNodes>
                            0 -1 133 -1248197607 -145194936 -2138007337 1535889409
                            -938965816 -586055542 -938829645 402706564</internalNodes>
                        <leafValues>
                            -5.3505599498748779e-01 4.6603497862815857e-01</leafValues></_>
                    <_>
                        <internalNodes>
                            0 -1 26 -13795361 -5603591 -1090556231 2108047354 -142719425
                            527851423 -1771258594 -538198117</internalNodes>
                        <leafValues>
                            -3.8637912273406982e-01 7.0591843128204346e-01</leafValues></_>
                    <_>
                        <internalNodes>
                            0 -1 98 -1202057191 1356157186 1359046677 287715421
                            -1734649879 -1862156284 -1742675814 522783554</internalNodes>
                        <leafValues>
                            -5.9310579299926758e-01 4.3063879013061523e-01</leafValues></_>
                    <_>
                        <internalNodes>
                            0 -1 70 -378453359 -17445708 -88311969 -1246761476
                            -166813799 -1372074121 13570999 -1874537901</internalNodes>
                        <leafValues>
                            -4.4347846508026123e-01 5.9585571289062500e-01</leafValues></_></weakClassifiers></_>
            <!-- stage 11 -->
            <_>
                <maxWeakCount>9</maxWeakCount>
                <stageThreshold>-9.7715848684310913e-01</stageThreshold>
                <weakClassifiers>
                    <_>
                        <internalNodes>
                            0 -1 34 -1979006228 680644610 559990160 -1282178878
                            134217810 2986154 72180244 31940821</internalNodes>
                        <leafValues>
                            -6.2275451421737671e-01 4.8025277256965637e-01</leafValues></_>
                    <_>
                        <internalNodes>
                            0 -1 32 1643365282 1124094848 274727513 620863616 24084750
                            -1173770984 -882276349 -158362054</internalNodes>
                        <leafValues>
                            -4.6905249357223511e-01 4.7636187076568604e-01</leafValues></_>
                    <_>
                        <internalNodes>
                            0 -1 86 1955962916 822152193 -2013212389 293706448 194779
                            -1744756608 -2002149156 573036969</internalNodes>
                        <leafValues>
                            -6.4125782251358032e-01 3.9627119898796082e-01</leafValues></_>
                    <_>
                        <internalNodes>
                            0 -1 62 1436094616 -49049451 428016723 499187718 687874546
                            -1332739167 -1442780456 1023969322</internalNodes>
                        <leafValues>
                            -5.9249043464660645e-01 3.6886769533157349e-01</leafValues></_>
                    <_>
                        <internalNodes>
                            0 -1 152 -1616135425 -2115174838 -1107443975 -1997145482
                            -54722818 801030079 -17400321 -534577618</internalNodes>
                        <leafValues>
                            -4.4239333271980286e-01 5.5476248264312744e-01</leafValues></_>
                    <_>
                        <internalNodes>
                            0 -1 72 -389390364 2016694854 287392900 168788064
                            -2120030978 707559685 536920146 -139867941</internalNodes>
                        <leafValues>
                            -5.9738522768020630e-01 4.4937482476234436e-01</leafValues></_>
                    <_>
                        <internalNodes>
                            0 -1 106 1929761243 -736747327 -39579 -49995931 950836871
                            -1980186634 -1708744834 -669969389</internalNodes>
                        <leafValues>
                            -4.1064235568046570e-01 6.3109034299850464e-01</leafValues></_>
                    <_>
                        <internalNodes>
                            0 -1 29 -410627094 628887634 -1320876736 -1656716800
                            977791567 4325379 807475211 927304203</internalNodes>
                        <leafValues>
                            -6.4374530315399170e-01 4.2303147912025452e-01</leafValues></_>
                    <_>
                        <internalNodes>
                            0 -1 102 1900211416 -819176941 1359151441 1439846912
                            412329104 -1986838335 821469 420171849</internalNodes>
                        <leafValues>
                            -6.0894948244094849e-01 4.4052457809448242e-01</leafValues></_></weakClassifiers></_>
            <!-- stage 12 -->
            <_>
                <maxWeakCount>7</maxWeakCount>
                <stageThreshold>-1.2584011554718018e+00</stageThreshold>
                <weakClassifiers>
                    <_>
                        <internalNodes>
                            0 -1 22 -262246693 1611335969 2818499 419632146 200773
                            1073873473 822165879 1542918227</internalNodes>
                        <leafValues>
                            -5.9544157981872559e-01 4.8759007453918457e-01</leafValues></_>
                    <_>
                        <internalNodes>
                            0 -1 63 1453296687 21430977 -1474244480 -1824286374 35722154
                            2139660833 1350623561 -387284700</internalNodes>
                        <leafValues>
                            -5.0642222166061401e-01 4.3704548478126526e-01</leafValues></_>
                    <_>
                        <internalNodes>
                            0 -1 130 -125648645 -210225171 -1064961 -109241155
                            -145043527 -21037129 -965694241 -369081791</internalNodes>
                        <leafValues>
                            -3.3574387431144714e-01 7.1584063768386841e-01</leafValues></_>
                    <_>
                        <internalNodes>
                            0 -1 87 -956569842 1849596543 -1573465 -973492833 -318779973
                            1325399934 -453780057 -1049057624</internalNodes>
                        <leafValues>
                            -4.6102014183998108e-01 5.0388485193252563e-01</leafValues></_>
                    <_>
                        <internalNodes>
                            0 -1 145 1348194783 134363651 -1056906091 672321803
                            -972898046 -876412928 -1073626229 -1305626929</internalNodes>
                        <leafValues>
                            -5.4669421911239624e-01 4.5704498887062073e-01</leafValues></_>
                    <_>
                        <internalNodes>
                            0 -1 115 -260967439 1392983021 -1075613723 498100191
                            -67183908 -411091212 -281604389 496620627</internalNodes>
                        <leafValues>
                            -4.5828256011009216e-01 5.5305373668670654e-01</leafValues></_>
                    <_>
                        <internalNodes>
                            0 -1 43 -1855602659 -97361883 2146893687 -1107331599
                            -429337216 -549625985 2103782877 -1080312321</internalNodes>
                        <leafValues>
                            -4.4916450977325439e-01 5.5788379907608032e-01</leafValues></_></weakClassifiers></_>
            <!-- stage 13 -->
            <_>
                <maxWeakCount>9</maxWeakCount>
                <stageThreshold>-5.9214895963668823e-01</stageThreshold>
                <weakClassifiers>
                    <_>
                        <internalNodes>
                            0 -1 69 -957364702 -159535170 1929319135 -68255937
                            1195238871 -1572866177 1560248223 32464767</internalNodes>
                        <leafValues>
                            -4.1532257199287415e-01 5.4891306161880493e-01</leafValues></_>
                    <_>
                        <internalNodes>
                            0 -1 147 397407035 -1465450513 -1635815696 -100946053
                            528440528 1160413038 477421704 -664321</internalNodes>
                        <leafValues>
                            -3.4779661893844604e-01 5.8572113513946533e-01</leafValues></_>
                    <_>
                        <internalNodes>
                            0 -1 153 -1811164166 553838656 4261011 268472611 -2143059839
                            -2013265920 -2138927095 -2111648566</internalNodes>
                        <leafValues>
                            -5.1341867446899414e-01 4.2080387473106384e-01</leafValues></_>
                    <_>
                        <internalNodes>
                            0 -1 82 1090621503 -314928002 1093664767 -820027393
                            -949252197 -23093289 -1755972235 -836897321</internalNodes>
                        <leafValues>
                            -3.9348098635673523e-01 5.8277654647827148e-01</leafValues></_>
                    <_>
                        <internalNodes>
                            0 -1 93 -1245512332 -1806452734 353501328 848375818
                            -1862233192 11141248 1223041037 327929198</internalNodes>
                        <leafValues>
                            -6.4797151088714600e-01 3.8453391194343567e-01</leafValues></_>
                    <_>
                        <internalNodes>
                            0 -1 77 -992906526 1478033495 420810902 -1277644530
                            -2130677052 302137408 318832843 1770977930</internalNodes>
                        <leafValues>
                            -6.2141495943069458e-01 3.7509393692016602e-01</leafValues></_>
                    <_>
                        <internalNodes>
                            0 -1 112 -1801699085 -155853248 -543998017 -383918313
                            -1101988317 -319291401 -610444645 -368851192</internalNodes>
                        <leafValues>
                            -4.0598294138908386e-01 6.4870744943618774e-01</leafValues></_>
                    <_>
                        <internalNodes>
                            0 -1 64 4333641 1712063120 25168364 -1056391162 579459806
                            730890530 269008933 1338899700</internalNodes>
                        <leafValues>
                            -5.9376400709152222e-01 4.4362872838973999e-01</leafValues></_>
                    <_>
                        <internalNodes>
                            0 -1 91 -904238351 -553843216 -293708197 1463512947
                            2049745706 -1082852107 -32211101 -1137132526</internalNodes>
                        <leafValues>
                            -4.8148149251937866e-01 5.3580158948898315e-01</leafValues></_></weakClassifiers></_>
            <!-- stage 14 -->
            <_>
                <maxWeakCount>9</maxWeakCount>
                <stageThreshold>-6.5997558832168579e-01</stageThreshold>
                <weakClassifiers>
                    <_>
                        <internalNodes>
                            0 -1 61 -1074745377 -102207558 -526593 -545407247 2147252206
                            -4255771 -537079937 176947205</internalNodes>
                        <leafValues>
                            -3.4982332587242126e-01 5.7833653688430786e-01</leafValues></_>
                    <_>
                        <internalNodes>
                            0 -1 8 1650709491 -812567975 -988802745 -888831999 83956790
                            1243744417 1394709155 257000705</internalNodes>
                        <leafValues>
                            -5.4883968830108643e-01 3.9481443166732788e-01</leafValues></_>
                    <_>
                        <internalNodes>
                            0 -1 46 1188528550 324109587 1 1428340864 -877034994
                            -1597833077 -670970211 -1232097126</internalNodes>
                        <leafValues>
                            -4.9848049879074097e-01 4.3556502461433411e-01</leafValues></_>
                    <_>
                        <internalNodes>
                            0 -1 117 2080378896 -686694208 286316831 -107642872
                            838922484 1107460168 192959418 540545060</internalNodes>
                        <leafValues>
                            -7.4331134557723999e-01 3.0053412914276123e-01</leafValues></_>
                    <_>
                        <internalNodes>
                            0 -1 109 -858141129 2147483406 -50594081 -680013833
                            1023312037 -1140887681 1601173151 -1040006041</internalNodes>
                        <leafValues>
                            -4.1521212458610535e-01 5.6739789247512817e-01</leafValues></_>
                    <_>
                        <internalNodes>
                            0 -1 13 1375475363 1609436779 778972019 -207422477 -25223817
                            -9212041 -1132527847 -17484578</internalNodes>
                        <leafValues>
                            -4.1156300902366638e-01 5.9733861684799194e-01</leafValues></_>
                    <_>
                        <internalNodes>
                            0 -1 138 -2097131209 186286356 1476658290 -1048440806
                            -1459271256 1093206155 126589581 -1713143660</internalNodes>
                        <leafValues>
                            -5.1380127668380737e-01 4.8492962121963501e-01</leafValues></_>
                    <_>
                        <internalNodes>
                            0 -1 35 -182607397 654508610 16777232 2021670913 537008829
                            161098985 -1609924094 -507313373</internalNodes>
                        <leafValues>
                            -5.3136789798736572e-01 4.6295347809791565e-01</leafValues></_>
                    <_>
                        <internalNodes>
                            0 -1 66 -1338637903 -108986048 -268343205 990085130
                            -2130275703 -1197735918 -1065310022 1003629187</internalNodes>
                        <leafValues>
                            -4.9728137254714966e-01 5.3636562824249268e-01</leafValues></_></weakClassifiers></_>
            <!-- stage 15 -->
            <_>
                <maxWeakCount>8</maxWeakCount>
                <stageThreshold>-1.0234098434448242e+00</stageThreshold>
                <weakClassifiers>
                    <_>
                        <internalNodes>
                            0 -1 6 -3932478 -2147131389 8506624 1073906048 1082351875
                            555491350 1782589472 1926349523</internalNodes>
                        <leafValues>
                            -6.0869562625885010e-01 4.6635368466377258e-01</leafValues></_>
                    <_>
                        <internalNodes>
                            0 -1 146 -890513953 1211240315 2143289338 1513320230
                            -1736451398 -16826369 -1409889282 -79960456</internalNodes>
                        <leafValues>
                            -3.8432228565216064e-01 5.4597955942153931e-01</leafValues></_>
                    <_>
                        <internalNodes>
                            0 -1 36 -699255058 281722908 -979304360 -1895628543
                            -1509886777 -350615460 1134996107 1864082091</internalNodes>
                        <leafValues>
                            -5.0831317901611328e-01 4.1425099968910217e-01</leafValues></_>
                    <_>
                        <internalNodes>
                            0 -1 96 -788250113 -1667921458 1901810687 -205578921
                            1877988253 -842544261 -596378657 -920789025</internalNodes>
                        <leafValues>
                            -3.2962450385093689e-01 6.8133109807968140e-01</leafValues></_>
                    <_>
                        <internalNodes>
                            0 -1 95 -1852777384 354681940 1225267217 1259935232
                            276012242 185221313 -2024570869 2134694685</internalNodes>
                        <leafValues>
                            -6.1833673715591431e-01 3.7525907158851624e-01</leafValues></_>
                    <_>
                        <internalNodes>
                            0 -1 114 1104405805 320979722 -2013195862 1912822408
                            -2013241320 -922417151 1344541828 -779886461</internalNodes>
                        <leafValues>
                            -5.2197480201721191e-01 4.7747504711151123e-01</leafValues></_>
                    <_>
                        <internalNodes>
                            0 -1 30 -112698699 -1879023607 -1065320317 1208600577
                            688412867 -2004336512 98471 1359626587</internalNodes>
                        <leafValues>
                            -5.9394335746765137e-01 4.3995755910873413e-01</leafValues></_>
                    <_>
                        <internalNodes>
                            0 -1 55 -2038382575 -133049816 -2138418611 954401104
                            537694976 -131989358 -402549853 -366888693</internalNodes>
                        <leafValues>
                            -5.2946352958679199e-01 4.7315552830696106e-01</leafValues></_></weakClassifiers></_>
            <!-- stage 16 -->
            <_>
                <maxWeakCount>10</maxWeakCount>
                <stageThreshold>-9.0417915582656860e-01</stageThreshold>
                <weakClassifiers>
                    <_>
                        <internalNodes>
                            0 -1 111 1069209081 715838903 1073355065 -8570951 -306234114
                            -1934409881 213539064 145244412</internalNodes>
                        <leafValues>
                            -3.3938294649124146e-01 5.5958056449890137e-01</leafValues></_>
                    <_>
                        <internalNodes>
                            0 -1 126 1606401846 -423661701 -18211156 571408126 796766196
                            116708980 905720902 -553650951</internalNodes>
                        <leafValues>
                            -4.1254833340644836e-01 4.9854612350463867e-01</leafValues></_>
                    <_>
                        <internalNodes>
                            0 -1 81 487028175 -240083214 123425919 1506692862
                            -1690329601 -1618534402 -1244145233 -745942113</internalNodes>
                        <leafValues>
                            -3.1752806901931763e-01 6.6054350137710571e-01</leafValues></_>
                    <_>
                        <internalNodes>
                            0 -1 151 -221260953 1073857297 356585520 34670353
                            -1342044186 -1979575808 1636533273 1220338644</internalNodes>
                        <leafValues>
                            -5.8217501640319824e-01 3.9336776733398438e-01</leafValues></_>
                    <_>
                        <internalNodes>
                            0 -1 83 1508628349 547483312 -201392641 -721977357
                            1404815082 -827170881 1191173374 -831228417</internalNodes>
                        <leafValues>
                            -4.0119805932044983e-01 5.6976556777954102e-01</leafValues></_>
                    <_>
                        <internalNodes>
                            0 -1 51 1897363791 -805344587 436090871 -1884045 -2003561196
                            -1003022467 657674239 -81941189</internalNodes>
                        <leafValues>
                            -4.5285126566886902e-01 5.4257333278656006e-01</leafValues></_>
                    <_>
                        <internalNodes>
                            0 -1 21 -782318910 -2130669176 285343762 1099272452
                            -165478399 59293768 1354998368 1086312166</internalNodes>
                        <leafValues>
                            -6.7750769853591919e-01 3.7274435162544250e-01</leafValues></_>
                    <_>
                        <internalNodes>
                            0 -1 149 -1518628111 -916957184 1179733 -2125772654 21119552
                            1753874434 -1878913014 -222236355</internalNodes>
                        <leafValues>
                            -4.9706202745437622e-01 5.2437841892242432e-01</leafValues></_>
                    <_>
                        <internalNodes>
                            0 -1 68 -1307869148 -1680793576 16844117 -1794833323
                            -721177459 -125296350 -2138533702 1537837061</internalNodes>
                        <leafValues>
                            -5.9290486574172974e-01 4.3513470888137817e-01</leafValues></_>
                    <_>
                        <internalNodes>
                            0 -1 85 -1736004971 -122470195 822198605 -719425461
                            -1165995975 -1408630623 -662107897 -1776601401</internalNodes>
                        <leafValues>
                            -4.6687370538711548e-01 5.8118760585784912e-01</leafValues></_></weakClassifiers></_>
            <!-- stage 17 -->
            <_>
                <maxWeakCount>8</maxWeakCount>
                <stageThreshold>-8.1236475706100464e-01</stageThreshold>
                <weakClassifiers>
                    <_>
                        <internalNodes>
                            0 -1 131 -792083200 1103952708 1351239980 5275907 -991886832
                            139264 143163592 1896597704</internalNodes>
                        <leafValues>
                            -6.0122698545455933e-01 4.6781790256500244e-01</leafValues></_>
                    <_>
                        <internalNodes>
                            0 -1 50 -2043428521 62325503 394090867 -268465153 220092190
                            1407127519 -402671651 -97021349</internalNodes>
                        <leafValues>
                            -3.5748726129531860e-01 5.7616823911666870e-01</leafValues></_>
                    <_>
                        <internalNodes>
                            0 -1 76 -1593795920 556911616 272830867 -1727987427
                            -2013101400 -1996292096 -1599596339 201951472</internalNodes>
                        <leafValues>
                            -6.3277572393417358e-01 3.4980869293212891e-01</leafValues></_>
                    <_>
                        <internalNodes>
                            0 -1 104 -133969931 2003771525 100794368 -1266531575
                            -1600124536 -1446903678 -1927771059 -671053292</internalNodes>
                        <leafValues>
                            -4.6783295273780823e-01 4.9958160519599915e-01</leafValues></_>
                    <_>
                        <internalNodes>
                            0 -1 94 2011822975 868147187 2096659644 850967290 1593310331
                            218066527 536751512 -272790533</internalNodes>
                        <leafValues>
                            -3.9679282903671265e-01 6.0154235363006592e-01</leafValues></_>
                    <_>
                        <internalNodes>
                            0 -1 74 -366114535 -273691407 -49154 -268458511 -1112833331
                            -1074856459 -235932437 -1994856985</internalNodes>
                        <leafValues>
                            -4.6820512413978577e-01 5.2920836210250854e-01</leafValues></_>
                    <_>
                        <internalNodes>
                            0 -1 39 1189303899 2063559662 1870428983 868114145
                            1576500761 -1134100651 -562797393 -47153154</internalNodes>
                        <leafValues>
                            -4.0568670630455017e-01 6.3518214225769043e-01</leafValues></_>
                    <_>
                        <internalNodes>
                            0 -1 49 1734230785 1865412461 -352332297 -1410408242
                            2071806938 1730621247 -721457189 -851097990</internalNodes>
                        <leafValues>
                            -4.3946596980094910e-01 5.5981361865997314e-01</leafValues></_></weakClassifiers></_>
            <!-- stage 18 -->
            <_>
                <maxWeakCount>8</maxWeakCount>
                <stageThreshold>-1.0833274126052856e+00</stageThreshold>
                <weakClassifiers>
                    <_>
                        <internalNodes>
                            0 -1 15 -1698971978 -806040093 2013183991 -143639 1870253997
                            -270585891 2012624631 235225573</internalNodes>
                        <leafValues>
                            -3.1986531615257263e-01 5.8648109436035156e-01</leafValues></_>
                    <_>
                        <internalNodes>
                            0 -1 79 882180155 629244096 50418164 522133634 197599371
                            229113864 675554284 436671710</internalNodes>
                        <leafValues>
                            -5.4147702455520630e-01 4.0267172455787659e-01</leafValues></_>
                    <_>
                        <internalNodes>
                            0 -1 47 -1071167119 -71628931 1533194225 586183953 25657358
                            -1942133475 -1741162497 -90839501</internalNodes>
                        <leafValues>
                            -4.1757819056510925e-01 5.0516182184219360e-01</leafValues></_>
                    <_>
                        <internalNodes>
                            0 -1 31 1101851870 151368336 2 -947058541 1217513550
                            176318600 1099489344 46132081</internalNodes>
                        <leafValues>
                            -6.0608285665512085e-01 3.6777338385581970e-01</leafValues></_>
                    <_>
                        <internalNodes>
                            0 -1 11 369324522 -766508667 1054859 -268169200 1094969985
                            2081032336 18589 1928905385</internalNodes>
                        <leafValues>
                            -5.9345316886901855e-01 4.0327945351600647e-01</leafValues></_>
                    <_>
                        <internalNodes>
                            0 -1 116 -1943021615 -645913840 939417463 -53420520
                            -457187587 -1075838977 922021887 -77253261</internalNodes>
                        <leafValues>
                            -3.7219020724296570e-01 7.1051293611526489e-01</leafValues></_>
                    <_>
                        <internalNodes>
                            0 -1 20 -1948473203 704713760 1477443714 308517074 477825562
                            1307205803 159391970 2067939714</internalNodes>
                        <leafValues>
                            -7.2359710931777954e-01 3.4391230344772339e-01</leafValues></_>
                    <_>
                        <internalNodes>
                            0 -1 40 989492557 -605552923 -16843036 804519673 -537101186
                            -1107331105 -579619091 -991873099</internalNodes>
                        <leafValues>
                            -4.5679557323455811e-01 5.3808397054672241e-01</leafValues></_></weakClassifiers></_>
            <!-- stage 19 -->
            <_>
                <maxWeakCount>9</maxWeakCount>
                <stageThreshold>-6.8117135763168335e-01</stageThreshold>
                <weakClassifiers>
                    <_>
                        <internalNodes>
                            0 -1 12 2146168399 933769139 -1107296454 532561651
                            2122202632 321552237 1476343659 461356927</internalNodes>
                        <leafValues>
                            -2.6080477237701416e-01 6.1894512176513672e-01</leafValues></_>
                    <_>
                        <internalNodes>
                            0 -1 135 1082890115 8947010 -1589444532 1124380742 205688962
                            -2012479480 604283521 -204486481</internalNodes>
                        <leafValues>
                            -4.4999897480010986e-01 4.4861119985580444e-01</leafValues></_>
                    <_>
                        <internalNodes>
                            0 -1 127 -1660889895 -1126989308 1485471895 1572930828
                            -1643064166 -98959188 151058816 168837120</internalNodes>
                        <leafValues>
                            -5.2719670534133911e-01 4.1007310152053833e-01</leafValues></_>
                    <_>
                        <internalNodes>
                            0 -1 67 -2061581823 -1828601708 1107888279 -1738436590
                            -1216272239 -1970798400 -535918597 -2138455672</internalNodes>
                        <leafValues>
                            -5.2426862716674805e-01 4.5321798324584961e-01</leafValues></_>
                    <_>
                        <internalNodes>
                            0 -1 65 -2096353266 285346311 197141 -787123433 672605086
                            151617544 671093138 1804342155</internalNodes>
                        <leafValues>
                            -5.7770574092864990e-01 4.0023544430732727e-01</leafValues></_>
                    <_>
                        <internalNodes>
                            0 -1 38 -2102035749 1006169982 -1074807297 -1245496586
                            2139049710 778862463 1526127085 952046450</internalNodes>
                        <leafValues>
                            -4.7746509313583374e-01 5.2115160226821899e-01</leafValues></_>
                    <_>
                        <internalNodes>
                            0 -1 88 1138065862 1040909472 276906177 -1559756645
                            1073778819 -636442238 545562625 1931810011</internalNodes>
                        <leafValues>
                            -6.1733263731002808e-01 4.0390652418136597e-01</leafValues></_>
                    <_>
                        <internalNodes>
                            0 -1 136 -931071813 -205889804 -294658049 -887283792
                            -763832856 -1077937161 -84762626 -1433864397</internalNodes>
                        <leafValues>
                            -4.1872653365135193e-01 6.1855274438858032e-01</leafValues></_>
                    <_>
                        <internalNodes>
                            0 -1 7 496775695 -753903227 -2147463040 1427640851
                            -939453434 322191904 1218970267 1100694155</internalNodes>
                        <leafValues>
                            -6.3965559005737305e-01 4.0989831089973450e-01</leafValues></_></weakClassifiers></_></stages>
        <features>
            <_>
                <rect>
                    0 0 18 44</rect></_>
            <_>
                <rect>
                    0 13 2 35</rect></_>
            <_>
                <rect>
                    0 34 12 23</rect></_>
            <_>
                <rect>
                    0 40 23 14</rect></_>
            <_>
                <rect>
                    0 44 23 19</rect></_>
            <_>
                <rect>
                    0 46 5 19</rect></_>
            <_>
                <rect>
                    0 49 7 4</rect></_>
            <_>
                <rect>
                    0 61 20 8</rect></_>
            <_>
                <rect>
                    0 62 10 10</rect></_>
            <_>
                <rect>
                    0 64 16 13</rect></_>
            <_>
                <rect>
                    0 74 9 7</rect></_>
            <_>
                <rect>
                    0 79 20 10</rect></_>
            <_>
                <rect>
                    0 83 10 18</rect></_>
            <_>
                <rect>
                    0 119 11 6</rect></_>
            <_>
                <rect>
                    1 0 23 40</rect></_>
            <_>
                <rect>
                    1 3 16 14</rect></_>
            <_>
                <rect>
                    1 6 12 22</rect></_>
            <_>
                <rect>
                    1 6 21 19</rect></_>
            <_>
                <rect>
                    1 15 23 27</rect></_>
            <_>
                <rect>
                    1 28 21 33</rect></_>
            <_>
                <rect>
                    1 35 22 26</rect></_>
            <_>
                <rect>
                    1 37 5 6</rect></_>
            <_>
                <rect>
                    1 39 12 11</rect></_>
            <_>
                <rect>
                    1 54 20 10</rect></_>
            <_>
                <rect>
                    1 57 19 8</rect></_>
            <_>
                <rect>
                    1 86 10 13</rect></_>
            <_>
                <rect>
                    1 97 9 13</rect></_>
            <_>
                <rect>
                    2 38 8 9</rect></_>
            <_>
                <rect>
                    2 40 12 20</rect></_>
            <_>
                <rect>
                    2 74 14 16</rect></_>
            <_>
                <rect>
                    3 13 9 42</rect></_>
            <_>
                <rect>
                    3 21 9 13</rect></_>
            <_>
                <rect>
                    3 43 16 24</rect></_>
            <_>
                <rect>
                    3 79 14 10</rect></_>
            <_>
                <rect>
                    4 24 9 13</rect></_>
            <_>
                <rect>
                    4 48 21 16</rect></_>
            <_>
                <rect>
                    4 68 16 19</rect></_>
            <_>
                <rect>
                    5 33 20 28</rect></_>
            <_>
                <rect>
                    5 116 19 8</rect></_>
            <_>
                <rect>
                    5 118 10 6</rect></_>
            <_>
                <rect>
                    6 0 21 6</rect></_>
            <_>
                <rect>
                    6 30 20 35</rect></_>
            <_>
                <rect>
                    6 81 14 19</rect></_>
            <_>
                <rect>
                    7 56 15 10</rect></_>
            <_>
                <rect>
                    7 72 15 10</rect></_>
            <_>
                <rect>
                    8 62 13 12</rect></_>
            <_>
                <rect>
                    9 28 15 35</rect></_>
            <_>
                <rect>
                    9 45 13 14</rect></_>
            <_>
                <rect>
                    9 52 13 11</rect></_>
            <_>
                <rect>
                    9 69 15 7</rect></_>
            <_>
                <rect>
                    10 24 14 26</rect></_>
            <_>
                <rect>
                    10 45 11 14</rect></_>
            <_>
                <rect>
                    10 90 15 9</rect></_>
            <_>
                <rect>
                    11 3 19 7</rect></_>
            <_>
                <rect>
                    11 43 11 16</rect></_>
            <_>
                <rect>
                    11 48 10 14</rect></_>
            <_>
                <rect>
                    12 59 8 6</rect></_>
            <_>
                <rect>
                    12 68 19 19</rect></_>
            <_>
                <rect>
                    12 71 18 22</rect></_>
            <_>
                <rect>
                    13 54 10 16</rect></_>
            <_>
                <rect>
                    13 93 15 13</rect></_>
            <_>
                <rect>
                    14 0 13 16</rect></_>
            <_>
                <rect>
                    14 61 6 4</rect></_>
            <_>
                <rect>
                    15 22 16 35</rect></_>
            <_>
                <rect>
                    15 37 9 6</rect></_>
            <_>
                <rect>
                    16 20 10 11</rect></_>
            <_>
                <rect>
                    16 62 4 3</rect></_>
            <_>
                <rect>
                    16 66 12 7</rect></_>
            <_>
                <rect>
                    16 72 3 3</rect></_>
            <_>
                <rect>
                    16 76 12 9</rect></_>
            <_>
                <rect>
                    17 66 11 5</rect></_>
            <_>
                <rect>
                    17 66 12 11</rect></_>
            <_>
                <rect>
                    17 88 12 8</rect></_>
            <_>
                <rect>
                    17 99 16 13</rect></_>
            <_>
                <rect>
                    18 63 9 8</rect></_>
            <_>
                <rect>
                    18 64 13 5</rect></_>
            <_>
                <rect>
                    18 72 3 3</rect></_>
            <_>
                <rect>
                    18 80 11 12</rect></_>
            <_>
                <rect>
                    18 81 17 11</rect></_>
            <_>
                <rect>
                    18 111 15 9</rect></_>
            <_>
                <rect>
                    19 34 16 18</rect></_>
            <_>
                <rect>
                    19 45 15 13</rect></_>
            <_>
                <rect>
                    19 48 12 14</rect></_>
            <_>
                <rect>
                    19 56 17 7</rect></_>
            <_>
                <rect>
                    20 46 9 20</rect></_>
            <_>
                <rect>
                    20 65 9 5</rect></_>
            <_>
                <rect>
                    20 71 16 10</rect></_>
            <_>
                <rect>
                    20 73 7 7</rect></_>
            <_>
                <rect>
                    21 35 16 31</rect></_>
            <_>
                <rect>
                    21 65 9 5</rect></_>
            <_>
                <rect>
                    22 62 11 10</rect></_>
            <_>
                <rect>
                    22 66 7 4</rect></_>
            <_>
                <rect>
                    22 71 15 17</rect></_>
            <_>
                <rect>
                    22 83 14 17</rect></_>
            <_>
                <rect>
                    22 99 11 12</rect></_>
            <_>
                <rect>
                    23 30 11 12</rect></_>
            <_>
                <rect>
                    23 48 12 14</rect></_>
            <_>
                <rect>
                    23 55 8 14</rect></_>
            <_>
                <rect>
                    23 57 4 5</rect></_>
            <_>
                <rect>
                    24 53 7 6</rect></_>
            <_>
                <rect>
                    25 17 15 17</rect></_>
            <_>
                <rect>
                    25 42 15 22</rect></_>
            <_>
                <rect>
                    25 50 9 6</rect></_>
            <_>
                <rect>
                    25 108 15 10</rect></_>
            <_>
                <rect>
                    26 0 12 8</rect></_>
            <_>
                <rect>
                    26 35 10 5</rect></_>
            <_>
                <rect>
                    26 62 9 7</rect></_>
            <_>
                <rect>
                    26 68 4 2</rect></_>
            <_>
                <rect>
                    26 69 11 9</rect></_>
            <_>
                <rect>
                    26 71 7 7</rect></_>
            <_>
                <rect>
                    27 1 14 19</rect></_>
            <_>
                <rect>
                    27 51 9 6</rect></_>
            <_>
                <rect>
                    27 66 10 5</rect></_>
            <_>
                <rect>
                    27 71 8 8</rect></_>
            <_>
                <rect>
                    28 44 14 26</rect></_>
            <_>
                <rect>
                    28 54 5 4</rect></_>
            <_>
                <rect>
                    28 60 12 7</rect></_>
            <_>
                <rect>
                    28 67 3 3</rect></_>
            <_>
                <rect>
                    29 78 12 10</rect></_>
            <_>
                <rect>
                    30 61 10 11</rect></_>
            <_>
                <rect>
                    30 66 3 3</rect></_>
            <_>
                <rect>
                    30 69 5 6</rect></_>
            <_>
                <rect>
                    30 69 7 3</rect></_>
            <_>
                <rect>
                    31 0 13 43</rect></_>
            <_>
                <rect>
                    31 58 8 8</rect></_>
            <_>
                <rect>
                    31 65 4 3</rect></_>
            <_>
                <rect>
                    31 91 7 8</rect></_>
            <_>
                <rect>
                    33 67 6 3</rect></_>
            <_>
                <rect>
                    34 23 12 8</rect></_>
            <_>
                <rect>
                    34 29 12 30</rect></_>
            <_>
                <rect>
                    34 66 6 6</rect></_>
            <_>
                <rect>
                    34 79 12 10</rect></_>
            <_>
                <rect>
                    35 51 9 14</rect></_>
            <_>
                <rect>
                    35 72 5 2</rect></_>
            <_>
                <rect>
                    36 41 11 18</rect></_>
            <_>
                <rect>
                    36 46 11 14</rect></_>
            <_>
                <rect>
                    36 64 7 6</rect></_>
            <_>
                <rect>
                    36 67 3 2</rect></_>
            <_>
                <rect>
                    36 102 10 10</rect></_>
            <_>
                <rect>
                    37 1 11 42</rect></_>
            <_>
                <rect>
                    37 43 11 20</rect></_>
            <_>
                <rect>
                    38 60 5 3</rect></_>
            <_>
                <rect>
                    38 93 9 15</rect></_>
            <_>
                <rect>
                    40 45 9 18</rect></_>
            <_>
                <rect>
                    43 34 9 11</rect></_>
            <_>
                <rect>
                    43 43 9 16</rect></_>
            <_>
                <rect>
                    44 48 8 17</rect></_>
            <_>
                <rect>
                    45 98 6 8</rect></_>
            <_>
                <rect>
                    46 74 7 7</rect></_>
            <_>
                <rect>
                    47 90 5 8</rect></_>
            <_>
                <rect>
                    52 74 6 7</rect></_>
            <_>
                <rect>
                    55 32 4 7</rect></_>
            <_>
                <rect>
                    61 38 3 18</rect></_>
            <_>
                <rect>
                    64 20 2 32</rect></_></features></cascade>
</opencv_storage>