<?xml version="1.0"?>
<opencv_storage>
<cascade>
  <stageType>BOOST</stageType>
  <featureType>LBP</featureType>
  <height>100</height>
  <width>50</width>
  <stageParams>
    <boostType>GAB</boostType>
    <minHitRate>9.9900001287460327e-01</minHitRate>
    <maxFalseAlarm>2.0000000298023224e-01</maxFalseAlarm>
    <weightTrimRate>9.4999999999999996e-01</weightTrimRate>
    <maxDepth>1</maxDepth>
    <maxWeakCount>100</maxWeakCount></stageParams>
  <featureParams>
    <maxCatCount>256</maxCatCount>
    <featSize>1</featSize></featureParams>
  <stageNum>25</stageNum>
  <stages>
    <!-- stage 0 -->
    <_>
      <maxWeakCount>5</maxWeakCount>
      <stageThreshold>-7.0608848333358765e-01</stageThreshold>
      <weakClassifiers>
        <_>
          <internalNodes>
            0 -1 41 -754715137 293818907 -2147483385 1465221941 17369547
            37945345 134894539 55246875</internalNodes>
          <leafValues>
            -8.2692307233810425e-01 7.6851850748062134e-01</leafValues></_>
        <_>
          <internalNodes>
            0 -1 22 1141629351 1897202455 -1056960461 1569128721
            638583569 286834817 285262511 32194631</internalNodes>
          <leafValues>
            -6.9933766126632690e-01 6.1230951547622681e-01</leafValues></_>
        <_>
          <internalNodes>
            0 -1 148 -661532416 1438847128 1077936140 353571971 8946102
            9492486 -855586680 1909178410</internalNodes>
          <leafValues>
            -6.9678294658660889e-01 5.6858974695205688e-01</leafValues></_>
        <_>
          <internalNodes>
            0 -1 69 1459737083 299467081 285720589 -1256898368 681574546
            67764616 704643487 1802223759</internalNodes>
          <leafValues>
            -6.2737578153610229e-01 6.7361873388290405e-01</leafValues></_>
        <_>
          <internalNodes>
            0 -1 191 -805257116 -1743781888 1560549777 -553562091
            405405851 -1702852384 -1472156517 1343291399</internalNodes>
          <leafValues>
            -7.1648329496383667e-01 5.7650935649871826e-01</leafValues></_></weakClassifiers></_>
    <!-- stage 1 -->
    <_>
      <maxWeakCount>9</maxWeakCount>
      <stageThreshold>-4.8880925774574280e-01</stageThreshold>
      <weakClassifiers>
        <_>
          <internalNodes>
            0 -1 246 -1072443169 2228738 -2143592961 321355583
            -2146701313 578256767 -1627400225 2067790847</internalNodes>
          <leafValues>
            -5.0000000000000000e-01 7.3456788063049316e-01</leafValues></_>
        <_>
          <internalNodes>
            0 -1 83 38510762 1662132258 273842457 1397016583 36406186
            269060370 1510047995 -6296869</internalNodes>
          <leafValues>
            -6.0788220167160034e-01 5.6731629371643066e-01</leafValues></_>
        <_>
          <internalNodes>
            0 -1 155 -689864399 -146767780 17944593 -1862172415
            -913670001 -545128319 1262600331 402653441</internalNodes>
          <leafValues>
            -6.2241947650909424e-01 5.4708606004714966e-01</leafValues></_>
        <_>
          <internalNodes>
            0 -1 16 -213650637 -247213566 1091125657 -788278399 65556
            -1207234495 1346422965 499635199</internalNodes>
          <leafValues>
            -6.0803204774856567e-01 5.8124601840972900e-01</leafValues></_>
        <_>
          <internalNodes>
            0 -1 199 1074385879 -1837088767 -721399399 -1342099135
            1209255903 -1643468668 1476401851 2123092955</internalNodes>
          <leafValues>
            -5.3270441293716431e-01 6.1310112476348877e-01</leafValues></_>
        <_>
          <internalNodes>
            0 -1 291 -792199957 -2147314558 16777496 1331271 2072514695
            687900672 1612963971 1920201395</internalNodes>
          <leafValues>
            -6.0724902153015137e-01 5.6108969449996948e-01</leafValues></_>
        <_>
          <internalNodes>
            0 -1 247 -307626241 1052398714 -1896169475 -1080471939
            1002330601 -1912668929 666346654 534767359</internalNodes>
          <leafValues>
            -5.3435891866683960e-01 7.0863455533981323e-01</leafValues></_>
        <_>
          <internalNodes>
            0 -1 147 -2002214815 -1073671806 84939477 -786923247
            -1987516210 -1144421752 -1031734599 193007825</internalNodes>
          <leafValues>
            -6.5288370847702026e-01 5.8045125007629395e-01</leafValues></_>
        <_>
          <internalNodes>
            0 -1 254 -500998933 1125287982 -1698773254 -1288488137
            -2063868481 -826278017 1400897535 -96864577</internalNodes>
          <leafValues>
            -5.0306707620620728e-01 7.2759908437728882e-01</leafValues></_></weakClassifiers></_>
    <!-- stage 2 -->
    <_>
      <maxWeakCount>8</maxWeakCount>
      <stageThreshold>-9.0233869850635529e-02</stageThreshold>
      <weakClassifiers>
        <_>
          <internalNodes>
            0 -1 9 1744504709 1408705121 1610610591 -135268481 286065422
            377429835 -1216872449 -3145793</internalNodes>
          <leafValues>
            -4.6492660045623779e-01 6.9402229785919189e-01</leafValues></_>
        <_>
          <internalNodes>
            0 -1 24 -873465889 -709654393 -1055567856 -598527966 738050
            423813120 1136853330 1460605028</internalNodes>
          <leafValues>
            -6.2677544355392456e-01 5.1596325635910034e-01</leafValues></_>
        <_>
          <internalNodes>
            0 -1 150 1903141678 420970496 1090568262 -112971122
            -712912929 1803649165 1082647363 -422067925</internalNodes>
          <leafValues>
            -5.4331147670745850e-01 5.3868281841278076e-01</leafValues></_>
        <_>
          <internalNodes>
            0 -1 109 -997013598 -1835806437 -535718581 -846258161
            1111961571 -201136114 564339182 1370473219</internalNodes>
          <leafValues>
            -6.4274412393569946e-01 4.8135873675346375e-01</leafValues></_>
        <_>
          <internalNodes>
            0 -1 188 1365637375 -1109467393 599305786 458402559
            503297468 206462293 -1242162501 -1610932739</internalNodes>
          <leafValues>
            -4.4981759786605835e-01 7.0677804946899414e-01</leafValues></_>
        <_>
          <internalNodes>
            0 -1 2 -723662993 -1341996508 -1073671934 -1022652158
            675356827 -2147450624 1497367180 1399543583</internalNodes>
          <leafValues>
            -6.8225950002670288e-01 4.6440100669860840e-01</leafValues></_>
        <_>
          <internalNodes>
            0 -1 253 -935687749 -1474286927 -872542274 -1088377859
            1153420475 -926941250 -1203817281 -395849729</internalNodes>
          <leafValues>
            -5.1863241195678711e-01 6.2682938575744629e-01</leafValues></_>
        <_>
          <internalNodes>
            0 -1 189 973098165 822177793 1360560471 -720034048 406343863
            -611647472 1484934379 1836920856</internalNodes>
          <leafValues>
            -6.6490614414215088e-01 4.8939746618270874e-01</leafValues></_></weakClassifiers></_>
    <!-- stage 3 -->
    <_>
      <maxWeakCount>11</maxWeakCount>
      <stageThreshold>-3.9463472366333008e-01</stageThreshold>
      <weakClassifiers>
        <_>
          <internalNodes>
            0 -1 181 829811463 51217922 1920434031 51376031 -134218241
            -159453185 -75501569 -1149239425</internalNodes>
          <leafValues>
            -4.1767764091491699e-01 6.2658846378326416e-01</leafValues></_>
        <_>
          <internalNodes>
            0 -1 274 -1117539489 672555415 1342198141 13894152 9443532
            134250498 16777867 1590123139</internalNodes>
          <leafValues>
            -6.0864716768264771e-01 4.2317453026771545e-01</leafValues></_>
        <_>
          <internalNodes>
            0 -1 31 -810627090 1201811446 -50397190 -67407873 -564513465
            377094007 1434400635 -146802693</internalNodes>
          <leafValues>
            -4.8420292139053345e-01 5.4405039548873901e-01</leafValues></_>
        <_>
          <internalNodes>
            0 -1 187 1556085956 -673054811 1035380920 1533128126
            889051133 343913853 402531039 -1765819153</internalNodes>
          <leafValues>
            -4.8715901374816895e-01 5.7156807184219360e-01</leafValues></_>
        <_>
          <internalNodes>
            0 -1 11 -640016689 1360462020 -2143190843 1368203267
            1111494697 295360 1233208448 1833693659</internalNodes>
          <leafValues>
            -6.2135922908782959e-01 4.4454675912857056e-01</leafValues></_>
        <_>
          <internalNodes>
            0 -1 134 -249331271 -47986672 1729903999 -205129967
            -257106758 -21528834 -1128857667 -401121497</internalNodes>
          <leafValues>
            -3.5928580164909363e-01 8.0228888988494873e-01</leafValues></_>
        <_>
          <internalNodes>
            0 -1 59 1917494758 1428652057 1090666721 -2046803960
            1216348672 453509249 444843195 -24394997</internalNodes>
          <leafValues>
            -5.9119379520416260e-01 4.7727027535438538e-01</leafValues></_>
        <_>
          <internalNodes>
            0 -1 263 -881095340 -1986967028 1644335327 -360374190
            -117258036 -1174355962 -83357446 302033674</internalNodes>
          <leafValues>
            -6.0718888044357300e-01 4.6823653578758240e-01</leafValues></_>
        <_>
          <internalNodes>
            0 -1 21 1879306611 -251608816 -1862152046 -1618460665
            84463712 -1534558205 -1977436281 -1019100079</internalNodes>
          <leafValues>
            -5.0020903348922729e-01 6.0713684558868408e-01</leafValues></_>
        <_>
          <internalNodes>
            0 -1 49 2029376722 1356267318 620719740 670545711
            -1586583585 -848939123 930709503 -1210583443</internalNodes>
          <leafValues>
            -5.1228159666061401e-01 5.8426654338836670e-01</leafValues></_>
        <_>
          <internalNodes>
            0 -1 243 -1375739985 335502511 -1108344833 1920790141
            2125593992 -855744594 -33661234 -933730621</internalNodes>
          <leafValues>
            -4.4414076209068298e-01 6.9104909896850586e-01</leafValues></_></weakClassifiers></_>
    <!-- stage 4 -->
    <_>
      <maxWeakCount>10</maxWeakCount>
      <stageThreshold>-3.9936202764511108e-01</stageThreshold>
      <weakClassifiers>
        <_>
          <internalNodes>
            0 -1 234 -352844265 -59344771 -124929 -80511713 -1896153349
            -285245571 -992421889 2098272</internalNodes>
          <leafValues>
            -4.4801512360572815e-01 5.9477126598358154e-01</leafValues></_>
        <_>
          <internalNodes>
            0 -1 51 -11289761 889786432 -1055911925 -1076812797
            -1476375398 524290 1661658061 466172383</internalNodes>
          <leafValues>
            -6.6398692131042480e-01 4.0402314066886902e-01</leafValues></_>
        <_>
          <internalNodes>
            0 -1 287 -561035690 1078397192 826822877 1249956119
            -1064580675 -1434441696 -456603410 2810570</internalNodes>
          <leafValues>
            -6.1548632383346558e-01 4.1010496020317078e-01</leafValues></_>
        <_>
          <internalNodes>
            0 -1 120 -296640381 -264224748 -1870000005 -133758777
            -1065313302 -91717248 -938898773 37752996</internalNodes>
          <leafValues>
            -5.6808048486709595e-01 4.7256606817245483e-01</leafValues></_>
        <_>
          <internalNodes>
            0 -1 42 -512965691 -1055686358 1476395412 -553286967
            1661723278 -829947773 33784325 167244517</internalNodes>
          <leafValues>
            -5.4604995250701904e-01 4.7832986712455750e-01</leafValues></_>
        <_>
          <internalNodes>
            0 -1 30 -663268742 -249507826 822092085 1963421699
            -2141689142 1915947010 -1954446961 2056143255</internalNodes>
          <leafValues>
            -5.7176548242568970e-01 4.6638935804367065e-01</leafValues></_>
        <_>
          <internalNodes>
            0 -1 185 -1422333943 -369852270 -814352801 2002261365
            -261557541 -805308929 -675291173 -1861745401</internalNodes>
          <leafValues>
            -4.5173573493957520e-01 5.9948432445526123e-01</leafValues></_>
        <_>
          <internalNodes>
            0 -1 271 -925892865 305232826 -348422593 959082489
            1285525503 1606418431 -4194305 -1643918337</internalNodes>
          <leafValues>
            -4.5931941270828247e-01 6.1956644058227539e-01</leafValues></_>
        <_>
          <internalNodes>
            0 -1 183 -1828169487 -16445380 -2059353761 2097254402
            -431402064 -1080031227 -872374052 2114455689</internalNodes>
          <leafValues>
            -5.4917287826538086e-01 5.4295045137405396e-01</leafValues></_>
        <_>
          <internalNodes>
            0 -1 202 -108023804 1129697284 20975956 287277185
            -2122249081 553926720 147517706 826884299</internalNodes>
          <leafValues>
            -7.1037387847900391e-01 3.8852140307426453e-01</leafValues></_></weakClassifiers></_>
    <!-- stage 5 -->
    <_>
      <maxWeakCount>12</maxWeakCount>
      <stageThreshold>-5.1855373382568359e-01</stageThreshold>
      <weakClassifiers>
        <_>
          <internalNodes>
            0 -1 261 1210321144 -537593159 -4205249 -144151240 -84174104
            -33669633 -1008799809 1209010176</internalNodes>
          <leafValues>
            -4.1811174154281616e-01 5.7076781988143921e-01</leafValues></_>
        <_>
          <internalNodes>
            0 -1 3 -547700289 -245988973 -1067972577 -81555417
            -1988001537 -1467807741 -619951743 541184613</internalNodes>
          <leafValues>
            -5.0967258214950562e-01 4.7684147953987122e-01</leafValues></_>
        <_>
          <internalNodes>
            0 -1 173 -367596027 2011850551 1723754223 1936093743
            1123864047 -1159729617 2013220847 -1852979225</internalNodes>
          <leafValues>
            -4.7316187620162964e-01 5.2928322553634644e-01</leafValues></_>
        <_>
          <internalNodes>
            0 -1 171 -1507774091 -1958899 1069215287 1610479095
            -1430655590 -1377976417 -1343860741 523371131</internalNodes>
          <leafValues>
            -4.5776197314262390e-01 5.3608077764511108e-01</leafValues></_>
        <_>
          <internalNodes>
            0 -1 62 -2125663625 -550407743 1410566168 529969362
            1745380283 1593983368 581107850 437469870</internalNodes>
          <leafValues>
            -5.2837508916854858e-01 4.8154169321060181e-01</leafValues></_>
        <_>
          <internalNodes>
            0 -1 251 608857592 185180272 1409319476 -1506027181
            168763521 1344340113 142805160 1406773579</internalNodes>
          <leafValues>
            -6.8264091014862061e-01 3.9560535550117493e-01</leafValues></_>
        <_>
          <internalNodes>
            0 -1 135 -933838821 -662585279 2097175 -69725933 -1597857310
            -1417084794 578876111 901248</internalNodes>
          <leafValues>
            -5.9477967023849487e-01 4.7122192382812500e-01</leafValues></_>
        <_>
          <internalNodes>
            0 -1 53 -813258744 1434509850 -2130623219 428380171
            1057563144 885063816 -117414928 2072916142</internalNodes>
          <leafValues>
            -6.5865588188171387e-01 3.7691211700439453e-01</leafValues></_>
        <_>
          <internalNodes>
            0 -1 117 -1068838511 -1005902471 -83894401 -268632713
            -589802527 -12615683 1813673678 -2012375595</internalNodes>
          <leafValues>
            -4.9941059947013855e-01 5.5950069427490234e-01</leafValues></_>
        <_>
          <internalNodes>
            0 -1 163 -927730430 -176057612 353371282 1561527050
            2055709127 287378688 82048 1401135244</internalNodes>
          <leafValues>
            -6.2714445590972900e-01 4.4107675552368164e-01</leafValues></_>
        <_>
          <internalNodes>
            0 -1 223 -790953603 -771276544 26821 1546846226 189415737
            -939376470 -2013165394 1347469824</internalNodes>
          <leafValues>
            -6.4017438888549805e-01 4.2779287695884705e-01</leafValues></_>
        <_>
          <internalNodes>
            0 -1 167 -586015562 1628163137 -2147212904 2105628675
            169443512 188795267 -2071887482 1605193354</internalNodes>
          <leafValues>
            -6.0957598686218262e-01 4.5187285542488098e-01</leafValues></_></weakClassifiers></_>
    <!-- stage 6 -->
    <_>
      <maxWeakCount>11</maxWeakCount>
      <stageThreshold>-5.9573113918304443e-01</stageThreshold>
      <weakClassifiers>
        <_>
          <internalNodes>
            0 -1 55 1566023039 18993281 96417 352833845 18432255
            856278179 1211035874 253718731</internalNodes>
          <leafValues>
            -5.9296482801437378e-01 5.2911812067031860e-01</leafValues></_>
        <_>
          <internalNodes>
            0 -1 7 -192304129 856883208 25596050 -2012869707 184633463
            151130118 1949970837 2070274499</internalNodes>
          <leafValues>
            -5.2370971441268921e-01 4.1983804106712341e-01</leafValues></_>
        <_>
          <internalNodes>
            0 -1 294 -605028355 -291799089 -1073807425 1807081187
            -262146 -1 -1073954957 -1375020833</internalNodes>
          <leafValues>
            -3.7708070874214172e-01 5.9767305850982666e-01</leafValues></_>
        <_>
          <internalNodes>
            0 -1 130 -490225212 286785577 -2147446758 841489720
            -498998603 320897154 1820395977 -139613536</internalNodes>
          <leafValues>
            -5.3849017620086670e-01 4.4181445240974426e-01</leafValues></_>
        <_>
          <internalNodes>
            0 -1 17 -171469929 -55233744 2139061247 -1099431969 88277120
            -233502857 -1049627569 -1962943521</internalNodes>
          <leafValues>
            -4.0707379579544067e-01 5.8353334665298462e-01</leafValues></_>
        <_>
          <internalNodes>
            0 -1 292 261873445 34230340 16777410 827396932 436424713
            1342771200 -1965551408 1775100346</internalNodes>
          <leafValues>
            -6.0527658462524414e-01 4.1239750385284424e-01</leafValues></_>
        <_>
          <internalNodes>
            0 -1 241 -1039120141 -2063969760 100761747 -1659895487
            51005579 -1836539772 -1308417468 446865483</internalNodes>
          <leafValues>
            -5.7108181715011597e-01 4.3886616826057434e-01</leafValues></_>
        <_>
          <internalNodes>
            0 -1 219 -502101731 2020573209 1073860608 -1289928605
            1350753451 -930840064 -805256998 -1560163829</internalNodes>
          <leafValues>
            -5.1551204919815063e-01 5.5495828390121460e-01</leafValues></_>
        <_>
          <internalNodes>
            0 -1 244 -1068278625 537117957 -2147270635 287426624
            -2121547768 -2138898176 -1736324967 764118750</internalNodes>
          <leafValues>
            -5.7576292753219604e-01 4.4760808348655701e-01</leafValues></_>
        <_>
          <internalNodes>
            0 -1 85 -234780909 -545562129 1073477567 -1275132044
            144425640 -1216391691 -156239945 -46151753</internalNodes>
          <leafValues>
            -4.0058058500289917e-01 6.6155272722244263e-01</leafValues></_>
        <_>
          <internalNodes>
            0 -1 110 1266153940 -250429438 -1878910720 319946818
            -2138397188 1258356745 108660825 -209110629</internalNodes>
          <leafValues>
            -5.2766376733779907e-01 4.9410831928253174e-01</leafValues></_></weakClassifiers></_>
    <!-- stage 7 -->
    <_>
      <maxWeakCount>12</maxWeakCount>
      <stageThreshold>-2.5150650739669800e-01</stageThreshold>
      <weakClassifiers>
        <_>
          <internalNodes>
            0 -1 1 -17932801 2105425910 -268474369 -293701889 2013033989
            -172035 1988066327 1239569521</internalNodes>
          <leafValues>
            -4.6086955070495605e-01 5.3684210777282715e-01</leafValues></_>
        <_>
          <internalNodes>
            0 -1 192 -264658385 -749502349 1098960331 -1600831415
            -1065336646 -905407296 -1064828850 98313</internalNodes>
          <leafValues>
            -5.4244607686996460e-01 4.1151085495948792e-01</leafValues></_>
        <_>
          <internalNodes>
            0 -1 5 1885337039 2147483511 -1107333121 1694465535
            1175258252 -436211745 1610473421 -939524321</internalNodes>
          <leafValues>
            -4.2852810025215149e-01 5.2713984251022339e-01</leafValues></_>
        <_>
          <internalNodes>
            0 -1 91 1088372845 381751312 -1861855092 2134921216 12807529
            1812046338 1115884120 421743270</internalNodes>
          <leafValues>
            -5.9656655788421631e-01 3.7654352188110352e-01</leafValues></_>
        <_>
          <internalNodes>
            0 -1 116 841899035 822624280 27000 494993414 -1945435940
            -399914872 419988730 2139570187</internalNodes>
          <leafValues>
            -5.3273218870162964e-01 4.3356034159660339e-01</leafValues></_>
        <_>
          <internalNodes>
            0 -1 162 -1065365977 981466941 -42467589 1940909823
            -453030593 -1476395065 -201369921 -2141207449</internalNodes>
          <leafValues>
            -4.8440679907798767e-01 5.2886027097702026e-01</leafValues></_>
        <_>
          <internalNodes>
            0 -1 82 -279076122 1903665709 -1075838977 1946156923
            88552127 -1149545881 -138428425 -610555992</internalNodes>
          <leafValues>
            -4.1607969999313354e-01 5.7611066102981567e-01</leafValues></_>
        <_>
          <internalNodes>
            0 -1 299 -1631851267 800980988 -3 -573443 1056964607
            1073643391 -197121 -1465196546</internalNodes>
          <leafValues>
            -4.7492936253547668e-01 5.1367008686065674e-01</leafValues></_>
        <_>
          <internalNodes>
            0 -1 169 1142080991 -1440075862 360544507 -810559489
            -425518153 -621052033 -688055809 -587472897</internalNodes>
          <leafValues>
            -4.3885195255279541e-01 6.0757058858871460e-01</leafValues></_>
        <_>
          <internalNodes>
            0 -1 258 -103600073 1896812584 -1073160121 807884818
            1485967678 -1333327733 -652517332 377656290</internalNodes>
          <leafValues>
            -5.7322031259536743e-01 4.7146010398864746e-01</leafValues></_>
        <_>
          <internalNodes>
            0 -1 152 -937590495 1074091169 -519714233 335560704
            -1727887218 -1065090928 193282319 -1853068082</internalNodes>
          <leafValues>
            -5.2838736772537231e-01 5.0486421585083008e-01</leafValues></_>
        <_>
          <internalNodes>
            0 -1 211 -1877949319 -1674706688 402949393 -603619007
            -1442316136 -1182760557 352372989 438360196</internalNodes>
          <leafValues>
            -6.0982716083526611e-01 4.6902155876159668e-01</leafValues></_></weakClassifiers></_>
    <!-- stage 8 -->
    <_>
      <maxWeakCount>12</maxWeakCount>
      <stageThreshold>-3.1209889054298401e-01</stageThreshold>
      <weakClassifiers>
        <_>
          <internalNodes>
            0 -1 8 1433622531 1593310718 -147531 2121793141 1328897297
            -512264192 2104776052 1581014325</internalNodes>
          <leafValues>
            -4.5368170738220215e-01 5.0127226114273071e-01</leafValues></_>
        <_>
          <internalNodes>
            0 -1 212 -142414322 1402437636 319866893 1934301706
            574783883 1249927265 -1932885304 -1288725986</internalNodes>
          <leafValues>
            -3.8417115807533264e-01 4.8402023315429688e-01</leafValues></_>
        <_>
          <internalNodes>
            0 -1 106 -1786407589 291176474 -1585446783 -2096299773
            -2139060085 -939491320 704879307 800860952</internalNodes>
          <leafValues>
            -6.0019409656524658e-01 3.6414924263954163e-01</leafValues></_>
        <_>
          <internalNodes>
            0 -1 73 340898010 -578711023 835749936 -716365736 -133848893
            -1398272896 -1592785741 1265840781</internalNodes>
          <leafValues>
            -4.9229913949966431e-01 4.7871968150138855e-01</leafValues></_>
        <_>
          <internalNodes>
            0 -1 72 -2116038637 -517439183 453509313 -788192761
            -939269515 -1995866106 -935156605 1325678692</internalNodes>
          <leafValues>
            -5.9025341272354126e-01 3.8110899925231934e-01</leafValues></_>
        <_>
          <internalNodes>
            0 -1 14 1363240355 -693891567 -603929535 -2008538864
            1158481450 -1207908340 466354371 -701840502</internalNodes>
          <leafValues>
            -5.5982172489166260e-01 4.2397075891494751e-01</leafValues></_>
        <_>
          <internalNodes>
            0 -1 76 1351947291 523480676 -4718857 -1401587721
            -1038483308 -1119879312 633195711 -1636336225</internalNodes>
          <leafValues>
            -3.7917909026145935e-01 6.1048340797424316e-01</leafValues></_>
        <_>
          <internalNodes>
            0 -1 166 -1766203238 1577661723 1074649152 1192513556
            1644712084 -1869905790 -1962387309 2079322127</internalNodes>
          <leafValues>
            -5.5890899896621704e-01 4.5417132973670959e-01</leafValues></_>
        <_>
          <internalNodes>
            0 -1 137 -1029987584 1360020480 -1046298403 1671012496
            -1048289061 -1440118645 805347466 889833482</internalNodes>
          <leafValues>
            -6.6280615329742432e-01 3.9365997910499573e-01</leafValues></_>
        <_>
          <internalNodes>
            0 -1 179 1930680399 18187650 1073823824 -1970700288 100375
            -2008231936 -2012741568 -1019305814</internalNodes>
          <leafValues>
            -5.2138197422027588e-01 4.7652667760848999e-01</leafValues></_>
        <_>
          <internalNodes>
            0 -1 50 1576918141 967716862 2109619967 -68337671 905719660
            -1888387137 -554176049 -944521354</internalNodes>
          <leafValues>
            -4.0085902810096741e-01 6.5133309364318848e-01</leafValues></_>
        <_>
          <internalNodes>
            0 -1 215 1409676342 208470013 737849072 805251044 805306110
            262995809 -1124135715 -1476748035</internalNodes>
          <leafValues>
            -4.4875103235244751e-01 5.4634237289428711e-01</leafValues></_></weakClassifiers></_>
    <!-- stage 9 -->
    <_>
      <maxWeakCount>13</maxWeakCount>
      <stageThreshold>-6.8444722890853882e-01</stageThreshold>
      <weakClassifiers>
        <_>
          <internalNodes>
            0 -1 273 -696258909 1258291199 1054785131 708771695
            1711232325 1459574647 -10529420 2054586239</internalNodes>
          <leafValues>
            -3.7022900581359863e-01 5.5204463005065918e-01</leafValues></_>
        <_>
          <internalNodes>
            0 -1 262 -561165804 -179922637 -385773409 -884076530
            541098121 -385793916 -2012690225 35702815</internalNodes>
          <leafValues>
            -5.0559943914413452e-01 4.0561154484748840e-01</leafValues></_>
        <_>
          <internalNodes>
            0 -1 36 1362229982 1364652056 268514552 1052770646
            -1870507124 1259348058 -1735683406 -751359869</internalNodes>
          <leafValues>
            -4.3931633234024048e-01 4.5873308181762695e-01</leafValues></_>
        <_>
          <internalNodes>
            0 -1 210 -734863661 -1442836266 1346401299 -1617952616
            1879734730 -192212992 -1073000199 790653065</internalNodes>
          <leafValues>
            -4.8184993863105774e-01 4.3288451433181763e-01</leafValues></_>
        <_>
          <internalNodes>
            0 -1 232 12814815 587828877 671433105 151503056 -1052716855
            -897413048 604557896 -1083717489</internalNodes>
          <leafValues>
            -5.7454407215118408e-01 3.7236461043357849e-01</leafValues></_>
        <_>
          <internalNodes>
            0 -1 44 1954769330 1095074831 -1862170614 1946330004
            1628842499 -1065353078 1620771440 1117253649</internalNodes>
          <leafValues>
            -6.4746141433715820e-01 3.5683777928352356e-01</leafValues></_>
        <_>
          <internalNodes>
            0 -1 99 -1938416682 1649428750 285549598 126746977 613584043
            1654720568 -1006001164 -479575926</internalNodes>
          <leafValues>
            -5.5080205202102661e-01 4.1335812211036682e-01</leafValues></_>
        <_>
          <internalNodes>
            0 -1 288 -26227247 2029973309 -35585 1457699306 1056337855
            -822083585 1878982267 -84738178</internalNodes>
          <leafValues>
            -3.9102676510810852e-01 6.2056869268417358e-01</leafValues></_>
        <_>
          <internalNodes>
            0 -1 250 -2045112139 454168730 -779609519 -2025717504
            -770123350 -609681276 -1845329729 237520980</internalNodes>
          <leafValues>
            -5.9593498706817627e-01 4.1563591361045837e-01</leafValues></_>
        <_>
          <internalNodes>
            0 -1 4 -455955565 1817448642 25198610 -1861631928 147491030
            -1467791232 1116405907 -44960171</internalNodes>
          <leafValues>
            -5.1550436019897461e-01 5.0169700384140015e-01</leafValues></_>
        <_>
          <internalNodes>
            0 -1 94 -1073507945 800671417 1059059191 -516488011
            -585201907 -1476455626 -1184940198 -885004549</internalNodes>
          <leafValues>
            -4.1032785177230835e-01 6.3748908042907715e-01</leafValues></_>
        <_>
          <internalNodes>
            0 -1 57 -1583566177 -2096988150 285248010 -1777860560
            -2013260870 813705346 -1383544477 1858853255</internalNodes>
          <leafValues>
            -4.7101321816444397e-01 5.4160857200622559e-01</leafValues></_>
        <_>
          <internalNodes>
            0 -1 143 1233232283 1258881587 536907907 -251554532
            1478813705 -1471512379 -1073540904 -267050994</internalNodes>
          <leafValues>
            -4.9126130342483521e-01 5.0984627008438110e-01</leafValues></_></weakClassifiers></_>
    <!-- stage 10 -->
    <_>
      <maxWeakCount>13</maxWeakCount>
      <stageThreshold>-5.5346935987472534e-01</stageThreshold>
      <weakClassifiers>
        <_>
          <internalNodes>
            0 -1 136 335548584 -1811569660 286064671 1263296648
            -1877570831 -1475870553 -2004318837 251691008</internalNodes>
          <leafValues>
            -5.5102038383483887e-01 4.6857598423957825e-01</leafValues></_>
        <_>
          <internalNodes>
            0 -1 20 -201630645 -1358954964 -16859158 -390709512
            1315471165 1727889022 1643706356 -1023148751</internalNodes>
          <leafValues>
            -3.5636785626411438e-01 5.6796026229858398e-01</leafValues></_>
        <_>
          <internalNodes>
            0 -1 81 -1429618082 734535736 1157669779 -2121595751
            129147832 771883648 8591443 1339523301</internalNodes>
          <leafValues>
            -5.3909569978713989e-01 3.7111577391624451e-01</leafValues></_>
        <_>
          <internalNodes>
            0 -1 249 -1070489475 -550283653 -1161827073 -12898509
            -8749069 -176193665 -1980532741 -1168934017</internalNodes>
          <leafValues>
            -3.5817462205886841e-01 5.8703505992889404e-01</leafValues></_>
        <_>
          <internalNodes>
            0 -1 279 -740949938 1331233443 -998041405 1580142870
            -930463539 -653688831 557967 1254678696</internalNodes>
          <leafValues>
            -5.7891702651977539e-01 3.7757229804992676e-01</leafValues></_>
        <_>
          <internalNodes>
            0 -1 32 831283806 -610627305 1074659520 1464992395
            -2012312525 1912799554 1887578136 1973706890</internalNodes>
          <leafValues>
            -6.1160343885421753e-01 3.6932623386383057e-01</leafValues></_>
        <_>
          <internalNodes>
            0 -1 220 -354828257 -46898784 -743997657 -35957291
            -1105147141 -88146113 1934030806 -586672895</internalNodes>
          <leafValues>
            -3.6995872855186462e-01 6.2566792964935303e-01</leafValues></_>
        <_>
          <internalNodes>
            0 -1 168 -1550297765 -258932709 -1073699837 1176247325
            -2020175104 -759054318 545292442 1530986262</internalNodes>
          <leafValues>
            -5.2296370267868042e-01 4.3944972753524780e-01</leafValues></_>
        <_>
          <internalNodes>
            0 -1 177 -1611408225 -201375752 -1258524934 1945123580
            -1543608884 131464574 620609020 -537154145</internalNodes>
          <leafValues>
            -3.7523242831230164e-01 6.1913502216339111e-01</leafValues></_>
        <_>
          <internalNodes>
            0 -1 207 -1854582299 -1555724247 1413599521 -1920646715
            -788217716 -1425522640 96997455 -317781604</internalNodes>
          <leafValues>
            -4.5477601885795593e-01 4.8760575056076050e-01</leafValues></_>
        <_>
          <internalNodes>
            0 -1 142 150995206 1493270656 545849365 1141117715
            1208090833 2145058974 277875116 1054634825</internalNodes>
          <leafValues>
            -6.3426852226257324e-01 3.7539568543434143e-01</leafValues></_>
        <_>
          <internalNodes>
            0 -1 60 -508771061 -173590533 -1082171405 -16812033
            -1208680046 -547913737 1027874687 -1763868675</internalNodes>
          <leafValues>
            -4.1047817468643188e-01 5.6656825542449951e-01</leafValues></_>
        <_>
          <internalNodes>
            0 -1 104 805523948 318849305 -1861103565 -2059403264
            -531365835 -1459539283 -531738397 2101708727</internalNodes>
          <leafValues>
            -6.5628230571746826e-01 3.5101240873336792e-01</leafValues></_></weakClassifiers></_>
    <!-- stage 11 -->
    <_>
      <maxWeakCount>13</maxWeakCount>
      <stageThreshold>-1.1011238098144531e+00</stageThreshold>
      <weakClassifiers>
        <_>
          <internalNodes>
            0 -1 233 -1879054377 716107583 -1358964033 -390070273
            -1241555802 79167419 -184550148 1241513919</internalNodes>
          <leafValues>
            -3.5613682866096497e-01 5.2311879396438599e-01</leafValues></_>
        <_>
          <internalNodes>
            0 -1 240 -471865340 1564024876 1610730128 -2144860143
            -771043024 1921583372 -385823862 -232160888</internalNodes>
          <leafValues>
            -4.3004295229911804e-01 4.4456604123115540e-01</leafValues></_>
        <_>
          <internalNodes>
            0 -1 284 1156763103 1078192898 -67174529 -51142663
            1925160823 -571670532 -1108084868 -625281733</internalNodes>
          <leafValues>
            -3.3115297555923462e-01 5.7514709234237671e-01</leafValues></_>
        <_>
          <internalNodes>
            0 -1 19 839106595 -792713212 318844055 -712929267 1157824629
            -570375296 1426957517 96559553</internalNodes>
          <leafValues>
            -6.2072312831878662e-01 3.4029880166053772e-01</leafValues></_>
        <_>
          <internalNodes>
            0 -1 74 -135312169 -542984705 -8459457 1069037530 364806095
            -1174966922 -1107391814 -1417060229</internalNodes>
          <leafValues>
            -3.6813932657241821e-01 6.3324630260467529e-01</leafValues></_>
        <_>
          <internalNodes>
            0 -1 201 1352900831 -84145247 -403802246 -1198152333
            -2049945110 -17301651 -101019793 -132671665</internalNodes>
          <leafValues>
            -2.6757729053497314e-01 7.0033150911331177e-01</leafValues></_>
        <_>
          <internalNodes>
            0 -1 123 -405765854 -1034943280 1636954114 -1519439871
            -2122082902 -603451229 42322432 11158080</internalNodes>
          <leafValues>
            -6.1727386713027954e-01 3.7183874845504761e-01</leafValues></_>
        <_>
          <internalNodes>
            0 -1 230 2129879008 1886060558 1073922062 -654179134
            813813793 268451842 163676546 1747972738</internalNodes>
          <leafValues>
            -5.0776022672653198e-01 4.2722848057746887e-01</leafValues></_>
        <_>
          <internalNodes>
            0 -1 125 1367080557 1912971790 2147483647 -69284993
            -2081425411 1073741791 -143163529 -277905441</internalNodes>
          <leafValues>
            -4.1088387370109558e-01 5.4715430736541748e-01</leafValues></_>
        <_>
          <internalNodes>
            0 -1 208 473023826 -1895493038 -1543482880 1175134226
            -920609584 50471045 142641393 1854768051</internalNodes>
          <leafValues>
            -5.8053261041641235e-01 4.0842366218566895e-01</leafValues></_>
        <_>
          <internalNodes>
            0 -1 297 -1851068391 17024256 163845 -784117503 1392657028
            46399488 1090519425 -1801047126</internalNodes>
          <leafValues>
            -5.6279516220092773e-01 4.0464898943901062e-01</leafValues></_>
        <_>
          <internalNodes>
            0 -1 127 -209390381 -1715873605 -1074290889 -155852974
            -88687943 -1614928547 -1326657585 -133835918</internalNodes>
          <leafValues>
            -3.6121109127998352e-01 7.0004343986511230e-01</leafValues></_>
        <_>
          <internalNodes>
            0 -1 101 43179706 403243212 276826184 -1325350376 201590888
            1518438471 -1375147636 1216939517</internalNodes>
          <leafValues>
            -5.9481507539749146e-01 4.4263809919357300e-01</leafValues></_></weakClassifiers></_>
    <!-- stage 12 -->
    <_>
      <maxWeakCount>14</maxWeakCount>
      <stageThreshold>-9.1292631626129150e-01</stageThreshold>
      <weakClassifiers>
        <_>
          <internalNodes>
            0 -1 277 -345385122 38915 277185860 34261530 1484886112
            9846784 295306456 1078973004</internalNodes>
          <leafValues>
            -5.3179192543029785e-01 4.6570971608161926e-01</leafValues></_>
        <_>
          <internalNodes>
            0 -1 25 -708613650 1604583702 -1862270588 -780072952
            1644937867 587958436 554303679 1456177290</internalNodes>
          <leafValues>
            -4.2980396747589111e-01 4.3428778648376465e-01</leafValues></_>
        <_>
          <internalNodes>
            0 -1 45 1349214999 -1736387456 -1879043318 -1031792256
            566558990 -1073207168 -711122391 -825571671</internalNodes>
          <leafValues>
            -4.2006310820579529e-01 4.8424074053764343e-01</leafValues></_>
        <_>
          <internalNodes>
            0 -1 170 -1736358767 -13578064 -610430389 -926349103
            2074640546 -22929278 -1979541381 711518977</internalNodes>
          <leafValues>
            -5.2933412790298462e-01 3.5183542966842651e-01</leafValues></_>
        <_>
          <internalNodes>
            0 -1 236 1007562743 -1512100114 1071949695 535870126
            931132640 -1912659972 200619932 -1078358291</internalNodes>
          <leafValues>
            -4.3406504392623901e-01 4.8191156983375549e-01</leafValues></_>
        <_>
          <internalNodes>
            0 -1 259 -2132554377 1915907652 -1568706689 -752834996
            786825211 -83918921 -1082736641 -361516161</internalNodes>
          <leafValues>
            -3.9849412441253662e-01 5.4707700014114380e-01</leafValues></_>
        <_>
          <internalNodes>
            0 -1 56 -590102386 -2143715200 1409323016 -670330812
            -1609506815 1217011723 -2117631261 1787558129</internalNodes>
          <leafValues>
            -5.7895731925964355e-01 3.7718403339385986e-01</leafValues></_>
        <_>
          <internalNodes>
            0 -1 154 1196630145 -803766139 -217988838 -792408061
            1770025625 -1637842816 -2130611062 -1852102974</internalNodes>
          <leafValues>
            -5.1294344663619995e-01 4.6581572294235229e-01</leafValues></_>
        <_>
          <internalNodes>
            0 -1 52 -176964741 -278134842 -82330 2000678645 2138959855
            -150999083 2138505138 -594305052</internalNodes>
          <leafValues>
            -3.2810291647911072e-01 7.0078676939010620e-01</leafValues></_>
        <_>
          <internalNodes>
            0 -1 153 30390461 805591312 1075088129 1428243330 -534756620
            -1197211520 -1933016882 187434254</internalNodes>
          <leafValues>
            -6.0117745399475098e-01 3.9148673415184021e-01</leafValues></_>
        <_>
          <internalNodes>
            0 -1 296 -2070940399 541884424 1678770435 1145197331
            1073887299 -1023336441 335577379 -602750777</internalNodes>
          <leafValues>
            -4.8809915781021118e-01 5.0336426496505737e-01</leafValues></_>
        <_>
          <internalNodes>
            0 -1 15 -16296557 -278020368 -1627488269 -1084489731
            1207246091 1602125692 -147032121 -181340168</internalNodes>
          <leafValues>
            -4.1281476616859436e-01 6.4025896787643433e-01</leafValues></_>
        <_>
          <internalNodes>
            0 -1 111 1410577330 304751256 1073889296 1830457360
            1201758477 655369 1754441785 1773330538</internalNodes>
          <leafValues>
            -5.7578963041305542e-01 4.3804138898849487e-01</leafValues></_>
        <_>
          <internalNodes>
            0 -1 229 239061775 1761406716 989621461 -387207565
            -1242179742 502788094 -1217151674 -740299270</internalNodes>
          <leafValues>
            -4.5952191948890686e-01 5.4999530315399170e-01</leafValues></_></weakClassifiers></_>
    <!-- stage 13 -->
    <_>
      <maxWeakCount>15</maxWeakCount>
      <stageThreshold>-5.3512412309646606e-01</stageThreshold>
      <weakClassifiers>
        <_>
          <internalNodes>
            0 -1 33 1859022570 -117784601 1870539528 -930070798
            269455275 1731279453 2109737611 1983674353</internalNodes>
          <leafValues>
            -4.2263278365135193e-01 4.9957156181335449e-01</leafValues></_>
        <_>
          <internalNodes>
            0 -1 300 -1297350917 707002044 1853814275 -1595867616
            -420022195 624819828 394196464 -505485593</internalNodes>
          <leafValues>
            -3.5171869397163391e-01 5.0716036558151245e-01</leafValues></_>
        <_>
          <internalNodes>
            0 -1 224 70304215 -57104688 -1961425897 -29141952
            -1669315961 -360409832 128458954 801505509</internalNodes>
          <leafValues>
            -4.6949809789657593e-01 3.9774817228317261e-01</leafValues></_>
        <_>
          <internalNodes>
            0 -1 286 -2123787729 -993587191 -2112749180 -1072592694
            -1006038768 92930050 -528471842 1380030893</internalNodes>
          <leafValues>
            -5.5853432416915894e-01 3.5585197806358337e-01</leafValues></_>
        <_>
          <internalNodes>
            0 -1 75 807360399 -774447137 867632127 -2019725385 195532045
            -88112729 -547363457 -140533902</internalNodes>
          <leafValues>
            -3.6380729079246521e-01 5.9369170665740967e-01</leafValues></_>
        <_>
          <internalNodes>
            0 -1 159 -2145679088 2030242059 -1056931838 184554911
            10453192 -656078975 -1475821347 1302113164</internalNodes>
          <leafValues>
            -5.9816074371337891e-01 3.3079013228416443e-01</leafValues></_>
        <_>
          <internalNodes>
            0 -1 107 -1576057537 1407505712 -436398209 -269523465
            -144143686 -580388873 -1458825441 -1551395331</internalNodes>
          <leafValues>
            -3.4965363144874573e-01 6.1160045862197876e-01</leafValues></_>
        <_>
          <internalNodes>
            0 -1 280 -1865939903 1510769977 1107333331 1547960454
            -778911528 -633339647 -1148025910 1485734093</internalNodes>
          <leafValues>
            -5.4415482282638550e-01 4.0074741840362549e-01</leafValues></_>
        <_>
          <internalNodes>
            0 -1 102 -242416692 327156169 -2147434288 -1153371963
            953216092 848226416 715554818 -81624853</internalNodes>
          <leafValues>
            -5.2664232254028320e-01 4.1680267453193665e-01</leafValues></_>
        <_>
          <internalNodes>
            0 -1 88 -917171482 -83935809 1021818652 -403493200
            -1233651802 394033020 -134335248 -1760293761</internalNodes>
          <leafValues>
            -4.4950997829437256e-01 5.0322663784027100e-01</leafValues></_>
        <_>
          <internalNodes>
            0 -1 222 808133624 -1610846292 -1073778698 -1073850436
            2147446771 -1842978818 -1663601414 -92620301</internalNodes>
          <leafValues>
            -4.0488907694816589e-01 5.8932173252105713e-01</leafValues></_>
        <_>
          <internalNodes>
            0 -1 68 -1604332538 -1072627648 -1610610567 -2069921530
            -494212726 -1691352957 998375873 -803208575</internalNodes>
          <leafValues>
            -5.3953838348388672e-01 4.2336627840995789e-01</leafValues></_>
        <_>
          <internalNodes>
            0 -1 200 -1864575533 1179256904 352387601 -1660944380
            545358576 -2013265919 302022785 1557840019</internalNodes>
          <leafValues>
            -5.3311514854431152e-01 4.6463161706924438e-01</leafValues></_>
        <_>
          <internalNodes>
            0 -1 132 -738155020 -223568942 -541089795 -446559245
            -318828497 -1244430369 2128600831 -1260388779</internalNodes>
          <leafValues>
            -3.9133614301681519e-01 5.8825916051864624e-01</leafValues></_>
        <_>
          <internalNodes>
            0 -1 129 1485347505 -704475007 -939523839 -262635115
            2047414578 -1971138416 268491691 1051197512</internalNodes>
          <leafValues>
            -5.4919999837875366e-01 4.2275330424308777e-01</leafValues></_></weakClassifiers></_>
    <!-- stage 14 -->
    <_>
      <maxWeakCount>15</maxWeakCount>
      <stageThreshold>-2.5352725386619568e-01</stageThreshold>
      <weakClassifiers>
        <_>
          <internalNodes>
            0 -1 157 205264724 -755188069 62401248 558906366 -1006731858
            232141030 -1510789904 1005969150</internalNodes>
          <leafValues>
            -3.8912135362625122e-01 5.2228164672851562e-01</leafValues></_>
        <_>
          <internalNodes>
            0 -1 238 -533085065 -903412371 -470553093 -1691938913
            -1103499397 -294913 -1298240261 -88880197</internalNodes>
          <leafValues>
            -2.8192898631095886e-01 5.9080517292022705e-01</leafValues></_>
        <_>
          <internalNodes>
            0 -1 43 -1964383805 -448591736 37827973 2078343299
            -2138403921 -2147311591 1418068129 1743381216</internalNodes>
          <leafValues>
            -4.2867651581764221e-01 4.4195327162742615e-01</leafValues></_>
        <_>
          <internalNodes>
            0 -1 118 -2001611373 -164549341 1064599271 -546440203
            -1630560110 -1226810121 1211497727 -1789520683</internalNodes>
          <leafValues>
            -3.0130591988563538e-01 6.4993798732757568e-01</leafValues></_>
        <_>
          <internalNodes>
            0 -1 283 -49865327 -1668779749 1447041109 881934915 67175201
            989939713 2048215689 1564721321</internalNodes>
          <leafValues>
            -4.7832813858985901e-01 4.7791844606399536e-01</leafValues></_>
        <_>
          <internalNodes>
            0 -1 63 2043510591 -1073980187 1824354220 733757436
            -1351205028 -151126410 -1778507912 -1691345218</internalNodes>
          <leafValues>
            -4.4504216313362122e-01 4.8633044958114624e-01</leafValues></_>
        <_>
          <internalNodes>
            0 -1 131 989872380 1360479058 546523480 387191827 185192777
            470941700 -1878814367 908002910</internalNodes>
          <leafValues>
            -6.2118601799011230e-01 3.6251273751258850e-01</leafValues></_>
        <_>
          <internalNodes>
            0 -1 295 -41945413 654175967 -1157667206 1657995198
            -403188463 652697469 -607571 -219943306</internalNodes>
          <leafValues>
            -4.3210375308990479e-01 5.1336193084716797e-01</leafValues></_>
        <_>
          <internalNodes>
            0 -1 267 1653640411 -1664737115 1090592403 -751697655
            -1874744677 -1929245302 -2138955520 1545111568</internalNodes>
          <leafValues>
            -5.8776450157165527e-01 3.9366319775581360e-01</leafValues></_>
        <_>
          <internalNodes>
            0 -1 89 -277564233 -1783464065 -1107329544 -136307222
            -1077003064 880115550 771730554 -1104421009</internalNodes>
          <leafValues>
            -3.7096008658409119e-01 6.4571917057037354e-01</leafValues></_>
        <_>
          <internalNodes>
            0 -1 216 133928483 -1753284612 788474552 1073424506
            -830477505 133226220 771737660 -956716033</internalNodes>
          <leafValues>
            -3.9793008565902710e-01 5.7289010286331177e-01</leafValues></_>
        <_>
          <internalNodes>
            0 -1 78 -804760414 1725694786 -1056309219 -242155512
            1932731066 1636339721 839385472 -216125240</internalNodes>
          <leafValues>
            -5.6590753793716431e-01 4.0592163801193237e-01</leafValues></_>
        <_>
          <internalNodes>
            0 -1 97 -1605303152 -1031788160 1392509144 -620631356
            41976602 -502759415 -391984598 -1492205105</internalNodes>
          <leafValues>
            -4.7364217042922974e-01 5.2516359090805054e-01</leafValues></_>
        <_>
          <internalNodes>
            0 -1 175 -436035526 1700036672 -1878518244 -1743777343
            -1052209001 -938949152 -2136862524 1532023425</internalNodes>
          <leafValues>
            -5.7539635896682739e-01 4.0941092371940613e-01</leafValues></_>
        <_>
          <internalNodes>
            0 -1 266 174833903 -130995294 -201531909 -742708313
            -1124094019 -1610612738 1044342782 -1146817869</internalNodes>
          <leafValues>
            -4.5110946893692017e-01 5.5636990070343018e-01</leafValues></_></weakClassifiers></_>
    <!-- stage 15 -->
    <_>
      <maxWeakCount>14</maxWeakCount>
      <stageThreshold>-9.6386629343032837e-01</stageThreshold>
      <weakClassifiers>
        <_>
          <internalNodes>
            0 -1 158 1133019792 360776231 -2147417071 2034991171
            -1857419125 -1991268352 -2004835599 136314900</internalNodes>
          <leafValues>
            -5.9861594438552856e-01 4.3707093596458435e-01</leafValues></_>
        <_>
          <internalNodes>
            0 -1 149 1426274093 -1634956146 -167804937 -1422922049
            1744170925 1862221294 -310943874 -92280274</internalNodes>
          <leafValues>
            -3.7944898009300232e-01 4.6217763423919678e-01</leafValues></_>
        <_>
          <internalNodes>
            0 -1 235 55948 65048714 1635828820 964985856 -2117668486
            160186504 303181904 949848289</internalNodes>
          <leafValues>
            -5.8219301700592041e-01 3.7367790937423706e-01</leafValues></_>
        <_>
          <internalNodes>
            0 -1 138 -429662063 -1476267712 353456467 -619642200
            -939407205 -1971254896 412164311 2039460018</internalNodes>
          <leafValues>
            -4.8851057887077332e-01 3.9945644140243530e-01</leafValues></_>
        <_>
          <internalNodes>
            0 -1 84 1598288367 -1422733510 1233606135 630620031
            -1005906577 -1900202503 523763575 -361408521</internalNodes>
          <leafValues>
            -3.6412411928176880e-01 5.9460431337356567e-01</leafValues></_>
        <_>
          <internalNodes>
            0 -1 66 1652408753 -327372226 -1703126017 1845328892
            -599822221 -1267239041 -1757899081 -1393474345</internalNodes>
          <leafValues>
            -3.6892107129096985e-01 5.6031489372253418e-01</leafValues></_>
        <_>
          <internalNodes>
            0 -1 121 -1339508270 -249019008 1124110725 -606273079
            302023049 -355925616 1074323891 1032376641</internalNodes>
          <leafValues>
            -5.9213244915008545e-01 4.0045350790023804e-01</leafValues></_>
        <_>
          <internalNodes>
            0 -1 174 -298865145 1799352222 2113928922 -768678028
            889191989 -411078921 -990521094 -57634026</internalNodes>
          <leafValues>
            -3.8110724091529846e-01 5.6369435787200928e-01</leafValues></_>
        <_>
          <internalNodes>
            0 -1 141 -972794358 269523969 65925 440639513 1744840761
            -1861844830 587471643 1585802029</internalNodes>
          <leafValues>
            -6.0828632116317749e-01 3.5946157574653625e-01</leafValues></_>
        <_>
          <internalNodes>
            0 -1 242 889714828 -2113781554 34623494 50440452 564379716
            10248466 71371212 596355648</internalNodes>
          <leafValues>
            -7.0932674407958984e-01 3.0523997545242310e-01</leafValues></_>
        <_>
          <internalNodes>
            0 -1 90 -1725382791 733673193 -269059329 1576890111
            -1261111987 -1745354897 2146745725 -115736646</internalNodes>
          <leafValues>
            -3.8303261995315552e-01 6.1019420623779297e-01</leafValues></_>
        <_>
          <internalNodes>
            0 -1 209 -1813524325 -1557426405 1004501883 1058299741
            -603987971 -1104969729 859807743 -285278217</internalNodes>
          <leafValues>
            -3.5299015045166016e-01 5.9264671802520752e-01</leafValues></_>
        <_>
          <internalNodes>
            0 -1 119 1529918608 278179973 285774096 -788346620
            -483761910 -888500191 691010890 721437056</internalNodes>
          <leafValues>
            -6.7499005794525146e-01 3.3456334471702576e-01</leafValues></_>
        <_>
          <internalNodes>
            0 -1 126 1208734103 -526741133 -65601 1073731583 -82192679
            -159406089 -1950574721 -1080429099</internalNodes>
          <leafValues>
            -3.4974783658981323e-01 6.8075865507125854e-01</leafValues></_></weakClassifiers></_>
    <!-- stage 16 -->
    <_>
      <maxWeakCount>14</maxWeakCount>
      <stageThreshold>-3.5967043042182922e-01</stageThreshold>
      <weakClassifiers>
        <_>
          <internalNodes>
            0 -1 226 -224657376 -934199227 -1811312500 1392513034
            885571857 -513646550 -525975340 312372</internalNodes>
          <leafValues>
            -5.1044774055480957e-01 4.5138341188430786e-01</leafValues></_>
        <_>
          <internalNodes>
            0 -1 206 1204594415 1998916138 1073610619 -479484169
            1474166775 863971197 938997759 -16593</internalNodes>
          <leafValues>
            -3.4468102455139160e-01 4.5814549922943115e-01</leafValues></_>
        <_>
          <internalNodes>
            0 -1 198 991057369 -2004350960 147018834 -929906240
            1007167176 -2009054272 521666585 1212385408</internalNodes>
          <leafValues>
            -5.9885084629058838e-01 2.9327467083930969e-01</leafValues></_>
        <_>
          <internalNodes>
            0 -1 145 -918482579 -1372610201 -1075908609 -546307731
            -1191800326 -1084336129 -1586384905 -31392330</internalNodes>
          <leafValues>
            -3.3722126483917236e-01 5.5828088521957397e-01</leafValues></_>
        <_>
          <internalNodes>
            0 -1 80 -1221031553 1998991358 1878908628 1236877227
            -1401555169 796325726 -1107296518 -12992833</internalNodes>
          <leafValues>
            -3.5118752717971802e-01 5.8767390251159668e-01</leafValues></_>
        <_>
          <internalNodes>
            0 -1 282 -649704395 -1488613310 1073828893 -133492718
            -1991587704 406847488 -1610579246 172116177</internalNodes>
          <leafValues>
            -5.7055711746215820e-01 3.5537680983543396e-01</leafValues></_>
        <_>
          <internalNodes>
            0 -1 87 273813632 1427351825 1165 352616513 557894023
            1445101608 -1132430193 -1611948007</internalNodes>
          <leafValues>
            -6.0350108146667480e-01 3.5229480266571045e-01</leafValues></_>
        <_>
          <internalNodes>
            0 -1 58 -784629901 -41994369 2004757369 -1086360237
            -1916944227 -799597257 -234913931 -4238925</internalNodes>
          <leafValues>
            -3.4983873367309570e-01 6.1389952898025513e-01</leafValues></_>
        <_>
          <internalNodes>
            0 -1 180 -1710598274 -1659883500 -2147479460 -1002434296
            9551915 1480796225 251765929 138553789</internalNodes>
          <leafValues>
            -6.2387883663177490e-01 3.5687088966369629e-01</leafValues></_>
        <_>
          <internalNodes>
            0 -1 272 -1669464517 -214106146 -419500424 41678571
            1207795637 -360809093 2122186092 -637358965</internalNodes>
          <leafValues>
            -3.9697742462158203e-01 5.1781725883483887e-01</leafValues></_>
        <_>
          <internalNodes>
            0 -1 103 -1772777025 -150006283 394264439 -1140992267
            -1392134887 -268982281 -820546215 -153395881</internalNodes>
          <leafValues>
            -3.1440132856369019e-01 6.3461107015609741e-01</leafValues></_>
        <_>
          <internalNodes>
            0 -1 128 -468995885 1477541904 1929382097 -1869946824
            136317017 -66584370 -2012706126 2013759873</internalNodes>
          <leafValues>
            -5.5043846368789673e-01 3.8597330451011658e-01</leafValues></_>
        <_>
          <internalNodes>
            0 -1 6 -2109708608 -384745341 24609 -804585472 -2147217270
            128 4243459 -766621407</internalNodes>
          <leafValues>
            -6.2484973669052124e-01 3.9033690094947815e-01</leafValues></_>
        <_>
          <internalNodes>
            0 -1 276 -23278764 1790968386 -2147450861 201887753
            176294212 -368132086 -1878973652 573213416</internalNodes>
          <leafValues>
            -6.2258964776992798e-01 3.4621080756187439e-01</leafValues></_></weakClassifiers></_>
    <!-- stage 17 -->
    <_>
      <maxWeakCount>12</maxWeakCount>
      <stageThreshold>-4.3693369626998901e-01</stageThreshold>
      <weakClassifiers>
        <_>
          <internalNodes>
            0 -1 35 1348875894 1824284926 838666266 -1349308674
            -278495252 1853308767 2025140370 1645698802</internalNodes>
          <leafValues>
            -3.3891212940216064e-01 5.0089126825332642e-01</leafValues></_>
        <_>
          <internalNodes>
            0 -1 184 -1073605157 -704065936 -146833443 -263684479
            -825094826 -1277845505 -294994689 -710410759</internalNodes>
          <leafValues>
            -3.1432840228080750e-01 5.6985527276992798e-01</leafValues></_>
        <_>
          <internalNodes>
            0 -1 197 -724067141 1762787330 -2142928796 622111381
            1384175824 194003201 1082232002 589400319</internalNodes>
          <leafValues>
            -5.9555333852767944e-01 3.1451842188835144e-01</leafValues></_>
        <_>
          <internalNodes>
            0 -1 278 -1219767737 -1073414011 1363443818 1381585536
            747323476 1887994144 -1452910310 1133086890</internalNodes>
          <leafValues>
            -5.5345076322555542e-01 3.1804192066192627e-01</leafValues></_>
        <_>
          <internalNodes>
            0 -1 28 -545859954 -822804632 1723854380 1387491300
            -1251637484 1310354791 -680111837 -403701880</internalNodes>
          <leafValues>
            -4.0674614906311035e-01 4.8706826567649841e-01</leafValues></_>
        <_>
          <internalNodes>
            0 -1 186 2015658644 -728743595 -2071965287 -150957295
            -2013228876 -1735916405 1090791971 71942658</internalNodes>
          <leafValues>
            -6.1293685436248779e-01 3.4803837537765503e-01</leafValues></_>
        <_>
          <internalNodes>
            0 -1 205 -893427501 -1801222404 532582399 -1134100501
            1575694323 -298942530 -1143261251 -269769121</internalNodes>
          <leafValues>
            -3.2705321907997131e-01 6.4003473520278931e-01</leafValues></_>
        <_>
          <internalNodes>
            0 -1 289 -681599970 -1319271744 -2147466749 -1831075560
            1073760320 -2011168768 1610862603 1443556363</internalNodes>
          <leafValues>
            -4.8007616400718689e-01 4.3670451641082764e-01</leafValues></_>
        <_>
          <internalNodes>
            0 -1 64 1002925421 1877671934 1052380074 -270483949
            -33673942 -1082294408 -1090617730 -1605951661</internalNodes>
          <leafValues>
            -4.0105089545249939e-01 5.3447347879409790e-01</leafValues></_>
        <_>
          <internalNodes>
            0 -1 176 -1969953756 1389664257 1509983626 273711316
            -2138947453 432308233 1384188488 596052745</internalNodes>
          <leafValues>
            -7.6939344406127930e-01 2.6686939597129822e-01</leafValues></_>
        <_>
          <internalNodes>
            0 -1 65 -1874468053 1081909616 -268437515 -141513 604150441
            -76028641 1625583340 -503326778</internalNodes>
          <leafValues>
            -4.1308203339576721e-01 5.3715866804122925e-01</leafValues></_>
        <_>
          <internalNodes>
            0 -1 248 1006838655 1367425029 -1073311719 957960591
            -805269365 -889052986 -1031667698 14958654</internalNodes>
          <leafValues>
            -5.9751307964324951e-01 4.0929967164993286e-01</leafValues></_></weakClassifiers></_>
    <!-- stage 18 -->
    <_>
      <maxWeakCount>15</maxWeakCount>
      <stageThreshold>-6.4285004138946533e-01</stageThreshold>
      <weakClassifiers>
        <_>
          <internalNodes>
            0 -1 23 -2146299224 -217223147 1342187106 1560346632
            1157955916 538451983 1343225992 1372283482</internalNodes>
          <leafValues>
            -5.8904111385345459e-01 4.3730887770652771e-01</leafValues></_>
        <_>
          <internalNodes>
            0 -1 71 -273164801 -643715296 -21497857 -344066177
            -443087685 -5784105 1974943741 -44600001</internalNodes>
          <leafValues>
            -2.0959883928298950e-01 7.5648313760757446e-01</leafValues></_>
        <_>
          <internalNodes>
            0 -1 105 234896532 -1175233439 537465433 2031157305
            406851973 -392691712 -1719481682 1588167585</internalNodes>
          <leafValues>
            -4.9862501025199890e-01 3.5574713349342346e-01</leafValues></_>
        <_>
          <internalNodes>
            0 -1 290 -245742829 1275590914 42008786 -995759345
            1925185600 1486946432 -2138374136 -767296869</internalNodes>
          <leafValues>
            -4.5715206861495972e-01 4.0448084473609924e-01</leafValues></_>
        <_>
          <internalNodes>
            0 -1 114 -916833734 320274817 -1878912753 -1330020073
            176752716 -1734999926 1237387272 1824806342</internalNodes>
          <leafValues>
            -5.7206082344055176e-01 3.3393988013267517e-01</leafValues></_>
        <_>
          <internalNodes>
            0 -1 108 -1713248821 472236165 -1230761989 -271882921
            -2032691496 -634005642 -374031106 -1399929249</internalNodes>
          <leafValues>
            -2.9935052990913391e-01 6.7170882225036621e-01</leafValues></_>
        <_>
          <internalNodes>
            0 -1 239 -1046445839 -1300054971 -1744437120 -645623542
            -938850150 -1191100224 -909596349 993035111</internalNodes>
          <leafValues>
            -5.2082479000091553e-01 3.7919560074806213e-01</leafValues></_>
        <_>
          <internalNodes>
            0 -1 0 -2008634767 108805654 -1354776586 1869539193
            635961330 1702681599 -2368481 -1488158748</internalNodes>
          <leafValues>
            -4.3036577105522156e-01 5.0907921791076660e-01</leafValues></_>
        <_>
          <internalNodes>
            0 -1 140 1141888422 1352746247 -1726932966 -260440051
            -528370791 -1795160064 1091051530 -525856279</internalNodes>
          <leafValues>
            -4.6386030316352844e-01 4.4566631317138672e-01</leafValues></_>
        <_>
          <internalNodes>
            0 -1 156 553801892 -2109734909 487588952 185794705
            -1197965177 708970504 865445817 1477091017</internalNodes>
          <leafValues>
            -6.4151763916015625e-01 3.4173750877380371e-01</leafValues></_>
        <_>
          <internalNodes>
            0 -1 93 -465844973 -1019228749 -1141375001 -2090371397
            -1958802103 931084287 -274739141 -755025993</internalNodes>
          <leafValues>
            -3.6927276849746704e-01 5.7264822721481323e-01</leafValues></_>
        <_>
          <internalNodes>
            0 -1 38 1065188733 -201576721 1827549381 1798930103
            -1073848932 494239612 -25168642 -1612503517</internalNodes>
          <leafValues>
            -3.6373361945152283e-01 5.8160620927810669e-01</leafValues></_>
        <_>
          <internalNodes>
            0 -1 257 -696254380 1489109449 53569 1426374669 1095516832
            406896640 -1071606863 704775983</internalNodes>
          <leafValues>
            -6.6796308755874634e-01 3.5777556896209717e-01</leafValues></_>
        <_>
          <internalNodes>
            0 -1 256 -1319513509 725291160 1358954764 -1835859813
            1342515212 -334987003 671121544 -16465779</internalNodes>
          <leafValues>
            -4.4781163334846497e-01 5.0653749704360962e-01</leafValues></_>
        <_>
          <internalNodes>
            0 -1 10 -716050968 1073795137 1107378380 538083458 269420811
            1483350216 -536188815 1376502313</internalNodes>
          <leafValues>
            -6.6975194215774536e-01 3.4732964634895325e-01</leafValues></_></weakClassifiers></_>
    <!-- stage 19 -->
    <_>
      <maxWeakCount>12</maxWeakCount>
      <stageThreshold>-2.6852720975875854e-01</stageThreshold>
      <weakClassifiers>
        <_>
          <internalNodes>
            0 -1 165 -2109587676 49680294 -1073842452 1239883518
            100021508 762831871 486259936 1807168172</internalNodes>
          <leafValues>
            -3.9675173163414001e-01 4.8845165967941284e-01</leafValues></_>
        <_>
          <internalNodes>
            0 -1 245 -1029460757 -750836745 -1661244417 2067032783
            -227295489 -138723329 -1883766797 -763788749</internalNodes>
          <leafValues>
            -2.8457871079444885e-01 6.0164594650268555e-01</leafValues></_>
        <_>
          <internalNodes>
            0 -1 34 1188126926 -1167538812 293702912 -1400176626
            302221512 1884422153 -1702030963 1023582210</internalNodes>
          <leafValues>
            -5.1716256141662598e-01 3.6253827810287476e-01</leafValues></_>
        <_>
          <internalNodes>
            0 -1 122 -492792927 -1019351243 1341105459 -4814352
            -130110243 -430441633 268300691 -893467344</internalNodes>
          <leafValues>
            -3.2016906142234802e-01 6.0988229513168335e-01</leafValues></_>
        <_>
          <internalNodes>
            0 -1 275 -2129523235 -1867743102 1409548893 -1149058919
            1510482088 -478052286 -1065285446 355991876</internalNodes>
          <leafValues>
            -5.5085831880569458e-01 3.8462641835212708e-01</leafValues></_>
        <_>
          <internalNodes>
            0 -1 301 -2144869781 -332911954 2130698211 -231364638
            -134915992 -2063765538 -1225824513 -723524145</internalNodes>
          <leafValues>
            -3.4921997785568237e-01 6.4707714319229126e-01</leafValues></_>
        <_>
          <internalNodes>
            0 -1 139 16963602 -779648851 -1861875622 360916496 286883847
            -2146926589 1359173129 843320360</internalNodes>
          <leafValues>
            -5.8933544158935547e-01 3.7180832028388977e-01</leafValues></_>
        <_>
          <internalNodes>
            0 -1 252 -1790775994 -2053046203 1073954858 -1073577432
            -1870324224 537002250 1082925456 -1571190133</internalNodes>
          <leafValues>
            -5.2748179435729980e-01 4.5180261135101318e-01</leafValues></_>
        <_>
          <internalNodes>
            0 -1 281 -2011676100 -2142142012 -1878421501 -289758135
            -938998609 -1660387256 1073781382 1209571846</internalNodes>
          <leafValues>
            -6.6310358047485352e-01 3.2060983777046204e-01</leafValues></_>
        <_>
          <internalNodes>
            0 -1 228 -1726103516 419659992 16831952 35652132 -1677032968
            8431688 176308248 -1768977491</internalNodes>
          <leafValues>
            -5.2036899328231812e-01 4.3630668520927429e-01</leafValues></_>
        <_>
          <internalNodes>
            0 -1 182 -765798309 42192896 1140887592 2031092272
            1086869520 -1474297792 -1073708606 1145525760</internalNodes>
          <leafValues>
            -6.5018784999847412e-01 3.4851449728012085e-01</leafValues></_>
        <_>
          <internalNodes>
            0 -1 67 776928469 661048298 -1207963912 262766521
            -1621301489 -411041897 -33657668 -740149313</internalNodes>
          <leafValues>
            -3.7264978885650635e-01 6.0265731811523438e-01</leafValues></_></weakClassifiers></_>
    <!-- stage 20 -->
    <_>
      <maxWeakCount>13</maxWeakCount>
      <stageThreshold>-2.7867868542671204e-01</stageThreshold>
      <weakClassifiers>
        <_>
          <internalNodes>
            0 -1 13 -176460181 1340583933 -1627554818 1853873365
            645284928 -9027595 -1655984271 -704707503</internalNodes>
          <leafValues>
            -2.1288515627384186e-01 6.2302482128143311e-01</leafValues></_>
        <_>
          <internalNodes>
            0 -1 98 820245954 -252528710 861028030 -1142741389
            -487065612 1466169196 880803320 -11331588</internalNodes>
          <leafValues>
            -4.2635363340377808e-01 4.3456521630287170e-01</leafValues></_>
        <_>
          <internalNodes>
            0 -1 204 -926259493 -1827661802 268468937 478806031
            1895894028 -928964576 -905803602 -2142762159</internalNodes>
          <leafValues>
            -4.7117760777473450e-01 4.1426408290863037e-01</leafValues></_>
        <_>
          <internalNodes>
            0 -1 144 -778992827 -97152275 -1228988803 -1995355791
            691774726 -1891685315 -675428921 -149958828</internalNodes>
          <leafValues>
            -3.1566274166107178e-01 6.3942718505859375e-01</leafValues></_>
        <_>
          <internalNodes>
            0 -1 285 -631318448 76040395 268533767 -1723752431
            1493270687 -1206154879 335726912 717941063</internalNodes>
          <leafValues>
            -5.1814806461334229e-01 4.3403679132461548e-01</leafValues></_>
        <_>
          <internalNodes>
            0 -1 70 -3762977 -2033245189 -2013265921 -402694145
            -1906372833 536815471 2144829439 -164116545</internalNodes>
          <leafValues>
            -4.3017360568046570e-01 5.2099037170410156e-01</leafValues></_>
        <_>
          <internalNodes>
            0 -1 195 -1232800794 1904230449 -1928200130 37748830
            536983701 -2037743064 1889544253 460044536</internalNodes>
          <leafValues>
            -5.4305630922317505e-01 4.1154617071151733e-01</leafValues></_>
        <_>
          <internalNodes>
            0 -1 18 -629553861 -307331144 2004827810 -211108371 -37865
            -947945477 83162528 -914645121</internalNodes>
          <leafValues>
            -2.8957453370094299e-01 7.3486441373825073e-01</leafValues></_>
        <_>
          <internalNodes>
            0 -1 225 -1270970347 -1970163396 -84508673 -487236491
            -204079105 -151191729 -87787521 -1711217151</internalNodes>
          <leafValues>
            -3.7775811553001404e-01 5.7230585813522339e-01</leafValues></_>
        <_>
          <internalNodes>
            0 -1 151 -1916629030 -1124040444 -2063562676 1427411992
            41943842 438404096 1124110456 1289454281</internalNodes>
          <leafValues>
            -6.5533208847045898e-01 3.8059794902801514e-01</leafValues></_>
        <_>
          <internalNodes>
            0 -1 39 -2146250219 -1566015344 201852051 -804830179
            -515129157 -1206876096 -922201469 1780531712</internalNodes>
          <leafValues>
            -5.5554032325744629e-01 4.0537202358245850e-01</leafValues></_>
        <_>
          <internalNodes>
            0 -1 161 -89853969 -1129861967 1012823835 -1707415448
            -562913589 -1350565891 39614175 -1661151898</internalNodes>
          <leafValues>
            -3.6765310168266296e-01 6.4727717638015747e-01</leafValues></_>
        <_>
          <internalNodes>
            0 -1 268 -702545504 -628522878 -1778368365 944767120
            -1879013214 -1920333695 -2012740466 692603186</internalNodes>
          <leafValues>
            -6.4666116237640381e-01 3.7050271034240723e-01</leafValues></_></weakClassifiers></_>
    <!-- stage 21 -->
    <_>
      <maxWeakCount>11</maxWeakCount>
      <stageThreshold>-7.8173118829727173e-01</stageThreshold>
      <weakClassifiers>
        <_>
          <internalNodes>
            0 -1 255 -1964247683 574161293 -79902721 993606575
            -2007240709 -1908704385 -2088812561 -92555529</internalNodes>
          <leafValues>
            -2.0377868413925171e-01 6.4144355058670044e-01</leafValues></_>
        <_>
          <internalNodes>
            0 -1 54 -23856787 1923228400 -268435458 2063515135 139237398
            -77683187 -142606361 -75568630</internalNodes>
          <leafValues>
            -2.6445725560188293e-01 6.5798866748809814e-01</leafValues></_>
        <_>
          <internalNodes>
            0 -1 190 -1895710619 -62644031 -84451970 -784197803
            -635296005 -608176129 2069565308 -670982753</internalNodes>
          <leafValues>
            -3.1284838914871216e-01 6.0489070415496826e-01</leafValues></_>
        <_>
          <internalNodes>
            0 -1 227 -1064195563 407076912 1695088669 278139012
            -2146889016 -872406974 -1996451684 2066055695</internalNodes>
          <leafValues>
            -4.8762142658233643e-01 4.3538743257522583e-01</leafValues></_>
        <_>
          <internalNodes>
            0 -1 264 -1260655844 628876036 -2147418109 1191696640
            -2105272312 176718080 -1601699636 -1552193269</internalNodes>
          <leafValues>
            -4.5543158054351807e-01 4.9272742867469788e-01</leafValues></_>
        <_>
          <internalNodes>
            0 -1 12 1131927023 -1892163849 -1082687501 -537427977
            1039422480 2134900605 662078709 -170683073</internalNodes>
          <leafValues>
            -4.5708301663398743e-01 5.0071001052856445e-01</leafValues></_>
        <_>
          <internalNodes>
            0 -1 217 -1307356544 1090584580 270648392 -784331765
            167839760 167903362 -872404990 1759545345</internalNodes>
          <leafValues>
            -6.5230119228363037e-01 3.9962780475616455e-01</leafValues></_>
        <_>
          <internalNodes>
            0 -1 172 -1139529230 2132379717 -1091351755 -110336255
            -1965763196 670561787 -1099997330 -1965172847</internalNodes>
          <leafValues>
            -3.6522021889686584e-01 6.8688422441482544e-01</leafValues></_>
        <_>
          <internalNodes>
            0 -1 37 -424715902 799686074 -1628652003 -117612590
            -1090532084 1065172982 947695164 -862519941</internalNodes>
          <leafValues>
            -4.3216687440872192e-01 5.5652475357055664e-01</leafValues></_>
        <_>
          <internalNodes>
            0 -1 269 863515641 -1962916352 33554694 -2063480318 9053369
            1225293826 33620621 423135382</internalNodes>
          <leafValues>
            -5.9497201442718506e-01 4.1203796863555908e-01</leafValues></_>
        <_>
          <internalNodes>
            0 -1 61 1476419650 -1740323566 68488408 955338776
            -1073714270 1112541785 -1601463657 -980811767</internalNodes>
          <leafValues>
            -5.8647859096527100e-01 4.2741739749908447e-01</leafValues></_></weakClassifiers></_>
    <!-- stage 22 -->
    <_>
      <maxWeakCount>13</maxWeakCount>
      <stageThreshold>-2.1031647920608521e-01</stageThreshold>
      <weakClassifiers>
        <_>
          <internalNodes>
            0 -1 113 832636330 675676467 285278229 76091648 419832224
            650641442 966787075 207880192</internalNodes>
          <leafValues>
            -6.0126584768295288e-01 4.5950156450271606e-01</leafValues></_>
        <_>
          <internalNodes>
            0 -1 86 -1071911343 641704707 402075647 -1140873739
            -922478447 -756719875 -281543241 -69527937</internalNodes>
          <leafValues>
            -3.0591753125190735e-01 6.1959254741668701e-01</leafValues></_>
        <_>
          <internalNodes>
            0 -1 26 -207099982 925220844 -29495560 821395178 528361472
            -495485081 1584913879 -211061177</internalNodes>
          <leafValues>
            -3.4408822655677795e-01 5.6291097402572632e-01</leafValues></_>
        <_>
          <internalNodes>
            0 -1 100 -1069432678 176193536 -2113303988 1627591104
            306618744 1611962889 1816461346 1183345340</internalNodes>
          <leafValues>
            -6.2601697444915771e-01 3.5295778512954712e-01</leafValues></_>
        <_>
          <internalNodes>
            0 -1 40 -2146016997 -384630424 -2130685898 -493780695
            1610651800 -1970765816 167806113 -1971214076</internalNodes>
          <leafValues>
            -4.5559769868850708e-01 4.8985406756401062e-01</leafValues></_>
        <_>
          <internalNodes>
            0 -1 270 -1719573561 1381564535 285229121 1681985749
            -1073430327 1073762305 -1878687742 545899529</internalNodes>
          <leafValues>
            -5.5629694461822510e-01 4.0011963248252869e-01</leafValues></_>
        <_>
          <internalNodes>
            0 -1 79 -461918763 -407982098 1031552924 1206529776
            -152125483 1441750910 -1116113416 -680112425</internalNodes>
          <leafValues>
            -4.2365965247154236e-01 5.6643092632293701e-01</leafValues></_>
        <_>
          <internalNodes>
            0 -1 293 392416083 -978408712 2130673120 1497250534
            2006783725 -587252226 1206550522 -502075685</internalNodes>
          <leafValues>
            -3.2831072807312012e-01 6.7647022008895874e-01</leafValues></_>
        <_>
          <internalNodes>
            0 -1 237 -1704716733 942772497 25170199 890609665 -939405212
            2046822424 1073815578 1591485257</internalNodes>
          <leafValues>
            -5.7428300380706787e-01 4.1560757160186768e-01</leafValues></_>
        <_>
          <internalNodes>
            0 -1 221 -1141924205 -810833802 2146385847 1280294142
            2080306756 -1487503490 -1589119044 -1785750025</internalNodes>
          <leafValues>
            -3.5951092839241028e-01 7.0860111713409424e-01</leafValues></_>
        <_>
          <internalNodes>
            0 -1 146 -787775053 -325370328 1608482554 -2019442917
            -1929412596 2142428667 -427884681 -380338315</internalNodes>
          <leafValues>
            -3.2179281115531921e-01 7.3691552877426147e-01</leafValues></_>
        <_>
          <internalNodes>
            0 -1 231 560469754 1128866308 33570945 -1727873662
            -671055871 -2105507712 536870913 1929576579</internalNodes>
          <leafValues>
            -7.0797973871231079e-01 3.7368094921112061e-01</leafValues></_>
        <_>
          <internalNodes>
            0 -1 203 -1796654441 54509420 737998704 392454140 459791263
            -1208127490 -1762318920 1576925115</internalNodes>
          <leafValues>
            -4.3527081608772278e-01 5.8685052394866943e-01</leafValues></_></weakClassifiers></_>
    <!-- stage 23 -->
    <_>
      <maxWeakCount>12</maxWeakCount>
      <stageThreshold>-9.5568138360977173e-01</stageThreshold>
      <weakClassifiers>
        <_>
          <internalNodes>
            0 -1 115 44309948 664287220 2146885614 100286461 -587983452
            -537722891 -1749221413 998203899</internalNodes>
          <leafValues>
            -4.2857143282890320e-01 5.0819671154022217e-01</leafValues></_>
        <_>
          <internalNodes>
            0 -1 194 -1064820035 -1864361093 -604938243 -1534494082
            -2098003727 -210239561 -824812226 -399932912</internalNodes>
          <leafValues>
            -3.2433068752288818e-01 5.9477525949478149e-01</leafValues></_>
        <_>
          <internalNodes>
            0 -1 214 -1572342092 302006274 285475984 -218103808
            294703396 83923939 731521597 690683920</internalNodes>
          <leafValues>
            -6.1648833751678467e-01 3.5865244269371033e-01</leafValues></_>
        <_>
          <internalNodes>
            0 -1 47 818090055 302055938 268470529 -787709939 1343881827
            -1040187256 -930496344 160540032</internalNodes>
          <leafValues>
            -6.0649043321609497e-01 3.6561983823776245e-01</leafValues></_>
        <_>
          <internalNodes>
            0 -1 29 -1055997430 1834025097 18878484 -570343424
            1091760275 587301058 1678434440 1191710723</internalNodes>
          <leafValues>
            -6.1110633611679077e-01 3.8306444883346558e-01</leafValues></_>
        <_>
          <internalNodes>
            0 -1 124 -249999009 -769994881 1729367901 -750588041
            1886508543 -1027662818 -8425641 -890797586</internalNodes>
          <leafValues>
            -3.7230056524276733e-01 7.0860016345977783e-01</leafValues></_>
        <_>
          <internalNodes>
            0 -1 92 -2130180974 73988 -1589116894 -318725630 17531273
            606792 1309065283 1585693613</internalNodes>
          <leafValues>
            -6.0530036687850952e-01 4.4026148319244385e-01</leafValues></_>
        <_>
          <internalNodes>
            0 -1 164 -1435082322 -487641364 -1409714372 -1507608
            -318798031 -1477967882 2147481234 -526778475</internalNodes>
          <leafValues>
            -4.8323264718055725e-01 5.5150616168975830e-01</leafValues></_>
        <_>
          <internalNodes>
            0 -1 218 1504821861 2048134419 939515833 -1356560595
            -1413523969 -1372905601 -2105589761 -486596757</internalNodes>
          <leafValues>
            -3.6789819598197937e-01 6.6042280197143555e-01</leafValues></_>
        <_>
          <internalNodes>
            0 -1 160 -784179065 357057933 16865708 -515276518 -670133747
            -1131347967 1485046002 699178499</internalNodes>
          <leafValues>
            -5.6086874008178711e-01 4.7714263200759888e-01</leafValues></_>
        <_>
          <internalNodes>
            0 -1 112 1846763653 957744128 -267304430 337117568 286036176
            193462312 16841113 1261128358</internalNodes>
          <leafValues>
            -5.5428546667098999e-01 4.4710126519203186e-01</leafValues></_>
        <_>
          <internalNodes>
            0 -1 133 121553678 -723087195 1073180543 -857323897
            465501351 -704712713 -188396097 -1877221209</internalNodes>
          <leafValues>
            -4.4851747155189514e-01 5.8743500709533691e-01</leafValues></_></weakClassifiers></_>
    <!-- stage 24 -->
    <_>
      <maxWeakCount>13</maxWeakCount>
      <stageThreshold>-4.7261410951614380e-01</stageThreshold>
      <weakClassifiers>
        <_>
          <internalNodes>
            0 -1 27 -934051642 1329632640 -1743744358 528678920
            553935968 83886081 1628271105 1633681427</internalNodes>
          <leafValues>
            -6.5656566619873047e-01 4.5663851499557495e-01</leafValues></_>
        <_>
          <internalNodes>
            0 -1 265 -1384530610 -1921384732 2147482857 -2089829002
            -1208003492 472732756 -1110069990 -1258895945</internalNodes>
          <leafValues>
            -4.2260876297950745e-01 5.1447725296020508e-01</leafValues></_>
        <_>
          <internalNodes>
            0 -1 260 114267668 34750721 -1878917120 -1442733553 17039360
            293699776 -1996439037 1982267520</internalNodes>
          <leafValues>
            -5.9400802850723267e-01 4.2087414860725403e-01</leafValues></_>
        <_>
          <internalNodes>
            0 -1 96 -1258132387 -629314683 -1505816585 1563759807
            -2066953140 -436766979 -176738955 -1762159493</internalNodes>
          <leafValues>
            -4.1100305318832397e-01 6.2931197881698608e-01</leafValues></_>
        <_>
          <internalNodes>
            0 -1 196 1132483408 -221183612 662798720 1745223956
            411058866 -1715437568 34084872 -1257007393</internalNodes>
          <leafValues>
            -5.2020245790481567e-01 4.4329845905303955e-01</leafValues></_>
        <_>
          <internalNodes>
            0 -1 178 -1139204028 -1895677951 1073743123 -631570400
            -1744731870 -150994934 167819304 -1604318464</internalNodes>
          <leafValues>
            -5.7849341630935669e-01 4.4394269585609436e-01</leafValues></_>
        <_>
          <internalNodes>
            0 -1 77 -1650572103 -1724645183 -2147478303 268435456
            76190258 -484863990 -2113661667 1250074626</internalNodes>
          <leafValues>
            -5.2845793962478638e-01 5.0834482908248901e-01</leafValues></_>
        <_>
          <internalNodes>
            0 -1 193 -568696341 -1876004931 2142065975 1231486234
            -797163048 -151003650 332773236 -478011596</internalNodes>
          <leafValues>
            -3.9645877480506897e-01 7.2148954868316650e-01</leafValues></_>
        <_>
          <internalNodes>
            0 -1 213 1940893834 -1071633846 33673419 222625799
            -2062999536 1761756291 -1065349120 1091412124</internalNodes>
          <leafValues>
            -5.5138027667999268e-01 5.0744831562042236e-01</leafValues></_>
        <_>
          <internalNodes>
            0 -1 298 1332472883 1072627688 -49154 1073577983 -65545
            -1342177281 -268451879 -1937572481</internalNodes>
          <leafValues>
            -4.1455325484275818e-01 5.9793567657470703e-01</leafValues></_>
        <_>
          <internalNodes>
            0 -1 46 -1476558469 529145972 16810000 973344776 268537866
            287467632 16777416 2017124408</internalNodes>
          <leafValues>
            -6.1785119771957397e-01 4.3034970760345459e-01</leafValues></_>
        <_>
          <internalNodes>
            0 -1 95 -726511659 -1056987185 662019967 1877235709
            -877289171 -1054909121 -1484784131 -1678322441</internalNodes>
          <leafValues>
            -3.6513096094131470e-01 7.5348681211471558e-01</leafValues></_>
        <_>
          <internalNodes>
            0 -1 48 61759660 1459617792 32792 -805158775 244037656
            4325393 -1061124542 1418666187</internalNodes>
          <leafValues>
            -6.5131986141204834e-01 4.1631960868835449e-01</leafValues></_></weakClassifiers></_></stages>
  <features>
    <_>
      <rect>
        0 0 4 2</rect></_>
    <_>
      <rect>
        0 0 6 33</rect></_>
    <_>
      <rect>
        0 0 10 29</rect></_>
    <_>
      <rect>
        0 0 15 11</rect></_>
    <_>
      <rect>
        0 8 8 8</rect></_>
    <_>
      <rect>
        0 23 11 22</rect></_>
    <_>
      <rect>
        0 26 1 17</rect></_>
    <_>
      <rect>
        0 26 7 9</rect></_>
    <_>
      <rect>
        0 27 4 14</rect></_>
    <_>
      <rect>
        0 30 15 17</rect></_>
    <_>
      <rect>
        0 35 2 3</rect></_>
    <_>
      <rect>
        0 35 5 5</rect></_>
    <_>
      <rect>
        0 35 5 10</rect></_>
    <_>
      <rect>
        0 36 3 13</rect></_>
    <_>
      <rect>
        0 36 11 11</rect></_>
    <_>
      <rect>
        0 37 2 7</rect></_>
    <_>
      <rect>
        0 37 7 9</rect></_>
    <_>
      <rect>
        0 42 14 6</rect></_>
    <_>
      <rect>
        0 43 1 2</rect></_>
    <_>
      <rect>
        0 44 8 7</rect></_>
    <_>
      <rect>
        0 45 1 6</rect></_>
    <_>
      <rect>
        0 46 7 7</rect></_>
    <_>
      <rect>
        0 46 10 8</rect></_>
    <_>
      <rect>
        0 50 13 10</rect></_>
    <_>
      <rect>
        0 52 6 5</rect></_>
    <_>
      <rect>
        0 52 11 11</rect></_>
    <_>
      <rect>
        0 53 1 1</rect></_>
    <_>
      <rect>
        0 53 8 4</rect></_>
    <_>
      <rect>
        0 54 1 1</rect></_>
    <_>
      <rect>
        0 55 11 7</rect></_>
    <_>
      <rect>
        0 56 13 11</rect></_>
    <_>
      <rect>
        0 58 8 7</rect></_>
    <_>
      <rect>
        0 61 11 8</rect></_>
    <_>
      <rect>
        0 61 12 5</rect></_>
    <_>
      <rect>
        0 64 12 8</rect></_>
    <_>
      <rect>
        0 64 13 12</rect></_>
    <_>
      <rect>
        0 68 12 9</rect></_>
    <_>
      <rect>
        0 70 5 8</rect></_>
    <_>
      <rect>
        0 79 9 7</rect></_>
    <_>
      <rect>
        1 1 7 4</rect></_>
    <_>
      <rect>
        1 2 6 4</rect></_>
    <_>
      <rect>
        1 4 16 27</rect></_>
    <_>
      <rect>
        1 9 8 8</rect></_>
    <_>
      <rect>
        1 14 6 5</rect></_>
    <_>
      <rect>
        1 32 2 3</rect></_>
    <_>
      <rect>
        1 33 9 13</rect></_>
    <_>
      <rect>
        1 38 16 10</rect></_>
    <_>
      <rect>
        1 43 10 7</rect></_>
    <_>
      <rect>
        1 50 6 12</rect></_>
    <_>
      <rect>
        1 53 16 10</rect></_>
    <_>
      <rect>
        1 65 5 6</rect></_>
    <_>
      <rect>
        2 0 16 23</rect></_>
    <_>
      <rect>
        2 1 12 5</rect></_>
    <_>
      <rect>
        2 10 14 30</rect></_>
    <_>
      <rect>
        2 19 15 26</rect></_>
    <_>
      <rect>
        2 23 16 16</rect></_>
    <_>
      <rect>
        2 29 3 3</rect></_>
    <_>
      <rect>
        2 29 7 5</rect></_>
    <_>
      <rect>
        2 29 8 12</rect></_>
    <_>
      <rect>
        2 31 12 21</rect></_>
    <_>
      <rect>
        2 41 11 8</rect></_>
    <_>
      <rect>
        2 61 13 10</rect></_>
    <_>
      <rect>
        2 69 14 10</rect></_>
    <_>
      <rect>
        2 78 5 7</rect></_>
    <_>
      <rect>
        2 83 9 5</rect></_>
    <_>
      <rect>
        3 44 12 5</rect></_>
    <_>
      <rect>
        3 45 9 5</rect></_>
    <_>
      <rect>
        3 74 8 6</rect></_>
    <_>
      <rect>
        4 0 9 3</rect></_>
    <_>
      <rect>
        4 21 15 12</rect></_>
    <_>
      <rect>
        4 30 14 15</rect></_>
    <_>
      <rect>
        4 41 13 5</rect></_>
    <_>
      <rect>
        4 51 5 5</rect></_>
    <_>
      <rect>
        4 59 14 12</rect></_>
    <_>
      <rect>
        4 78 9 7</rect></_>
    <_>
      <rect>
        5 29 10 12</rect></_>
    <_>
      <rect>
        5 43 12 4</rect></_>
    <_>
      <rect>
        5 47 10 3</rect></_>
    <_>
      <rect>
        5 57 10 8</rect></_>
    <_>
      <rect>
        5 65 11 7</rect></_>
    <_>
      <rect>
        5 74 7 6</rect></_>
    <_>
      <rect>
        6 18 7 7</rect></_>
    <_>
      <rect>
        6 20 13 24</rect></_>
    <_>
      <rect>
        6 27 14 22</rect></_>
    <_>
      <rect>
        6 35 12 8</rect></_>
    <_>
      <rect>
        6 36 8 9</rect></_>
    <_>
      <rect>
        6 37 10 8</rect></_>
    <_>
      <rect>
        6 49 14 10</rect></_>
    <_>
      <rect>
        6 65 9 7</rect></_>
    <_>
      <rect>
        6 68 8 10</rect></_>
    <_>
      <rect>
        6 70 5 6</rect></_>
    <_>
      <rect>
        6 82 12 5</rect></_>
    <_>
      <rect>
        7 26 9 6</rect></_>
    <_>
      <rect>
        7 28 7 14</rect></_>
    <_>
      <rect>
        7 29 8 12</rect></_>
    <_>
      <rect>
        7 31 10 11</rect></_>
    <_>
      <rect>
        7 38 10 7</rect></_>
    <_>
      <rect>
        7 45 6 7</rect></_>
    <_>
      <rect>
        7 55 13 10</rect></_>
    <_>
      <rect>
        7 62 10 7</rect></_>
    <_>
      <rect>
        8 21 9 8</rect></_>
    <_>
      <rect>
        8 26 9 6</rect></_>
    <_>
      <rect>
        8 26 13 20</rect></_>
    <_>
      <rect>
        8 34 8 11</rect></_>
    <_>
      <rect>
        8 36 4 5</rect></_>
    <_>
      <rect>
        8 46 5 3</rect></_>
    <_>
      <rect>
        9 1 9 17</rect></_>
    <_>
      <rect>
        9 45 8 6</rect></_>
    <_>
      <rect>
        9 46 10 5</rect></_>
    <_>
      <rect>
        9 51 8 7</rect></_>
    <_>
      <rect>
        9 62 11 7</rect></_>
    <_>
      <rect>
        9 69 3 4</rect></_>
    <_>
      <rect>
        9 76 10 8</rect></_>
    <_>
      <rect>
        10 8 12 10</rect></_>
    <_>
      <rect>
        10 12 10 8</rect></_>
    <_>
      <rect>
        10 38 3 5</rect></_>
    <_>
      <rect>
        10 41 5 3</rect></_>
    <_>
      <rect>
        10 44 7 6</rect></_>
    <_>
      <rect>
        10 46 8 3</rect></_>
    <_>
      <rect>
        10 48 4 4</rect></_>
    <_>
      <rect>
        10 48 7 5</rect></_>
    <_>
      <rect>
        10 51 4 2</rect></_>
    <_>
      <rect>
        10 54 3 3</rect></_>
    <_>
      <rect>
        10 54 5 5</rect></_>
    <_>
      <rect>
        11 27 9 12</rect></_>
    <_>
      <rect>
        11 30 13 20</rect></_>
    <_>
      <rect>
        11 42 7 7</rect></_>
    <_>
      <rect>
        11 48 8 3</rect></_>
    <_>
      <rect>
        11 51 6 2</rect></_>
    <_>
      <rect>
        11 52 3 2</rect></_>
    <_>
      <rect>
        11 57 10 7</rect></_>
    <_>
      <rect>
        11 67 10 9</rect></_>
    <_>
      <rect>
        12 43 10 5</rect></_>
    <_>
      <rect>
        12 47 8 6</rect></_>
    <_>
      <rect>
        12 47 9 4</rect></_>
    <_>
      <rect>
        12 47 9 5</rect></_>
    <_>
      <rect>
        12 48 3 3</rect></_>
    <_>
      <rect>
        12 51 9 7</rect></_>
    <_>
      <rect>
        12 56 3 2</rect></_>
    <_>
      <rect>
        12 58 11 12</rect></_>
    <_>
      <rect>
        12 59 8 7</rect></_>
    <_>
      <rect>
        13 12 11 11</rect></_>
    <_>
      <rect>
        13 14 9 7</rect></_>
    <_>
      <rect>
        13 21 10 21</rect></_>
    <_>
      <rect>
        13 29 6 12</rect></_>
    <_>
      <rect>
        13 36 7 8</rect></_>
    <_>
      <rect>
        13 44 10 4</rect></_>
    <_>
      <rect>
        13 51 3 3</rect></_>
    <_>
      <rect>
        13 56 12 8</rect></_>
    <_>
      <rect>
        14 15 11 26</rect></_>
    <_>
      <rect>
        14 27 12 22</rect></_>
    <_>
      <rect>
        14 34 5 3</rect></_>
    <_>
      <rect>
        14 37 6 12</rect></_>
    <_>
      <rect>
        14 37 7 4</rect></_>
    <_>
      <rect>
        14 43 6 8</rect></_>
    <_>
      <rect>
        14 48 7 5</rect></_>
    <_>
      <rect>
        14 61 10 12</rect></_>
    <_>
      <rect>
        14 63 11 11</rect></_>
    <_>
      <rect>
        15 1 7 11</rect></_>
    <_>
      <rect>
        15 17 8 9</rect></_>
    <_>
      <rect>
        15 34 6 4</rect></_>
    <_>
      <rect>
        15 49 6 2</rect></_>
    <_>
      <rect>
        15 53 7 5</rect></_>
    <_>
      <rect>
        15 58 10 8</rect></_>
    <_>
      <rect>
        15 69 5 3</rect></_>
    <_>
      <rect>
        16 25 6 5</rect></_>
    <_>
      <rect>
        16 27 8 7</rect></_>
    <_>
      <rect>
        16 27 9 7</rect></_>
    <_>
      <rect>
        16 33 6 8</rect></_>
    <_>
      <rect>
        16 34 10 9</rect></_>
    <_>
      <rect>
        16 42 6 5</rect></_>
    <_>
      <rect>
        16 46 3 2</rect></_>
    <_>
      <rect>
        16 46 8 4</rect></_>
    <_>
      <rect>
        16 51 8 6</rect></_>
    <_>
      <rect>
        16 53 5 3</rect></_>
    <_>
      <rect>
        16 54 4 2</rect></_>
    <_>
      <rect>
        16 56 7 7</rect></_>
    <_>
      <rect>
        16 65 9 9</rect></_>
    <_>
      <rect>
        17 0 11 5</rect></_>
    <_>
      <rect>
        17 23 11 22</rect></_>
    <_>
      <rect>
        17 31 5 5</rect></_>
    <_>
      <rect>
        17 32 11 15</rect></_>
    <_>
      <rect>
        17 37 5 3</rect></_>
    <_>
      <rect>
        17 42 5 3</rect></_>
    <_>
      <rect>
        17 42 9 5</rect></_>
    <_>
      <rect>
        17 46 7 5</rect></_>
    <_>
      <rect>
        17 49 7 3</rect></_>
    <_>
      <rect>
        17 57 10 11</rect></_>
    <_>
      <rect>
        17 61 10 13</rect></_>
    <_>
      <rect>
        18 44 5 3</rect></_>
    <_>
      <rect>
        18 44 7 6</rect></_>
    <_>
      <rect>
        18 45 7 4</rect></_>
    <_>
      <rect>
        18 46 9 7</rect></_>
    <_>
      <rect>
        18 47 7 3</rect></_>
    <_>
      <rect>
        18 47 9 4</rect></_>
    <_>
      <rect>
        18 63 8 7</rect></_>
    <_>
      <rect>
        18 66 7 5</rect></_>
    <_>
      <rect>
        19 0 10 31</rect></_>
    <_>
      <rect>
        19 35 8 6</rect></_>
    <_>
      <rect>
        19 39 10 7</rect></_>
    <_>
      <rect>
        19 45 8 3</rect></_>
    <_>
      <rect>
        19 48 8 4</rect></_>
    <_>
      <rect>
        19 53 10 8</rect></_>
    <_>
      <rect>
        19 93 5 2</rect></_>
    <_>
      <rect>
        20 0 10 7</rect></_>
    <_>
      <rect>
        20 16 8 15</rect></_>
    <_>
      <rect>
        20 24 10 23</rect></_>
    <_>
      <rect>
        20 26 10 17</rect></_>
    <_>
      <rect>
        20 31 9 5</rect></_>
    <_>
      <rect>
        20 36 10 10</rect></_>
    <_>
      <rect>
        20 40 3 2</rect></_>
    <_>
      <rect>
        20 48 4 2</rect></_>
    <_>
      <rect>
        20 51 10 9</rect></_>
    <_>
      <rect>
        20 63 3 4</rect></_>
    <_>
      <rect>
        20 63 10 8</rect></_>
    <_>
      <rect>
        20 65 10 9</rect></_>
    <_>
      <rect>
        20 66 10 11</rect></_>
    <_>
      <rect>
        21 30 6 3</rect></_>
    <_>
      <rect>
        21 32 9 12</rect></_>
    <_>
      <rect>
        21 42 6 9</rect></_>
    <_>
      <rect>
        21 48 5 4</rect></_>
    <_>
      <rect>
        21 64 3 4</rect></_>
    <_>
      <rect>
        21 85 6 4</rect></_>
    <_>
      <rect>
        22 2 8 5</rect></_>
    <_>
      <rect>
        22 39 6 6</rect></_>
    <_>
      <rect>
        22 49 6 4</rect></_>
    <_>
      <rect>
        22 50 7 8</rect></_>
    <_>
      <rect>
        22 54 4 2</rect></_>
    <_>
      <rect>
        22 62 9 4</rect></_>
    <_>
      <rect>
        22 66 4 3</rect></_>
    <_>
      <rect>
        23 23 9 25</rect></_>
    <_>
      <rect>
        23 24 9 25</rect></_>
    <_>
      <rect>
        23 30 9 14</rect></_>
    <_>
      <rect>
        23 36 9 4</rect></_>
    <_>
      <rect>
        23 51 3 4</rect></_>
    <_>
      <rect>
        23 74 9 8</rect></_>
    <_>
      <rect>
        23 76 7 7</rect></_>
    <_>
      <rect>
        24 28 4 3</rect></_>
    <_>
      <rect>
        24 33 6 12</rect></_>
    <_>
      <rect>
        24 45 5 6</rect></_>
    <_>
      <rect>
        24 57 6 5</rect></_>
    <_>
      <rect>
        25 37 5 8</rect></_>
    <_>
      <rect>
        25 63 8 10</rect></_>
    <_>
      <rect>
        26 5 8 6</rect></_>
    <_>
      <rect>
        26 21 8 17</rect></_>
    <_>
      <rect>
        26 24 7 18</rect></_>
    <_>
      <rect>
        26 34 8 12</rect></_>
    <_>
      <rect>
        26 36 5 5</rect></_>
    <_>
      <rect>
        26 37 1 1</rect></_>
    <_>
      <rect>
        26 38 6 11</rect></_>
    <_>
      <rect>
        26 48 3 2</rect></_>
    <_>
      <rect>
        26 57 8 14</rect></_>
    <_>
      <rect>
