<?xml version="1.0"?>
<opencv_storage>
<cascade>
  <stageType>BOOST</stageType>
  <featureType>LBP</featureType>
  <height>100</height>
  <width>50</width>
  <stageParams>
    <boostType>GAB</boostType>
    <minHitRate>9.9900001287460327e-01</minHitRate>
    <maxFalseAlarm>2.0000000298023224e-01</maxFalseAlarm>
    <weightTrimRate>9.4999999999999996e-01</weightTrimRate>
    <maxDepth>1</maxDepth>
    <maxWeakCount>100</maxWeakCount></stageParams>
  <featureParams>
    <maxCatCount>256</maxCatCount>
    <featSize>1</featSize></featureParams>
  <stageNum>25</stageNum>
  <stages>
    <!-- stage 0 -->
    <_>
      <maxWeakCount>6</maxWeakCount>
      <stageThreshold>-4.3588027358055115e-01</stageThreshold>
      <weakClassifiers>
        <_>
          <internalNodes>
            0 -1 41 1359991295 864133913 33415 319361295 688067023
            134742016 436752267 17367389</internalNodes>
          <leafValues>
            -8.5562634468078613e-01 7.1124887466430664e-01</leafValues></_>
        <_>
          <internalNodes>
            0 -1 121 -368802784 -787938427 1342249429 -179994491
            1149870491 -134182910 -2097118581 17776839</internalNodes>
          <leafValues>
            -7.2570657730102539e-01 5.7876914739608765e-01</leafValues></_>
        <_>
          <internalNodes>
            0 -1 141 1359184971 285835267 -251637741 1065960245 39418
            -1073119104 327854475 453745163</internalNodes>
          <leafValues>
            -6.4134365320205688e-01 6.3456553220748901e-01</leafValues></_>
        <_>
          <internalNodes>
            0 -1 49 -1010707997 -236908270 1073811844 1972476004
            101863475 570556418 1652654087 1158369842</internalNodes>
          <leafValues>
            -6.7766761779785156e-01 6.1295872926712036e-01</leafValues></_>
        <_>
          <internalNodes>
            0 -1 175 -1068908252 1405817005 -2145353644 857571345
            29929635 336199680 209895561 1671152267</internalNodes>
          <leafValues>
            -7.2039896249771118e-01 5.8284872770309448e-01</leafValues></_>
        <_>
          <internalNodes>
            0 -1 116 -108416813 -1799253944 50872789 1305548813
            -1736439344 13402632 973146267 138642049</internalNodes>
          <leafValues>
            -6.8614840507507324e-01 6.1606365442276001e-01</leafValues></_></weakClassifiers></_>
    <!-- stage 1 -->
    <_>
      <maxWeakCount>9</maxWeakCount>
      <stageThreshold>-5.9841382503509521e-01</stageThreshold>
      <weakClassifiers>
        <_>
          <internalNodes>
            0 -1 54 295946479 285417891 16385 856129583 269041839
            134420489 17253151 189489887</internalNodes>
          <leafValues>
            -7.9770112037658691e-01 6.4120173454284668e-01</leafValues></_>
        <_>
          <internalNodes>
            0 -1 234 -1037437703 33689617 16842833 285294755 -2145353570
            536936578 134471883 1529861119</internalNodes>
          <leafValues>
            -6.1152613162994385e-01 5.8062487840652466e-01</leafValues></_>
        <_>
          <internalNodes>
            0 -1 81 1917026442 -787349215 838865616 -1325379176
            813728177 -1878859614 1484957947 1874576284</internalNodes>
          <leafValues>
            -5.9530144929885864e-01 5.7436841726303101e-01</leafValues></_>
        <_>
          <internalNodes>
            0 -1 78 -1006583661 -786290656 -269537571 -182065741
            -52108080 -835586731 -1536838449 520863583</internalNodes>
          <leafValues>
            -4.8356816172599792e-01 7.1071016788482666e-01</leafValues></_>
        <_>
          <internalNodes>
            0 -1 45 1662252755 1929527297 285294739 1929636131 65601
            1073938714 159629443 -548420369</internalNodes>
          <leafValues>
            -5.6823992729187012e-01 6.4464950561523438e-01</leafValues></_>
        <_>
          <internalNodes>
            0 -1 264 1557813400 -1819213799 813701385 318965771
            -2130011910 -1736208382 402687467 1252709003</internalNodes>
          <leafValues>
            -5.9672242403030396e-01 6.0266691446304321e-01</leafValues></_>
        <_>
          <internalNodes>
            0 -1 240 1430778423 55482385 77847 1813348359 -800907050
            1208647688 -796802882 873065055</internalNodes>
          <leafValues>
            -6.0198545455932617e-01 5.7156807184219360e-01</leafValues></_>
        <_>
          <internalNodes>
            0 -1 207 1476460184 -803487408 69655 1344360465 -964157270
            -1161691127 1610727579 473974806</internalNodes>
          <leafValues>
            -6.7769342660903931e-01 5.5205082893371582e-01</leafValues></_>
        <_>
          <internalNodes>
            0 -1 167 692646588 -616464384 285347858 890372098 1075904698
            696942592 17531022 1006625742</internalNodes>
          <leafValues>
            -7.0321959257125854e-01 5.2636218070983887e-01</leafValues></_></weakClassifiers></_>
    <!-- stage 2 -->
    <_>
      <maxWeakCount>9</maxWeakCount>
      <stageThreshold>-3.1348890066146851e-01</stageThreshold>
      <weakClassifiers>
        <_>
          <internalNodes>
            0 -1 11 1930363279 320143617 2147319807 1342177279 6030092
            122886734 -1142964257 -32769</internalNodes>
          <leafValues>
            -4.8601397871971130e-01 6.5953308343887329e-01</leafValues></_>
        <_>
          <internalNodes>
            0 -1 244 -1029180929 539228928 -1705411713 -1289658457
            -1560281169 -625065989 -235143169 -349442305</internalNodes>
          <leafValues>
            -4.0250134468078613e-01 7.1234983205795288e-01</leafValues></_>
        <_>
          <internalNodes>
            0 -1 46 -623126309 -749809655 -1826617869 61446557
            1971475985 1308659762 1645327170 2002250626</internalNodes>
          <leafValues>
            -5.5269324779510498e-01 5.2654498815536499e-01</leafValues></_>
        <_>
          <internalNodes>
            0 -1 186 -1056863983 -16496783 -85590657 -10596467
            -1867309061 -1618346113 1524613119 -1739744289</internalNodes>
          <leafValues>
            -4.1247072815895081e-01 7.0836609601974487e-01</leafValues></_>
        <_>
          <internalNodes>
            0 -1 190 -799282676 1500497159 -801041281 1360908298
            1084281294 303761680 -1962653491 925878563</internalNodes>
          <leafValues>
            -6.5321481227874756e-01 4.5296257734298706e-01</leafValues></_>
        <_>
          <internalNodes>
            0 -1 35 -350490071 -712699897 1364152320 -1877458935 121093
            34767362 1208636519 -216803213</internalNodes>
          <leafValues>
            -5.5131059885025024e-01 5.4220312833786011e-01</leafValues></_>
        <_>
          <internalNodes>
            0 -1 112 269554907 520770691 83955993 1603340546 1208287372
            -2000016886 432737163 1225876167</internalNodes>
          <leafValues>
            -6.9004839658737183e-01 4.7443109750747681e-01</leafValues></_>
        <_>
          <internalNodes>
            0 -1 183 -1346932741 -1476477049 -1074909454 1005009658
            -1107878498 234618875 1023226936 -1912603969</internalNodes>
          <leafValues>
            -5.0327861309051514e-01 6.6074585914611816e-01</leafValues></_>
        <_>
          <internalNodes>
            0 -1 274 -76294145 146718389 -102802 149354414 2147440404
            788529005 -16812545 -398459777</internalNodes>
          <leafValues>
            -4.8643359541893005e-01 6.9798219203948975e-01</leafValues></_></weakClassifiers></_>
    <!-- stage 3 -->
    <_>
      <maxWeakCount>10</maxWeakCount>
      <stageThreshold>-5.3415632247924805e-01</stageThreshold>
      <weakClassifiers>
        <_>
          <internalNodes>
            0 -1 1 -538971653 -100674690 1073733623 -8241 1194988926
            1577017343 142039007 1463767319</internalNodes>
          <leafValues>
            -4.6545454859733582e-01 6.2476187944412231e-01</leafValues></_>
        <_>
          <internalNodes>
            0 -1 168 -133858177 2102993298 134336531 973160467
            -880164292 -1677557248 -1467102565 949752158</internalNodes>
          <leafValues>
            -5.4842156171798706e-01 4.9902421236038208e-01</leafValues></_>
        <_>
          <internalNodes>
            0 -1 133 1895755924 1414857474 8388744 2064851092 -502144515
            1074463619 -2054715752 2055455195</internalNodes>
          <leafValues>
            -6.1236083507537842e-01 4.6767970919609070e-01</leafValues></_>
        <_>
          <internalNodes>
            0 -1 203 -469578425 -667184872 1108345117 1359287175
            -2147181838 -1996291938 -1559181109 167806790</internalNodes>
          <leafValues>
            -5.6957542896270752e-01 5.2893346548080444e-01</leafValues></_>
        <_>
          <internalNodes>
            0 -1 243 -786178229 1879244835 -805117952 957530178
            -536194815 -2113925088 -1878732629 33811147</internalNodes>
          <leafValues>
            -6.4554607868194580e-01 4.5799931883811951e-01</leafValues></_>
        <_>
          <internalNodes>
            0 -1 173 1121430404 856326156 381077 -620116480 -763309565
            -922656640 1090551943 -68433785</internalNodes>
          <leafValues>
            -6.0737425088882446e-01 5.0423169136047363e-01</leafValues></_>
        <_>
          <internalNodes>
            0 -1 51 1430776282 147851543 -519729016 453247390
            -1039591317 826343472 939907082 958103737</internalNodes>
          <leafValues>
            -5.9489023685455322e-01 5.5392777919769287e-01</leafValues></_>
        <_>
          <internalNodes>
            0 -1 72 284770498 1381957973 827130032 1595326608
            -1040010546 -368898048 -2142320241 2131547602</internalNodes>
          <leafValues>
            -6.8513941764831543e-01 4.2460328340530396e-01</leafValues></_>
        <_>
          <internalNodes>
            0 -1 58 -1038756523 1378718241 1090655773 -788477424
            -2147155633 -2004352896 222942131 -342963009</internalNodes>
          <leafValues>
            -5.3176486492156982e-01 5.9765094518661499e-01</leafValues></_>
        <_>
          <internalNodes>
            0 -1 164 134408400 -1660727260 352440787 -720236400
            -1442702888 -285048832 134236340 237279232</internalNodes>
          <leafValues>
            -7.0144665241241455e-01 5.1641285419464111e-01</leafValues></_></weakClassifiers></_>
    <!-- stage 4 -->
    <_>
      <maxWeakCount>11</maxWeakCount>
      <stageThreshold>3.8514271378517151e-02</stageThreshold>
      <weakClassifiers>
        <_>
          <internalNodes>
            0 -1 5 -2127454789 -1862197242 1073742033 -1788927881
            1517707 415899776 168510019 589767457</internalNodes>
          <leafValues>
            -6.0406088829040527e-01 5.2902156114578247e-01</leafValues></_>
        <_>
          <internalNodes>
            0 -1 30 -460921174 -799505661 -1920968375 -1059864566
            1200847503 1107394697 337740175 1475338889</internalNodes>
          <leafValues>
            -6.1839562654495239e-01 4.2413282394409180e-01</leafValues></_>
        <_>
          <internalNodes>
            0 -1 195 -1789799812 258769984 50335825 -876527611 285541256
            -1937402688 537135657 1289671278</internalNodes>
          <leafValues>
            -5.6465339660644531e-01 4.9022859334945679e-01</leafValues></_>
        <_>
          <internalNodes>
            0 -1 241 -932981537 537952531 1224747611 -251444725
            -1069178439 -931098480 -2109715826 -385625973</internalNodes>
          <leafValues>
            -4.9793404340744019e-01 5.8318799734115601e-01</leafValues></_>
        <_>
          <internalNodes>
            0 -1 120 -901086688 -767487949 -917466145 -775433935
            -997912181 -527646586 -980843957 1078264529</internalNodes>
          <leafValues>
            -7.0312744379043579e-01 3.6779373884201050e-01</leafValues></_>
        <_>
          <internalNodes>
            0 -1 50 -60367681 1274691582 2147462903 -8504066 -142639589
            1333755775 -168443937 -672400069</internalNodes>
          <leafValues>
            -4.5419427752494812e-01 6.4627194404602051e-01</leafValues></_>
        <_>
          <internalNodes>
            0 -1 267 -702548969 194097475 142723095 851624449 1375814217
            1610940419 956842178 2085266975</internalNodes>
          <leafValues>
            -5.4984873533248901e-01 5.1189106702804565e-01</leafValues></_>
        <_>
          <internalNodes>
            0 -1 88 1623696134 -1856831093 135401689 -544188284 76054683
            -1333161728 12779611 -1310506997</internalNodes>
          <leafValues>
            -6.1335098743438721e-01 4.5968371629714966e-01</leafValues></_>
        <_>
          <internalNodes>
            0 -1 47 1343538643 1345388800 -2130622347 1008795777
            1439699072 -1842937159 -1954347509 -67103575</internalNodes>
          <leafValues>
            -5.6208199262619019e-01 5.2978050708770752e-01</leafValues></_>
        <_>
          <internalNodes>
            0 -1 209 -1676635816 -1726382004 269488565 1141080064
            277018776 -1672994812 -1946150237 168561153</internalNodes>
          <leafValues>
            -7.0701670646667480e-01 4.2857456207275391e-01</leafValues></_>
        <_>
          <internalNodes>
            0 -1 160 -382433263 -422046465 -1 -536881157 -1458643300
            -541073409 -1021052961 -1624521227</internalNodes>
          <leafValues>
            -4.7104975581169128e-01 6.1900848150253296e-01</leafValues></_></weakClassifiers></_>
    <!-- stage 5 -->
    <_>
      <maxWeakCount>10</maxWeakCount>
      <stageThreshold>-2.4755927920341492e-01</stageThreshold>
      <weakClassifiers>
        <_>
          <internalNodes>
            0 -1 266 -897319042 211976189 -286326785 2117730045
            -474021889 515889151 -4849665 144898943</internalNodes>
          <leafValues>
            -4.0674954652786255e-01 6.0655736923217773e-01</leafValues></_>
        <_>
          <internalNodes>
            0 -1 6 -31734889 -1714093607 268538205 -142524278 579447211
            -224460406 1912668448 1322606900</internalNodes>
          <leafValues>
            -4.8054075241088867e-01 5.1397377252578735e-01</leafValues></_>
        <_>
          <internalNodes>
            0 -1 204 -529031130 1368691205 299147614 -1534422909
            -418651339 1380777987 2074723513 -238553473</internalNodes>
          <leafValues>
            -5.1741647720336914e-01 4.9556651711463928e-01</leafValues></_>
        <_>
          <internalNodes>
            0 -1 235 -1409116967 -1871687600 -1803304871 -1651207980
            -243105062 -1282867016 -905662257 2135216272</internalNodes>
          <leafValues>
            -5.0224411487579346e-01 5.0420635938644409e-01</leafValues></_>
        <_>
          <internalNodes>
            0 -1 200 -1034562601 1127630429 1061156479 -1442301153
            -84164625 -1082130433 50331639 -822166017</internalNodes>
          <leafValues>
            -4.7242596745491028e-01 5.7184624671936035e-01</leafValues></_>
        <_>
          <internalNodes>
            0 -1 215 -1336424946 -947795711 -2004706599 2720281
            147411396 550273024 -1566539556 21231832</internalNodes>
          <leafValues>
            -6.0101771354675293e-01 4.4853189587593079e-01</leafValues></_>
        <_>
          <internalNodes>
            0 -1 143 1488985243 -1664827036 4196643 -673111725
            -131952470 -1182093079 2014423041 153361</internalNodes>
          <leafValues>
            -6.2335926294326782e-01 4.3470719456672668e-01</leafValues></_>
        <_>
          <internalNodes>
            0 -1 119 -1066332011 -982052045 -1208057985 -72396673
            -1897212856 -1614842435 -1217728551 -658778771</internalNodes>
          <leafValues>
            -4.5053970813751221e-01 6.2877452373504639e-01</leafValues></_>
        <_>
          <internalNodes>
            0 -1 18 1392728163 -1592650672 -2147336047 -1677359099
            4210960 201343104 1074111361 2051129793</internalNodes>
          <leafValues>
            -6.6623097658157349e-01 4.2171791195869446e-01</leafValues></_>
        <_>
          <internalNodes>
            0 -1 75 -2126095215 -786636790 -2146762212 -1761476536
            548473004 710934532 167837866 53106619</internalNodes>
          <leafValues>
            -6.1235618591308594e-01 4.8755776882171631e-01</leafValues></_></weakClassifiers></_>
    <!-- stage 6 -->
    <_>
      <maxWeakCount>10</maxWeakCount>
      <stageThreshold>-4.2500394582748413e-01</stageThreshold>
      <weakClassifiers>
        <_>
          <internalNodes>
            0 -1 3 -612733705 2147483644 -65730 -301989903 -537111434
            -16842787 1876850352 -276867760</internalNodes>
          <leafValues>
            -3.3766233921051025e-01 6.1788618564605713e-01</leafValues></_>
        <_>
          <internalNodes>
            0 -1 182 -362879194 -120290987 -1342044740 -507800485
            625471605 -712900351 2013989512 -1278215541</internalNodes>
          <leafValues>
            -4.7240525484085083e-01 5.1039433479309082e-01</leafValues></_>
        <_>
          <internalNodes>
            0 -1 151 405821049 150995184 822184346 395939921 336086043
            675120330 1477232795 940015810</internalNodes>
          <leafValues>
            -6.6855537891387939e-01 3.6754477024078369e-01</leafValues></_>
        <_>
          <internalNodes>
            0 -1 82 -768787489 1527349322 2099523 -1861517309
            -1450722933 -1994913618 1179323339 747179237</internalNodes>
          <leafValues>
            -5.8792394399642944e-01 3.9478725194931030e-01</leafValues></_>
        <_>
          <internalNodes>
            0 -1 17 1662362565 -751303913 36278359 -1593741039
            1342767621 -893352319 473971603 -840196376</internalNodes>
          <leafValues>
            -4.9282908439636230e-01 5.0419962406158447e-01</leafValues></_>
        <_>
          <internalNodes>
            0 -1 33 1206447082 -752873115 152375312 -983007166
            1088932039 536903682 1895878827 1972062874</internalNodes>
          <leafValues>
            -6.7416328191757202e-01 3.6759611964225769e-01</leafValues></_>
        <_>
          <internalNodes>
            0 -1 76 -215630321 -370147394 2147418093 -1132855682
            -42140417 -1663439492 -25493814 -1877823822</internalNodes>
          <leafValues>
            -4.8130896687507629e-01 5.7443869113922119e-01</leafValues></_>
        <_>
          <internalNodes>
            0 -1 251 1602222459 268300246 -70 2146811646 897431092
            83754999 -1109011176 -705567499</internalNodes>
          <leafValues>
            -4.8465904593467712e-01 5.7532459497451782e-01</leafValues></_>
        <_>
          <internalNodes>
            0 -1 59 269824706 -773385445 98440 -117324671 -1851087925
            -1610084341 -2136832896 -122912285</internalNodes>
          <leafValues>
            -5.3531181812286377e-01 5.2889323234558105e-01</leafValues></_>
        <_>
          <internalNodes>
            0 -1 228 -1617945892 -687275175 -603764603 -579485476
            -1601443416 -2134724607 -1468006199 143167489</internalNodes>
          <leafValues>
            -7.2577846050262451e-01 4.0127381682395935e-01</leafValues></_></weakClassifiers></_>
    <!-- stage 7 -->
    <_>
      <maxWeakCount>12</maxWeakCount>
      <stageThreshold>-2.7841091156005859e-01</stageThreshold>
      <weakClassifiers>
        <_>
          <internalNodes>
            0 -1 273 -67109513 15584111 -50402133 1886903775 -142901494
            1382350643 -26486065 1258026747</internalNodes>
          <leafValues>
            -3.0351439118385315e-01 6.0574948787689209e-01</leafValues></_>
        <_>
          <internalNodes>
            0 -1 127 865575597 50536622 1107593362 318935622 855814007
            1966165938 -1979651936 -553938006</internalNodes>
          <leafValues>
            -5.2153050899505615e-01 4.4522404670715332e-01</leafValues></_>
        <_>
          <internalNodes>
            0 -1 27 -284168569 1191182181 -16975324 -599920654 964515430
            -1015971969 -966429373 -8423974</internalNodes>
          <leafValues>
            -3.9790472388267517e-01 5.5439472198486328e-01</leafValues></_>
        <_>
          <internalNodes>
            0 -1 172 1994029013 830734543 263426 842138632 1762201853
            638265355 59704576 969929662</internalNodes>
          <leafValues>
            -5.3723609447479248e-01 4.5014542341232300e-01</leafValues></_>
        <_>
          <internalNodes>
            0 -1 137 -393772879 -847179370 318889753 -707440445
            1229986475 -685166061 -318557786 164381844</internalNodes>
          <leafValues>
            -6.0120499134063721e-01 4.0165641903877258e-01</leafValues></_>
        <_>
          <internalNodes>
            0 -1 218 -763170345 -678499548 -625217569 -750825545
            1060880363 -1082867713 1504337598 -826487841</internalNodes>
          <leafValues>
            -3.4183153510093689e-01 7.1693205833435059e-01</leafValues></_>
        <_>
          <internalNodes>
            0 -1 22 1984025489 889589777 -1996435437 -2062413798
            50331696 -653778909 -1063226856 879446155</internalNodes>
          <leafValues>
            -6.2842744588851929e-01 4.0140065550804138e-01</leafValues></_>
        <_>
          <internalNodes>
            0 -1 115 324496621 1100337330 1124156562 1889206302
            1477078026 1209557013 1358977224 -1414774757</internalNodes>
          <leafValues>
            -5.0625854730606079e-01 5.2401912212371826e-01</leafValues></_>
        <_>
          <internalNodes>
            0 -1 140 -2142796234 1214759306 1610716680 -299122415
            -535613182 -523468670 1611170436 -293347317</internalNodes>
          <leafValues>
            -5.5662506818771362e-01 4.6452996134757996e-01</leafValues></_>
        <_>
          <internalNodes>
            0 -1 250 -1073217444 -728694214 1614807439 -245837759
            -393696113 -255799293 -167739206 211320971</internalNodes>
          <leafValues>
            -6.1956256628036499e-01 4.1746383905410767e-01</leafValues></_>
        <_>
          <internalNodes>
            0 -1 87 -2138012415 1526735121 -1991970023 -779550720
            -2010949174 -91618815 1083050121 -1928953077</internalNodes>
          <leafValues>
            -5.6087386608123779e-01 4.9506831169128418e-01</leafValues></_>
        <_>
          <internalNodes>
            0 -1 155 -119807932 831045891 272812178 335644697 -461328975
            268484608 -2013183885 868664038</internalNodes>
          <leafValues>
            -7.3405319452285767e-01 3.8530406355857849e-01</leafValues></_></weakClassifiers></_>
    <!-- stage 8 -->
    <_>
      <maxWeakCount>11</maxWeakCount>
      <stageThreshold>-5.0090104341506958e-01</stageThreshold>
      <weakClassifiers>
        <_>
          <internalNodes>
            0 -1 245 -17830339 15365950 788508286 150667247 803149296
            242833535 2113885439 1291577339</internalNodes>
          <leafValues>
            -4.8214286565780640e-01 5.3472220897674561e-01</leafValues></_>
        <_>
          <internalNodes>
            0 -1 2 -1635474195 -2028548974 1510035279 -556959229
            -1072846689 -1165785054 153224151 721748497</internalNodes>
          <leafValues>
            -5.3649711608886719e-01 3.9443507790565491e-01</leafValues></_>
        <_>
          <internalNodes>
            0 -1 256 -393733547 -1862170505 -1054314283 1862472779
            -989282079 -74971006 -888616707 1073922063</internalNodes>
          <leafValues>
            -5.0655531883239746e-01 4.0814912319183350e-01</leafValues></_>
        <_>
          <internalNodes>
            0 -1 224 -2108571189 -1708397656 -29484035 688381950
            196589051 -391135329 -1832927237 -809768209</internalNodes>
          <leafValues>
            -4.1814255714416504e-01 5.3649115562438965e-01</leafValues></_>
        <_>
          <internalNodes>
            0 -1 74 -569000754 1782845831 1879049010 2139300096
            1192198697 1703941 536994328 -1014001919</internalNodes>
          <leafValues>
            -4.6867713332176208e-01 4.8959124088287354e-01</leafValues></_>
        <_>
          <internalNodes>
            0 -1 161 1521021395 -1275521999 2063530331 -237207712
            788077758 -102302025 2060976126 -229911009</internalNodes>
          <leafValues>
            -3.7846872210502625e-01 6.6303181648254395e-01</leafValues></_>
        <_>
          <internalNodes>
            0 -1 165 -1912393359 -1982398304 1392656730 -788365184
            -1417475360 -1282832374 194166974 536644992</internalNodes>
          <leafValues>
            -6.2622630596160889e-01 4.2916738986968994e-01</leafValues></_>
        <_>
          <internalNodes>
            0 -1 229 1123206457 -697954955 -67436545 -1292277955
            -1905417 -67403778 2121000439 -126130309</internalNodes>
          <leafValues>
            -3.8412708044052124e-01 6.8533068895339966e-01</leafValues></_>
        <_>
          <internalNodes>
            0 -1 44 988523243 1916212371 -1979711488 -83161086 547521154
            1649092290 -1465325541 -72365685</internalNodes>
          <leafValues>
            -4.5892259478569031e-01 5.5480229854583740e-01</leafValues></_>
        <_>
          <internalNodes>
            0 -1 219 77745405 -657944014 50409779 -1659432917 679529420
            -1123809152 1368017034 1263395392</internalNodes>
          <leafValues>
            -6.1358153820037842e-01 4.8237210512161255e-01</leafValues></_>
        <_>
          <internalNodes>
            0 -1 166 -1329992844 532710175 310378680 -784198498
            -1874295898 -1835003616 -133854702 -609976166</internalNodes>
          <leafValues>
            -5.1101285219192505e-01 5.6214839220046997e-01</leafValues></_></weakClassifiers></_>
    <!-- stage 9 -->
    <_>
      <maxWeakCount>12</maxWeakCount>
      <stageThreshold>-5.5074262619018555e-01</stageThreshold>
      <weakClassifiers>
        <_>
          <internalNodes>
            0 -1 0 -272695309 -537036290 -257 -578824205 933116890 -641
            92238975 1465865491</internalNodes>
          <leafValues>
            -3.1186440587043762e-01 5.7821780443191528e-01</leafValues></_>
        <_>
          <internalNodes>
            0 -1 185 -765992409 1124797743 -81921 1463230301 -143392833
            -8912905 595066877 -1421869457</internalNodes>
          <leafValues>
            -3.7469014525413513e-01 5.1865220069885254e-01</leafValues></_>
        <_>
          <internalNodes>
            0 -1 249 -553557905 229806083 1225818392 211636254
            1351385349 268978184 -503225638 2065357979</internalNodes>
          <leafValues>
            -5.0102353096008301e-01 4.0741994976997375e-01</leafValues></_>
        <_>
          <internalNodes>
            0 -1 24 -1079090085 -276924680 -16781837 -23232792 863173170
            517431165 -152199503 -401152143</internalNodes>
          <leafValues>
            -4.2927062511444092e-01 4.9414223432540894e-01</leafValues></_>
        <_>
          <internalNodes>
            0 -1 130 268518485 2022289515 151022303 1507135489
            -617982832 -199745279 1810019203 957569544</internalNodes>
          <leafValues>
            -6.1787086725234985e-01 3.5818755626678467e-01</leafValues></_>
        <_>
          <internalNodes>
            0 -1 181 -174927620 -1686340784 787821173 -37546827
            980792008 -1518928010 -1902059905 -659255081</internalNodes>
          <leafValues>
            -4.0230247378349304e-01 5.8379948139190674e-01</leafValues></_>
        <_>
          <internalNodes>
            0 -1 189 1619569670 1959366941 68208889 -720846526
            -2138918537 -105520374 -666253943 4210721</internalNodes>
          <leafValues>
            -7.2642427682876587e-01 3.2285544276237488e-01</leafValues></_>
        <_>
          <internalNodes>
            0 -1 258 -677 -2039579013 -131088 1128267166 796867612
            1493007711 -1745072644 -209731586</internalNodes>
          <leafValues>
            -4.2511346936225891e-01 5.4677844047546387e-01</leafValues></_>
        <_>
          <internalNodes>
            0 -1 14 -402885545 -648961787 115011 1635811328 35131407
            -105332664 1090711714 -750313137</internalNodes>
          <leafValues>
            -4.8685923218727112e-01 4.7906059026718140e-01</leafValues></_>
        <_>
          <internalNodes>
            0 -1 227 184556692 -661647336 -2130097775 -1939799727
            -1878812213 -1197436248 185256658 999823497</internalNodes>
          <leafValues>
            -7.4821442365646362e-01 3.3433151245117188e-01</leafValues></_>
        <_>
          <internalNodes>
            0 -1 153 -151591132 -250904553 1342211714 -787656351
            -267681405 -2100182936 54565584 -1070673521</internalNodes>
          <leafValues>
            -5.3529423475265503e-01 4.7199258208274841e-01</leafValues></_>
        <_>
          <internalNodes>
            0 -1 246 -798341948 -930578219 -805288931 -601718777
            134234125 -892665591 293710539 541638660</internalNodes>
          <leafValues>
            -7.0820719003677368e-01 3.7679371237754822e-01</leafValues></_></weakClassifiers></_>
    <!-- stage 10 -->
    <_>
      <maxWeakCount>11</maxWeakCount>
      <stageThreshold>-3.6853149533271790e-01</stageThreshold>
      <weakClassifiers>
        <_>
          <internalNodes>
            0 -1 7 1884135588 1090733275 1361055769 1476956163
            1761739016 1376403528 1112211627 329908744</internalNodes>
          <leafValues>
            -5.7831323146820068e-01 4.6687698364257812e-01</leafValues></_>
        <_>
          <internalNodes>
            0 -1 29 1463548907 -307757142 -85006290 -218779980 -10326512
            1413963631 -17320233 -142608427</internalNodes>
          <leafValues>
            -3.4107246994972229e-01 5.8400559425354004e-01</leafValues></_>
        <_>
          <internalNodes>
            0 -1 109 -707419641 42041600 553898073 994410505 1904281988
            -2120089087 1804068911 -91258874</internalNodes>
          <leafValues>
            -4.2588612437248230e-01 4.9459168314933777e-01</leafValues></_>
        <_>
          <internalNodes>
            0 -1 85 -2146183745 -94292493 196591483 558200183 -396915627
            -22194513 -369917953 -117976781</internalNodes>
          <leafValues>
            -3.4799200296401978e-01 6.4058309793472290e-01</leafValues></_>
        <_>
          <internalNodes>
            0 -1 57 -485244429 34812936 1141215682 -468303803 8915762
            2047318152 -1811544362 2074844830</internalNodes>
          <leafValues>
            -5.4386299848556519e-01 4.4548854231834412e-01</leafValues></_>
        <_>
          <internalNodes>
            0 -1 275 -837036973 403009683 32834 -788316159 -939425625
            1073807361 -670859135 -1934958409</internalNodes>
          <leafValues>
            -4.6418088674545288e-01 5.2338373661041260e-01</leafValues></_>
        <_>
          <internalNodes>
            0 -1 131 -993941187 1985901625 -37748737 -940632065
            -836399723 -843102281 -986071041 -1316530441</internalNodes>
          <leafValues>
            -4.6683311462402344e-01 5.2289158105850220e-01</leafValues></_>
        <_>
          <internalNodes>
            0 -1 61 1364242836 1460159644 -1609215000 220471426
            -1979471687 -2126511733 109373200 1074184369</internalNodes>
          <leafValues>
            -6.3254213333129883e-01 4.1679441928863525e-01</leafValues></_>
        <_>
          <internalNodes>
            0 -1 110 -887989025 -1727608613 1224888752 352798976
            -1845469940 -1301806976 -1206982500 1756711498</internalNodes>
          <leafValues>
            -5.7758420705795288e-01 4.3736073374748230e-01</leafValues></_>
        <_>
          <internalNodes>
            0 -1 276 77325045 -2071310120 -1069317101 -797132395
            -1035893305 -1048535040 50354314 -905799431</internalNodes>
          <leafValues>
            -4.9114221334457397e-01 5.0241589546203613e-01</leafValues></_>
        <_>
          <internalNodes>
            0 -1 20 -35424165 -1880596496 1862236915 800980730
            -302698686 1845231613 914198450 -1038358505</internalNodes>
          <leafValues>
            -3.8698390126228333e-01 6.2155675888061523e-01</leafValues></_></weakClassifiers></_>
    <!-- stage 11 -->
    <_>
      <maxWeakCount>12</maxWeakCount>
      <stageThreshold>-3.5764175653457642e-01</stageThreshold>
      <weakClassifiers>
        <_>
          <internalNodes>
            0 -1 90 -967956186 35459742 2034274520 924590097 58861967
            587501704 1199642304 1427767939</internalNodes>
          <leafValues>
            -5.9375000000000000e-01 4.6093750000000000e-01</leafValues></_>
        <_>
          <internalNodes>
            0 -1 43 563017711 16812678 598812 224186499 17512728
            -2143264631 -1836965113 1593047415</internalNodes>
          <leafValues>
            -4.6812751889228821e-01 4.4330063462257385e-01</leafValues></_>
        <_>
          <internalNodes>
            0 -1 94 1077512625 -130357515 966179578 -536871555
            -809043480 -268606209 -829643809 -561605386</internalNodes>
          <leafValues>
            -3.5135227441787720e-01 6.3677245378494263e-01</leafValues></_>
        <_>
          <internalNodes>
            0 -1 198 -116715464 1360154641 -2138996671 1208252446
            8923542 411747346 -385770879 2124348875</internalNodes>
          <leafValues>
            -5.6935721635818481e-01 3.8951197266578674e-01</leafValues></_>
        <_>
          <internalNodes>
            0 -1 196 -635321347 -1154442182 -1342212617 269548801
            -8429585 -285573121 -1082417185 -1415979145</internalNodes>
          <leafValues>
            -4.2637637257575989e-01 5.7516920566558838e-01</leafValues></_>
        <_>
          <internalNodes>
            0 -1 91 643091166 818682058 -1056666288 288600139
            -1744825822 1728135659 1354825880 -1186486609</internalNodes>
          <leafValues>
            -5.0430613756179810e-01 4.8086601495742798e-01</leafValues></_>
        <_>
          <internalNodes>
            0 -1 67 382945687 747082130 -1996078699 -99983333 1367869807
            1629749264 -1954215701 530654283</internalNodes>
          <leafValues>
            -5.5719596147537231e-01 4.3597018718719482e-01</leafValues></_>
        <_>
          <internalNodes>
            0 -1 157 -963746626 940192340 486691972 1786514930
            1276149889 1090519232 -641523708 -45204053</internalNodes>
          <leafValues>
            -5.3168636560440063e-01 4.6884059906005859e-01</leafValues></_>
        <_>
          <internalNodes>
            0 -1 270 -778813376 -226131710 536877063 -719797632
            -1610567171 50364608 1619062490 540559851</internalNodes>
          <leafValues>
            -6.3283765316009521e-01 4.0820270776748657e-01</leafValues></_>
        <_>
          <internalNodes>
            0 -1 31 -272643099 2049818468 -1275121950 1605074799
            1316412772 2112860016 -143394941 -201591307</internalNodes>
          <leafValues>
            -4.3608099222183228e-01 5.9597611427307129e-01</leafValues></_>
        <_>
          <internalNodes>
            0 -1 213 1110843910 -1156172277 4554 -48791480 8489194
            -671088512 -2139037624 -1503401525</internalNodes>
          <leafValues>
            -6.1372280120849609e-01 4.4980508089065552e-01</leafValues></_>
        <_>
          <internalNodes>
            0 -1 93 -805137358 198000642 335544611 252696581 1962992208
            -2130444255 -1992277617 1309857865</internalNodes>
          <leafValues>
            -6.2457275390625000e-01 4.3768161535263062e-01</leafValues></_></weakClassifiers></_>
    <!-- stage 12 -->
    <_>
      <maxWeakCount>14</maxWeakCount>
      <stageThreshold>-1.8386061489582062e-01</stageThreshold>
      <weakClassifiers>
        <_>
          <internalNodes>
            0 -1 247 -352450493 2138259051 -16842753 -92406408
            -218439939 -268435585 -88293505 540038258</internalNodes>
          <leafValues>
            -3.5260117053985596e-01 5.3931546211242676e-01</leafValues></_>
        <_>
          <internalNodes>
            0 -1 83 121694402 386334730 84215888 2038924300 319389876
            541799872 1090735652 2145225421</internalNodes>
          <leafValues>
            -5.1911002397537231e-01 3.8813552260398865e-01</leafValues></_>
        <_>
          <internalNodes>
            0 -1 56 -1847804421 21562255 16846963 -714899146 13245100
            241811983 -763146151 -1981025874</internalNodes>
          <leafValues>
            -4.4819822907447815e-01 4.5201340317726135e-01</leafValues></_>
        <_>
          <internalNodes>
            0 -1 239 1235088439 1030071169 302100647 12529731
            -1858070272 1501708553 1483254410 2015814203</internalNodes>
          <leafValues>
            -4.7373110055923462e-01 4.3232816457748413e-01</leafValues></_>
        <_>
          <internalNodes>
            0 -1 145 -1728842474 1428944764 -1209091410 -545526598
            -688474633 1475802943 -1107902980 -1124141393</internalNodes>
          <leafValues>
            -4.4931757450103760e-01 4.8045945167541504e-01</leafValues></_>
        <_>
          <internalNodes>
            0 -1 79 -184478473 -15076694 -75499525 -1540358185
            -1600748132 -703013385 2021129980 -1161339033</internalNodes>
          <leafValues>
            -3.6418733000755310e-01 6.6630512475967407e-01</leafValues></_>
        <_>
          <internalNodes>
            0 -1 233 2103820743 1171095760 1098907906 1094779605
            -1072971643 1241513989 1346422784 53445850</internalNodes>
          <leafValues>
            -5.3551864624023438e-01 4.2957466840744019e-01</leafValues></_>
        <_>
          <internalNodes>
            0 -1 36 1095131062 759214935 268507152 -2003498744
            -528472920 1635132488 138684456 2040201472</internalNodes>
          <leafValues>
            -6.1582225561141968e-01 3.8104608654975891e-01</leafValues></_>
        <_>
          <internalNodes>
            0 -1 86 -1031761865 -151003779 1006632949 1543503741
            -1548298231 -75516045 -1567678633 -623962129</internalNodes>
          <leafValues>
            -4.5120519399642944e-01 5.5152237415313721e-01</leafValues></_>
        <_>
          <internalNodes>
            0 -1 148 -1660452784 1348604354 270434362 1464832005
            151127354 1921581121 1761832642 695153593</internalNodes>
          <leafValues>
            -5.7610100507736206e-01 4.5536160469055176e-01</leafValues></_>
        <_>
          <internalNodes>
            0 -1 210 -868567081 721235834 1879046392 -993280005
            -1210204219 -680108041 2012231492 -1964525704</internalNodes>
          <leafValues>
            -4.4802489876747131e-01 5.5056864023208618e-01</leafValues></_>
        <_>
          <internalNodes>
            0 -1 236 -2146422663 -1336606364 -1795094469 1573487117
            235062002 -914243159 -1459617633 1040721920</internalNodes>
          <leafValues>
            -6.2981414794921875e-01 3.8609188795089722e-01</leafValues></_>
        <_>
          <internalNodes>
            0 -1 179 1073931477 -1682952433 465559167 40450047
            -610881665 -1614872609 1052708862 -320757802</internalNodes>
          <leafValues>
            -4.5893844962120056e-01 5.4285073280334473e-01</leafValues></_>
        <_>
          <internalNodes>
            0 -1 201 1726784532 -142751047 -151007233 -1153974409
            1020583743 -603981953 -227151945 -742092595</internalNodes>
          <leafValues>
            -4.4631654024124146e-01 5.5697375535964966e-01</leafValues></_></weakClassifiers></_>
    <!-- stage 13 -->
    <_>
      <maxWeakCount>14</maxWeakCount>
      <stageThreshold>-1.6348494589328766e-01</stageThreshold>
      <weakClassifiers>
        <_>
          <internalNodes>
            0 -1 13 2004222369 855605207 2013233143 -134250753
            1192035466 1417641471 1832852799 495604107</internalNodes>
          <leafValues>
            -4.2921349406242371e-01 5.1168829202651978e-01</leafValues></_>
        <_>
          <internalNodes>
            0 -1 248 625206487 184651848 230752 -1220275701 1275802032
            8459794 203762860 463433880</internalNodes>
          <leafValues>
            -5.1566684246063232e-01 3.8477319478988647e-01</leafValues></_>
        <_>
          <internalNodes>
            0 -1 187 -804138761 -1245689244 -306323587 -916169374
            -1423270155 -616693761 -50528834 -1697587369</internalNodes>
          <leafValues>
            -3.1968352198600769e-01 6.3749587535858154e-01</leafValues></_>
        <_>
          <internalNodes>
            0 -1 53 -1999190027 -2082502001 -696188775 -2121824255
            34275775 -1879015285 -1879026969 1307935429</internalNodes>
          <leafValues>
            -4.7603794932365417e-01 4.5820689201354980e-01</leafValues></_>
        <_>
          <internalNodes>
            0 -1 149 -2095999968 1419186263 50354440 2088077378 622866
            55279884 1888659608 535605985</internalNodes>
          <leafValues>
            -6.1173897981643677e-01 3.3712086081504822e-01</leafValues></_>
        <_>
          <internalNodes>
            0 -1 26 1647456674 2106665505 -1740570620 -50265854
            558646435 1934098560 1544061059 -703741923</internalNodes>
          <leafValues>
            -5.9527736902236938e-01 3.4801328182220459e-01</leafValues></_>
        <_>
          <internalNodes>
            0 -1 126 -1645529153 195964842 2003828599 534734583
            1476209983 1879015423 1140217852 -285759851</internalNodes>
          <leafValues>
            -3.7727233767509460e-01 5.9770047664642334e-01</leafValues></_>
        <_>
          <internalNodes>
            0 -1 159 -1052027041 1772117431 1159166974 -999397379
            -1881557537 -1477543953 779878398 -523069761</internalNodes>
          <leafValues>
            -3.5381361842155457e-01 6.8758559226989746e-01</leafValues></_>
        <_>
          <internalNodes>
            0 -1 142 1359088253 1694669792 991472541 -841146349
            1816277008 -2084352976 -1706899297 1733515779</internalNodes>
          <leafValues>
            -5.8686769008636475e-01 4.1963419318199158e-01</leafValues></_>
        <_>
          <internalNodes>
            0 -1 114 -1777672133 -1734027045 2103242749 -639704713
            -277350784 -168331417 -74592201 -1130052191</internalNodes>
          <leafValues>
            -3.7103199958801270e-01 6.2325602769851685e-01</leafValues></_>
        <_>
          <internalNodes>
            0 -1 280 -998506973 -1943601874 -25760012 -488514138
            -419471594 1500462940 956167396 -796473386</internalNodes>
          <leafValues>
            -4.1015139222145081e-01 5.5308425426483154e-01</leafValues></_>
        <_>
          <internalNodes>
            0 -1 16 -246203705 -1911389439 316528 -2141484512 207702342
            9445376 -1761271788 1195614400</internalNodes>
          <leafValues>
            -7.3869824409484863e-01 3.4280323982238770e-01</leafValues></_>
        <_>
          <internalNodes>
            0 -1 123 1375749908 -397274656 1085440 200409284 -401538022
            1698234659 86188436 -690578485</internalNodes>
          <leafValues>
            -6.4188235998153687e-01 3.7390363216400146e-01</leafValues></_>
        <_>
          <internalNodes>
            0 -1 281 -1566127203 -2143051516 50335744 -1299947519
            -2139045845 536903713 285212683 -1272257725</internalNodes>
          <leafValues>
            -4.7160238027572632e-01 5.0492912530899048e-01</leafValues></_></weakClassifiers></_>
    <!-- stage 14 -->
    <_>
      <maxWeakCount>12</maxWeakCount>
      <stageThreshold>-1.7081184685230255e-01</stageThreshold>
      <weakClassifiers>
        <_>
          <internalNodes>
            0 -1 111 893114267 11202234 1794133241 1492843507 1568116190
            -1465698351 76242423 1351830254</internalNodes>
          <leafValues>
            -3.7987679243087769e-01 5.2560645341873169e-01</leafValues></_>
        <_>
          <internalNodes>
            0 -1 15 -92308533 2147483389 -16942089 -506527763 -555942290
            2013126653 -287244972 -853552015</internalNodes>
          <leafValues>
            -3.0038204789161682e-01 5.7928586006164551e-01</leafValues></_>
        <_>
          <internalNodes>
            0 -1 188 1509029363 -555390171 -1409499137 -1279435515
            -1199554663 -21274625 -1694771278 -838215854</internalNodes>
          <leafValues>
            -2.7452331781387329e-01 6.6633391380310059e-01</leafValues></_>
        <_>
          <internalNodes>
            0 -1 191 419468752 1126187264 -1878949636 1464901778
            -2142666078 164811776 1528899612 2000341311</internalNodes>
          <leafValues>
            -5.5109196901321411e-01 3.7629950046539307e-01</leafValues></_>
        <_>
          <internalNodes>
            0 -1 177 580330608 587403281 134234211 830558600 -100196062
            738329097 2063598600 2131882907</internalNodes>
          <leafValues>
            -5.5405730009078979e-01 4.0879160165786743e-01</leafValues></_>
        <_>
          <internalNodes>
            0 -1 9 -1228420257 1493422082 -266010622 25395214 8454921
            1619755010 1086457863 -78695711</internalNodes>
          <leafValues>
            -4.7966802120208740e-01 4.6594527363777161e-01</leafValues></_>
        <_>
          <internalNodes>
            0 -1 77 -734263922 324081808 1207963653 -468530286
            1628512266 -100522846 -973062065 -723801726</internalNodes>
          <leafValues>
            -5.2162098884582520e-01 3.9572361111640930e-01</leafValues></_>
        <_>
          <internalNodes>
            0 -1 211 -536889804 2071819876 -134254865 544947903
            -352488176 1861613358 2147023643 -84099579</internalNodes>
          <leafValues>
            -4.3553707003593445e-01 4.8471871018409729e-01</leafValues></_>
        <_>
          <internalNodes>
            0 -1 255 123208921 -687533735 -914095823 -443203518 2257
            475037867 -1727487601 443290954</internalNodes>
          <leafValues>
            -5.9375482797622681e-01 3.8348072767257690e-01</leafValues></_>
        <_>
          <internalNodes>
            0 -1 171 -701510945 -51382543 -218465507 -597590024
            284331726 -125894853 1985970014 -185477226</internalNodes>
          <leafValues>
            -3.4822431206703186e-01 6.9791847467422485e-01</leafValues></_>
        <_>
          <internalNodes>
            0 -1 32 1768554588 -380042941 18023582 -854965936 1075896590
            638320699 1074266762 1099563017</internalNodes>
          <leafValues>
            -6.5435504913330078e-01 4.0334141254425049e-01</leafValues></_>
        <_>
          <internalNodes>
            0 -1 237 1614566815 453050625 -788489819 -661553072
            134404613 -1710686055 -1608476438 1893239776</internalNodes>
          <leafValues>
            -5.8694231510162354e-01 3.8710898160934448e-01</leafValues></_></weakClassifiers></_>
    <!-- stage 15 -->
    <_>
      <maxWeakCount>12</maxWeakCount>
      <stageThreshold>-2.5897160172462463e-01</stageThreshold>
      <weakClassifiers>
        <_>
          <internalNodes>
            0 -1 193 1075152645 -902755640 1567094607 -1363154075
            1731696511 -1476919425 -80224258 1647813487</internalNodes>
          <leafValues>
            -2.5705328583717346e-01 5.8627855777740479e-01</leafValues></_>
        <_>
          <internalNodes>
            0 -1 12 -583047925 -1073746191 -16409 -1094762628 -403253849
            -12 1585047473 -674763548</internalNodes>
          <leafValues>
            -3.1105756759643555e-01 5.8718669414520264e-01</leafValues></_>
        <_>
          <internalNodes>
            0 -1 174 1430758734 1879353352 1245726729 420586115
            134266881 16916706 32898 -332760679</internalNodes>
          <leafValues>
            -5.1736599206924438e-01 3.7633654475212097e-01</leafValues></_>
        <_>
          <internalNodes>
            0 -1 107 -1912412286 -988807164 -2059001855 1497367232
            -1961191155 -1139933056 1266928393 486999040</internalNodes>
          <leafValues>
            -6.2169617414474487e-01 3.4476131200790405e-01</leafValues></_>
        <_>
          <internalNodes>
            0 -1 163 2112869627 -344883321 -872591977 1924784101
            -1300970305 -1199761409 2129047455 -226153549</internalNodes>
          <leafValues>
            -3.5727900266647339e-01 6.9423109292984009e-01</leafValues></_>
        <_>
          <internalNodes>
            0 -1 40 1236140257 556761225 524309 -241680208 -1073214983
            -1701707639 1252262114 3162912</internalNodes>
          <leafValues>
            -6.9985175132751465e-01 3.5784280300140381e-01</leafValues></_>
        <_>
          <internalNodes>
            0 -1 216 -2092112524 -985167615 -2138800048 -1828681725
            -229438071 33948032 171969239 1876829593</internalNodes>
          <leafValues>
            -5.6485241651535034e-01 3.8051018118858337e-01</leafValues></_>
        <_>
          <internalNodes>
            0 -1 269 -246810337 223664464 102555 5791769 553828352
            573079681 -669200374 1405289096</internalNodes>
          <leafValues>
            -5.9664416313171387e-01 3.6897456645965576e-01</leafValues></_>
        <_>
          <internalNodes>
            0 -1 225 -1845115907 -1820177766 1257910271 825629631
            -1962951201 -268992513 1069530870 -1658619015</internalNodes>
          <leafValues>
            -4.0235829353332520e-01 6.1328786611557007e-01</leafValues></_>
        <_>
          <internalNodes>
            0 -1 154 -930856919 1360108020 268452304 269033488
            -1000332904 -1458370528 -528449021 478261379</internalNodes>
          <leafValues>
            -6.0204571485519409e-01 3.7790900468826294e-01</leafValues></_>
        <_>
          <internalNodes>
            0 -1 125 -957476540 838866081 -587182064 1158222018
            1484947466 -2076098503 806009044 403114053</internalNodes>
          <leafValues>
            -6.4899575710296631e-01 3.6561840772628784e-01</leafValues></_>
        <_>
          <internalNodes>
            0 -1 66 1543478653 -1327271938 586882649 1018656486
            -1015546370 1954504557 502737019 -250481930</internalNodes>
          <leafValues>
            -3.5193923115730286e-01 6.9301551580429077e-01</leafValues></_></weakClassifiers></_>
    <!-- stage 16 -->
    <_>
      <maxWeakCount>14</maxWeakCount>
      <stageThreshold>-7.7383917570114136e-01</stageThreshold>
      <weakClassifiers>
        <_>
          <internalNodes>
            0 -1 10 2137355526 -77168781 -1073752195 -847282377
            357761041 536246143 1433847287 -710261379</internalNodes>
          <leafValues>
            -3.0188679695129395e-01 5.2336448431015015e-01</leafValues></_>
        <_>
          <internalNodes>
            0 -1 106 578958832 -649666352 287359027 1465290880
            -888559111 -1937223166 402768555 155783329</internalNodes>
          <leafValues>
            -5.3747874498367310e-01 3.4781089425086975e-01</leafValues></_>
        <_>
          <internalNodes>
            0 -1 271 -34472881 -2099007733 -8913205 -798621857 788496088
            1324679039 -967054364 -265551989</internalNodes>
          <leafValues>
            -3.3893966674804688e-01 5.6229645013809204e-01</leafValues></_>
        <_>
          <internalNodes>
            0 -1 223 344392248 1897937174 -497766130 810709381 329206016
            1753993480 25446094 2069817902</internalNodes>
          <leafValues>
            -5.4994398355484009e-01 3.4760558605194092e-01</leafValues></_>
        <_>
          <internalNodes>
            0 -1 170 -374636345 -411136580 -5243009 -1646272513
            -1138556993 -681107457 -1659158529 -1945156097</internalNodes>
          <leafValues>
            -4.2710620164871216e-01 5.0683993101119995e-01</leafValues></_>
        <_>
          <internalNodes>
            0 -1 73 -1013773174 -1844686824 134238840 -714042222
            16829160 1897725956 269107298 -156085086</internalNodes>
          <leafValues>
            -5.1357072591781616e-01 4.0982148051261902e-01</leafValues></_>
        <_>
          <internalNodes>
            0 -1 28 -905975165 1126989738 2130575190 104857503
            2007463426 794812287 -159914121 -1050208545</internalNodes>
          <leafValues>
            -4.4869604706764221e-01 5.0606685876846313e-01</leafValues></_>
        <_>
          <internalNodes>
            0 -1 205 -1464863971 -2028933040 21172500 -1256947319
            -1584684824 -54132722 3178632 948157870</internalNodes>
          <leafValues>
            -5.5939710140228271e-01 4.0524756908416748e-01</leafValues></_>
        <_>
          <internalNodes>
            0 -1 52 1740051651 1069318063 -302056732 1047669304
            1794977896 -679530657 -33562518 -588159930</internalNodes>
          <leafValues>
            -4.3705615401268005e-01 5.2155220508575439e-01</leafValues></_>
        <_>
          <internalNodes>
            0 -1 259 -1254228314 -1553044511 -1084235978 -570741000
            679157336 1324678136 -1745347310 -1078638709</internalNodes>
          <leafValues>
            -4.6111947298049927e-01 4.9756157398223877e-01</leafValues></_>
        <_>
          <internalNodes>
            0 -1 139 -406379105 -595009440 100749391 -400486376 9048088
            134382123 42582544 2106128956</internalNodes>
          <leafValues>
            -4.8776736855506897e-01 4.5449280738830566e-01</leafValues></_>
        <_>
          <internalNodes>
            0 -1 180 -1205646241 -856902149 -245765 -1115842955
            868212223 -20971522 -1221345281 -290294798</internalNodes>
          <leafValues>
            -3.4223499894142151e-01 6.4911192655563354e-01</leafValues></_>
        <_>
          <internalNodes>
            0 -1 197 -1718550960 1953898708 286429509 287571977
            639640280 -124386648 1753508249 1254211715</internalNodes>
          <leafValues>
            -5.4395383596420288e-01 4.4046795368194580e-01</leafValues></_>
        <_>
          <internalNodes>
            0 -1 113 -1828653125 516206361 -290457642 -252395549
            -251789188 -1645740033 1023369215 -866912449</internalNodes>
          <leafValues>
            -4.0792435407638550e-01 5.4887092113494873e-01</leafValues></_></weakClassifiers></_>
    <!-- stage 17 -->
    <_>
      <maxWeakCount>13</maxWeakCount>
      <stageThreshold>-4.4766777753829956e-01</stageThreshold>
      <weakClassifiers>
        <_>
          <internalNodes>
            0 -1 132 -1360360016 -281066506 2146957286 -134259344
            -269027525 -1296056712 -1922132395 1093615616</internalNodes>
          <leafValues>
            -3.7444934248924255e-01 4.9738219380378723e-01</leafValues></_>
        <_>
          <internalNodes>
            0 -1 4 -810194320 -236752986 -16779778 1978263270 -285212952
            -1359415561 -18795052 -259758320</internalNodes>
          <leafValues>
            -3.7141284346580505e-01 4.7263500094413757e-01</leafValues></_>
        <_>
          <internalNodes>
            0 -1 238 -360456481 -80512475 -1099019523 -1658286180
            1320782591 -67190785 767458047 -340803409</internalNodes>
          <leafValues>
            -2.8922650218009949e-01 6.1337399482727051e-01</leafValues></_>
        <_>
          <internalNodes>
            0 -1 100 1828517615 -650160520 1845387053 -545817925
            -100714685 -1900644739 -1879624534 -1108364545</internalNodes>
          <leafValues>
            -3.1724852323532104e-01 6.5276819467544556e-01</leafValues></_>
        <_>
          <internalNodes>
            0 -1 92 26808456 1619103832 71681 -907345782 1115760170
            -934543285 2055570069 2087715600</internalNodes>
          <leafValues>
            -6.5737181901931763e-01 3.3018067479133606e-01</leafValues></_>
        <_>
          <internalNodes>
            0 -1 279 70375131 -857559658 -1879140839 10516406
            -1638402212 82706302 -704661611 -806750533</internalNodes>
          <leafValues>
            -3.7144425511360168e-01 5.4407268762588501e-01</leafValues></_>
        <_>
          <internalNodes>
            0 -1 242 423946746 -2126495600 270598360 -117338104 19104392
            50360338 570454040 953149562</internalNodes>
          <leafValues>
            -5.2701246738433838e-01 3.8437038660049438e-01</leafValues></_>
        <_>
          <internalNodes>
            0 -1 23 1883361282 -872349692 -1878998650 -922711487
            33816832 -1685553152 -1560197177 187498501</internalNodes>
          <leafValues>
            -7.3320370912551880e-01 3.0228158831596375e-01</leafValues></_>
        <_>
          <internalNodes>
            0 -1 102 67208996 -779317904 1359007744 1275072576
            -911920351 -787939072 41996288 -489993461</internalNodes>
          <leafValues>
            -6.7271602153778076e-01 3.1066244840621948e-01</leafValues></_>
        <_>
          <internalNodes>
            0 -1 135 1947204503 -106404004 -1879613514 2121100660
            -278372713 -1263084205 2074409439 -1629132812</internalNodes>
          <leafValues>
            -2.9700016975402832e-01 7.5997787714004517e-01</leafValues></_>
        <_>
          <internalNodes>
            0 -1 138 -691101534 689094666 1174425665 -1693401088
            -1575839734 1627553953 67879170 1806426760</internalNodes>
          <leafValues>
            -5.1997804641723633e-01 4.3537211418151855e-01</leafValues></_>
        <_>
          <internalNodes>
            0 -1 68 610036863 -352588545 -16385 -301989890 -1895833607
            -1078562817 -147023388 -1892648267</internalNodes>
          <leafValues>
            -4.1013529896736145e-01 5.5584484338760376e-01</leafValues></_>
        <_>
          <internalNodes>
            0 -1 261 699277271 737423092 1740619370 1788981246
            -1476542764 -1410930051 129551614 1639315158</internalNodes>
          <leafValues>
            -4.8387539386749268e-01 5.0544691085815430e-01</leafValues></_></weakClassifiers></_>
    <!-- stage 18 -->
    <_>
      <maxWeakCount>11</maxWeakCount>
      <stageThreshold>-2.8504127264022827e-01</stageThreshold>
      <weakClassifiers>
        <_>
          <internalNodes>
            0 -1 222 -957211400 -260112687 -1103103130 494034772
            -330662214 1724693724 -1049075724 201360448</internalNodes>
          <leafValues>
            -4.1628959774971008e-01 5.0431776046752930e-01</leafValues></_>
        <_>
          <internalNodes>
            0 -1 226 -1574747442 -450646725 -84410450 -215326785
            -1698061 -67141633 -562044929 -1558581425</internalNodes>
          <leafValues>
            -3.5513541102409363e-01 5.8466839790344238e-01</leafValues></_>
        <_>
          <internalNodes>
            0 -1 70 -532462829 1295138810 2139084535 -1658765696
            -1695181807 -1627431561 -2097622573 -1617724677</internalNodes>
          <leafValues>
            -3.6953014135360718e-01 5.4969370365142822e-01</leafValues></_>
        <_>
          <internalNodes>
            0 -1 96 -2147309320 1360102784 268439552 1497634580
            -2046805505 -654145407 6820815 781058241</internalNodes>
          <leafValues>
            -5.4230254888534546e-01 4.0605196356773376e-01</leafValues></_>
        <_>
          <internalNodes>
            0 -1 217 -1627536441 -1565868034 -17915912 719994602
            1072889476 -675373194 -281194 -571409153</internalNodes>
          <leafValues>
            -4.1005876660346985e-01 5.9356909990310669e-01</leafValues></_>
        <_>
          <internalNodes>
            0 -1 176 1016575483 460029740 -1073905793 897070074
            -2017606859 267335679 268111350 -1543545183</internalNodes>
          <leafValues>
            -4.2192116379737854e-01 5.8721941709518433e-01</leafValues></_>
        <_>
          <internalNodes>
            0 -1 278 -1894781106 -1073779331 -4259841 1841085950 -532674
            -1114121 2147309567 -181740061</internalNodes>
          <leafValues>
            -3.7383177876472473e-01 6.2128710746765137e-01</leafValues></_>
        <_>
          <internalNodes>
            0 -1 108 -2078703331 1356058640 268435472 -1748762223
            8978619 -1693810557 1342705939 421396996</internalNodes>
          <leafValues>
            -5.6829267740249634e-01 4.6130308508872986e-01</leafValues></_>
        <_>
          <internalNodes>
            0 -1 63 402883640 1292407057 -1005467429 268441618
            -1987917771 -1744694776 680089656 -1056102391</internalNodes>
          <leafValues>
            -5.2892482280731201e-01 4.7267961502075195e-01</leafValues></_>
        <_>
          <internalNodes>
            0 -1 156 -1874341564 -360316925 -242212779 -2052421612 18823
            12582912 1350765324 -255295462</internalNodes>
          <leafValues>
            -4.7706589102745056e-01 5.2279186248779297e-01</leafValues></_>
        <_>
          <internalNodes>
            0 -1 150 2119666861 254050440 16960 -1713864168 49288
            1350578192 939524296 -1758953247</internalNodes>
          <leafValues>
            -5.5330580472946167e-01 4.7525039315223694e-01</leafValues></_></weakClassifiers></_>
    <!-- stage 19 -->
    <_>
      <maxWeakCount>13</maxWeakCount>
      <stageThreshold>-6.0206508636474609e-01</stageThreshold>
      <weakClassifiers>
        <_>
          <internalNodes>
            0 -1 263 -810399740 -25440745 -369205505 941897499
            2113828574 786169457 457658 1614809099</internalNodes>
          <leafValues>
            -4.3851506710052490e-01 5.0384944677352905e-01</leafValues></_>
        <_>
          <internalNodes>
            0 -1 37 -345512201 -945115287 2130374270 989363966
            1618947348 11960189 931051258 2146926483</internalNodes>
          <leafValues>
            -4.0388485789299011e-01 4.8591542243957520e-01</leafValues></_>
        <_>
          <internalNodes>
            0 -1 268 1104007679 1086098439 -67174401 -265267297
            -2017492997 -373325833 -658980874 -1355565067</internalNodes>
          <leafValues>
            -3.5796406865119934e-01 5.5607205629348755e-01</leafValues></_>
        <_>
          <internalNodes>
            0 -1 105 268439988 -1757413231 33929 -1789616125 -1995814766
            -310308721 -1356322599 403747008</internalNodes>
          <leafValues>
            -5.6166523694992065e-01 4.0866011381149292e-01</leafValues></_>
        <_>
          <internalNodes>
            0 -1 117 -1971141889 1768635630 1056582322 979974586
            661687527 1798995319 -88232737 -2232867</internalNodes>
          <leafValues>
            -3.5609954595565796e-01 6.8288636207580566e-01</leafValues></_>
        <_>
          <internalNodes>
            0 -1 252 -586343918 -1073069055 -2147466239 -737148927
            -1844396026 1619460096 -1065246720 730482243</internalNodes>
          <leafValues>
            -5.9325176477432251e-01 3.9649242162704468e-01</leafValues></_>
        <_>
          <internalNodes>
            0 -1 178 -1076467527 1820332165 1090654280 1427658515
            943965276 1294475523 -2067099378 492988810</internalNodes>
          <leafValues>
            -5.2229064702987671e-01 4.2136651277542114e-01</leafValues></_>
        <_>
          <internalNodes>
            0 -1 129 -128753615 810637597 1010794359 -1740867609
            991577609 -671090884 -763633730 -1420535183</internalNodes>
          <leafValues>
            -4.5353126525878906e-01 5.6508427858352661e-01</leafValues></_>
        <_>
          <internalNodes>
            0 -1 199 -266548457 -1023065776 557156 -1734835707
            -2130589696 -1845460607 -2130657280 -984719192</internalNodes>
          <leafValues>
            -3.7385004758834839e-01 6.5196359157562256e-01</leafValues></_>
        <_>
          <internalNodes>
            0 -1 34 -2012055249 1111556736 5 236131409 575342599
            33947659 461471877 1955244423</internalNodes>
          <leafValues>
            -6.2889015674591064e-01 4.0016475319862366e-01</leafValues></_>
        <_>
          <internalNodes>
            0 -1 262 -796480426 -875736569 142678545 591630476
            -1316618037 -1870135295 -1463516661 183158986</internalNodes>
          <leafValues>
            -5.4029273986816406e-01 4.4555991888046265e-01</leafValues></_>
        <_>
          <internalNodes>
            0 -1 38 -2000177443 1075298384 -1518337710 17842218
            -1065283018 1644232704 488971172 -15494470</internalNodes>
          <leafValues>
            -4.6360644698143005e-01 5.2221113443374634e-01</leafValues></_>
        <_>
          <internalNodes>
            0 -1 69 -1055686514 25494216 1090650113 1346441219 403478217
            671780866 143921159 1971429429</internalNodes>
          <leafValues>
            -6.5420323610305786e-01 3.9700034260749817e-01</leafValues></_></weakClassifiers></_>
    <!-- stage 20 -->
    <_>
      <maxWeakCount>12</maxWeakCount>
      <stageThreshold>-5.1605975627899170e-01</stageThreshold>
      <weakClassifiers>
        <_>
          <internalNodes>
            0 -1 277 -407899306 -1498748154 -1090622735 6549222
            536632860 15089532 -629253644 1486356219</internalNodes>
          <leafValues>
            -3.2252252101898193e-01 5.5406695604324341e-01</leafValues></_>
        <_>
          <internalNodes>
            0 -1 19 -595962081 -1094781457 1862203257 922615653
            375695872 -570425481 -822673423 -597092911</internalNodes>
          <leafValues>
            -4.0969124436378479e-01 4.8074218630790710e-01</leafValues></_>
        <_>
          <internalNodes>
            0 -1 144 1463475227 -1146524944 283246099 -1139157743
            -58225466 -101267563 -1102039050 -1207641473</internalNodes>
          <leafValues>
            -2.9481324553489685e-01 7.0924228429794312e-01</leafValues></_>
        <_>
          <internalNodes>
            0 -1 169 386138485 316342273 16787511 134220162 1510068384
            771760640 -1701279606 2017750092</internalNodes>
          <leafValues>
            -6.6012424230575562e-01 3.3174717426300049e-01</leafValues></_>
        <_>
          <internalNodes>
            0 -1 25 -1067596405 1124500097 209 -532152302 1744830464
            1090551832 -1585371614 -802459071</internalNodes>
          <leafValues>
            -4.3611410260200500e-01 5.2193778753280640e-01</leafValues></_>
        <_>
          <internalNodes>
            0 -1 158 -1945844746 -268309360 -1878878184 1400963106
            1837797601 956432512 856232079 1186653699</internalNodes>
          <leafValues>
            -5.4308456182479858e-01 4.6821290254592896e-01</leafValues></_>
        <_>
          <internalNodes>
            0 -1 192 1194689333 -1476460611 805207768 2045813499
            1040020600 -555745313 2139003863 -1677724171</internalNodes>
          <leafValues>
            -3.6828687787055969e-01 6.7325496673583984e-01</leafValues></_>
        <_>
          <internalNodes>
            0 -1 122 1880679937 -620756720 1610637493 688996424
            -1425931582 -1423931390 1695582914 1502360209</internalNodes>
          <leafValues>
            -5.4477721452713013e-01 4.6314349770545959e-01</leafValues></_>
        <_>
          <internalNodes>
            0 -1 282 -822352833 -1943128850 -360862234 1350434105
            -2030758292 1249148660 1056421043 -911043591</internalNodes>
          <leafValues>
            -4.8817825317382812e-01 5.6300371885299683e-01</leafValues></_>
        <_>
          <internalNodes>
            0 -1 194 -1592983290 -212170656 -2146434550 -2105343743
            -973077942 2064777346 35512 2047519003</internalNodes>
          <leafValues>
            -5.9006273746490479e-01 4.3985745310783386e-01</leafValues></_>
        <_>
          <internalNodes>
            0 -1 208 -1355573123 -811601923 -17305673 -770380331
            1046592935 -1430635532 -564863178 -936328145</internalNodes>
          <leafValues>
            -3.9251112937927246e-01 7.0631211996078491e-01</leafValues></_>
        <_>
          <internalNodes>
            0 -1 48 -484779618 -1440439518 -21004353 -416286865
            1211061269 -9046149 -1040352045 -27795585</internalNodes>
          <leafValues>
            -3.9893209934234619e-01 6.2442779541015625e-01</leafValues></_></weakClassifiers></_>
    <!-- stage 21 -->
    <_>
      <maxWeakCount>10</maxWeakCount>
      <stageThreshold>-1.6229403018951416e-01</stageThreshold>
      <weakClassifiers>
        <_>
          <internalNodes>
            0 -1 65 571135455 -2719767 935294842 712576625 -1535885292
            -12634767 -1082221194 199202655</internalNodes>
          <leafValues>
            -2.6190477609634399e-01 6.2068963050842285e-01</leafValues></_>
        <_>
          <internalNodes>
            0 -1 99 1619219578 -733966071 134356280 -637294592
            -1038040374 1744961545 -481113359 109414456</internalNodes>
          <leafValues>
            -4.9338042736053467e-01 4.9504885077476501e-01</leafValues></_>
        <_>
          <internalNodes>
            0 -1 202 -502115595 542461136 150995333 -939227887
            1107858057 -1736408567 -922738286 2083028995</internalNodes>
          <leafValues>
            -5.1570922136306763e-01 4.3971401453018188e-01</leafValues></_>
        <_>
          <internalNodes>
            0 -1 231 -1827993306 -1355705088 69206168 33555017
            1779020629 319162888 159685320 554670345</internalNodes>
          <leafValues>
            -6.2411594390869141e-01 3.5308814048767090e-01</leafValues></_>
        <_>
          <internalNodes>
            0 -1 128 -694596145 -444056645 1979538943 -925007873
            -2108964389 -1615896873 -1434451977 -1617701617</internalNodes>
          <leafValues>
            -3.5858723521232605e-01 6.6840589046478271e-01</leafValues></_>
        <_>
          <internalNodes>
            0 -1 214 -1072784423 842031244 -2147350399 -1507523999
            -1877981040 -935198720 1098912968 1918321290</internalNodes>
          <leafValues>
            -6.2026584148406982e-01 4.0113401412963867e-01</leafValues></_>
        <_>
          <internalNodes>
            0 -1 55 -670980529 16777226 151036566 -2122317816 1275594903
            805873805 1283459138 2020573333</internalNodes>
          <leafValues>
            -6.1734443902969360e-01 4.0092700719833374e-01</leafValues></_>
        <_>
          <internalNodes>
            0 -1 152 220410569 1304076817 -92345347 -964790425
            -1302969123 -604561441 931102710 -803774630</internalNodes>
          <leafValues>
            -4.0255150198936462e-01 6.2591767311096191e-01</leafValues></_>
        <_>
          <internalNodes>
            0 -1 272 484951557 -1584234335 1099239680 470941705 18242
            -2122252279 -1048440831 -242301365</internalNodes>
          <leafValues>
            -4.4229972362518311e-01 5.7161504030227661e-01</leafValues></_>
        <_>
          <internalNodes>
            0 -1 232 1484919442 1879228736 -1342177194 -1840328415
            25389600 -2122249712 50858050 1292640464</internalNodes>
          <leafValues>
            -6.4370071887969971e-01 3.7363454699516296e-01</leafValues></_></weakClassifiers></_>
    <!-- stage 22 -->
    <_>
      <maxWeakCount>11</maxWeakCount>
      <stageThreshold>-6.6033750772476196e-01</stageThreshold>
      <weakClassifiers>
        <_>
          <internalNodes>
            0 -1 101 290260492 50798848 -2139061231 1778417666 564841090
            1258760336 567424 1537345624</internalNodes>
          <leafValues>
            -6.0000002384185791e-01 4.6666666865348816e-01</leafValues></_>
        <_>
          <internalNodes>
            0 -1 212 1118755724 1964460584 2146402303 -433461750
            -151126017 -1585971345 -276824073 -214964744</internalNodes>
          <leafValues>
            -3.8844650983810425e-01 5.4931956529617310e-01</leafValues></_>
        <_>
          <internalNodes>
            0 -1 230 -909930926 -867859446 -2143664101 -1534737911
            -904657612 -645201916 1089377162 1904431176</internalNodes>
          <leafValues>
            -4.6254131197929382e-01 4.5602673292160034e-01</leafValues></_>
        <_>
          <internalNodes>
            0 -1 124 311612916 -226488320 554246290 286372112
            -1962913266 721444993 -526382619 422118057</internalNodes>
          <leafValues>
            -6.0052633285522461e-01 3.8361519575119019e-01</leafValues></_>
        <_>
          <internalNodes>
            0 -1 118 -1801895203 -1297960757 805388291 2044018699
            -791605206 -759537528 1207959582 1233780740</internalNodes>
          <leafValues>
            -5.1803219318389893e-01 4.3950644135475159e-01</leafValues></_>
        <_>
          <internalNodes>
            0 -1 104 800706463 -1094907744 -1615888898 -1711587353
            -871380942 -84584587 521109070 -1982220333</internalNodes>
          <leafValues>
            -3.7548124790191650e-01 7.0662921667098999e-01</leafValues></_>
        <_>
          <internalNodes>
            0 -1 98 -390511745 451575759 -1343225995 1466249146
            -21742551 1047952767 1575386680 -906166384</internalNodes>
          <leafValues>
            -4.3835848569869995e-01 5.4815441370010376e-01</leafValues></_>
        <_>
          <internalNodes>
            0 -1 64 -1530302366 406946048 335724944 302588032 194021509
            -2147483519 1610664066 939665442</internalNodes>
          <leafValues>
            -6.6094130277633667e-01 4.0642386674880981e-01</leafValues></_>
        <_>
          <internalNodes>
            0 -1 206 -903216931 -1567963746 16390 -371912559 67223553
            -871071608 33622185 -1420853248</internalNodes>
          <leafValues>
            -4.8088181018829346e-01 5.5014425516128540e-01</leafValues></_>
        <_>
          <internalNodes>
            0 -1 162 1065906448 -648248951 -2122037731 872755270
            -926777264 -892796910 -1996447062 1061552129</internalNodes>
          <leafValues>
            -6.4783447980880737e-01 4.2848503589630127e-01</leafValues></_>
        <_>
          <internalNodes>
            0 -1 134 -1445613068 1081708673 -803164008 -1592704937
            1158056004 170000392 285737112 1989346049</internalNodes>
          <leafValues>
            -5.7395631074905396e-01 4.7359341382980347e-01</leafValues></_></weakClassifiers></_>
    <!-- stage 23 -->
    <_>
      <maxWeakCount>13</maxWeakCount>
      <stageThreshold>-4.4232627749443054e-01</stageThreshold>
      <weakClassifiers>
        <_>
          <internalNodes>
            0 -1 147 -1896337628 1862151212 805187318 1530183549
            -1024057459 327108479 16713471 247018757</internalNodes>
          <leafValues>
            -3.9877301454544067e-01 5.3555357456207275e-01</leafValues></_>
        <_>
          <internalNodes>
            0 -1 103 -356531561 1385468583 -1112588289 1107253246
            -584723560 -537455113 -2020786273 -520005921</internalNodes>
          <leafValues>
            -3.1597495079040527e-01 6.6948205232620239e-01</leafValues></_>
        <_>
          <internalNodes>
            0 -1 62 51904528 -783253346 1158765594 97536644 22086537
            1208090636 1082774158 59523074</internalNodes>
          <leafValues>
            -6.3240438699722290e-01 3.7310683727264404e-01</leafValues></_>
        <_>
          <internalNodes>
            0 -1 39 1075396719 1560308736 268501146 150995016 -975634422
            4395016 -721244022 881740365</internalNodes>
          <leafValues>
            -5.5467337369918823e-01 3.8622015714645386e-01</leafValues></_>
        <_>
          <internalNodes>
            0 -1 84 -450916333 83820222 738172799 1870540528 -1652585364
            -402696803 -1821566985 -275130537</internalNodes>
          <leafValues>
            -4.4131341576576233e-01 6.3196641206741333e-01</leafValues></_>
        <_>
          <internalNodes>
            0 -1 80 541131456 -591290107 4227072 1090535426 201971999
            -1576533872 -1954545527 -399343480</internalNodes>
          <leafValues>
            -6.4188599586486816e-01 4.2567381262779236e-01</leafValues></_>
        <_>
          <internalNodes>
            0 -1 95 4272 1929429420 -2097069887 -1929296830 33916946
            -1199505014 25737123 127730561</internalNodes>
          <leafValues>
            -6.8453794717788696e-01 4.0038087964057922e-01</leafValues></_>
        <_>
          <internalNodes>
            0 -1 184 -535706273 -1028970627 1534787455 -282066946
            -1506017420 1610477567 -407371905 -1573313674</internalNodes>
          <leafValues>
            -4.1671693325042725e-01 6.7331290245056152e-01</leafValues></_>
        <_>
          <internalNodes>
            0 -1 254 34058367 131350 1091653632 1766552007 9830607
            1224736776 -2079326206 319283712</internalNodes>
          <leafValues>
            -5.9039282798767090e-01 4.5768332481384277e-01</leafValues></_>
        <_>
          <internalNodes>
            0 -1 146 -1245020353 1311177314 2013162429 -2001535878
            -1107380472 -1628348841 1467930110 -614422277</internalNodes>
          <leafValues>
            -3.8292124867439270e-01 6.9482165575027466e-01</leafValues></_>
        <_>
          <internalNodes>
            0 -1 21 -377550129 1744190463 661285411 -1829045002
            1068571466 -2055209091 532535260 -44574925</internalNodes>
          <leafValues>
            -3.3617359399795532e-01 7.5100886821746826e-01</leafValues></_>
        <_>
          <internalNodes>
            0 -1 136 -939437408 428900736 420074578 -1341054957
            -2013128568 -2087677808 -1945613637 1074482816</internalNodes>
          <leafValues>
            -6.2947899103164673e-01 4.4267073273658752e-01</leafValues></_>
        <_>
          <internalNodes>
            0 -1 220 -801586859 -1822742298 1407123390 -186049263
            2011168767 -13107201 -75513921 -1354694913</internalNodes>
          <leafValues>
            -4.1852653026580811e-01 6.7058640718460083e-01</leafValues></_></weakClassifiers></_>
    <!-- stage 24 -->
    <_>
      <maxWeakCount>11</maxWeakCount>
      <stageThreshold>-2.5299707055091858e-01</stageThreshold>
      <weakClassifiers>
        <_>
          <internalNodes>
            0 -1 257 -253869564 1476244315 -35075 -1150910893 -37816154
            -1946210818 -25247750 537024082</internalNodes>
          <leafValues>
            -4.0880504250526428e-01 5.2983081340789795e-01</leafValues></_>
        <_>
          <internalNodes>
            0 -1 8 2139060435 775913468 2130688507 -1627423368 259365942
            -8394881 2146801014 -153690828</internalNodes>
          <leafValues>
            -3.6158320307731628e-01 5.9571659564971924e-01</leafValues></_>
        <_>
          <internalNodes>
            0 -1 253 39056741 -2147467256 -1878982656 839024643 18384902
            -1593556798 -2146959360 -1416966327</internalNodes>
          <leafValues>
            -4.9619555473327637e-01 4.6174097061157227e-01</leafValues></_>
        <_>
          <internalNodes>
            0 -1 89 -1874700414 -719568256 755105822 1690320905
            671457155 -1291810808 1101140121 1711456296</internalNodes>
          <leafValues>
            -6.0284411907196045e-01 3.7618944048881531e-01</leafValues></_>
        <_>
          <internalNodes>
            0 -1 221 -933609382 839934081 -2147418089 -1695743999
            -2013063780 -1686108152 -1467973120 1746309760</internalNodes>
          <leafValues>
            -6.3035827875137329e-01 3.6826565861701965e-01</leafValues></_>
        <_>
          <internalNodes>
            0 -1 97 -1179928421 720319584 -151815 296940661 -1298016437
            -554180748 -10004683 -67736555</internalNodes>
          <leafValues>
            -3.3580100536346436e-01 7.6848679780960083e-01</leafValues></_>
        <_>
          <internalNodes>
            0 -1 265 -598138879 -1660911600 1073741851 873824272
            -2147342848 -1206910848 -1475690488 1779026201</internalNodes>
          <leafValues>
            -6.0728782415390015e-01 4.0754491090774536e-01</leafValues></_>
        <_>
          <internalNodes>
            0 -1 42 -12783877 782680042 -268451938 -1879244832
            -1216401431 1442185086 2094882608 -35655581</internalNodes>
          <leafValues>
            -3.7361368536949158e-01 7.2810846567153931e-01</leafValues></_>
        <_>
          <internalNodes>
            0 -1 60 -293766049 1828355832 1022867897 -1501790993
            1976963884 -1770553345 -555436233 -1376258242</internalNodes>
          <leafValues>
            -4.0230420231819153e-01 6.2647235393524170e-01</leafValues></_>
        <_>
          <internalNodes>
            0 -1 71 1722897114 -474218415 -1367380993 -637540481
            -1928579730 -1042851845 650575743 -2008379642</internalNodes>
          <leafValues>
            -3.6432719230651855e-01 7.2075945138931274e-01</leafValues></_>
        <_>
          <internalNodes>
            0 -1 260 -2112094192 1814065479 385 -847043003 -2147450280
            1686634496 -1064787776 310751907</internalNodes>
          <leafValues>
            -5.8845543861389160e-01 4.8211884498596191e-01</leafValues></_></weakClassifiers></_></stages>
  <features>
    <_>
      <rect>
        0 0 7 32</rect></_>
    <_>
      <rect>
        0 0 9 29</rect></_>
    <_>
      <rect>
        0 0 12 12</rect></_>
    <_>
      <rect>
        0 1 3 32</rect></_>
    <_>
      <rect>
        0 1 13 3</rect></_>
    <_>
      <rect>
        0 3 11 18</rect></_>
    <_>
      <rect>
        0 8 10 6</rect></_>
    <_>
      <rect>
        0 12 14 29</rect></_>
    <_>
      <rect>
        0 20 4 18</rect></_>
    <_>
      <rect>
        0 30 4 5</rect></_>
    <_>
      <rect>
        0 30 7 15</rect></_>
    <_>
      <rect>
        0 30 16 17</rect></_>
    <_>
      <rect>
        0 31 2 15</rect></_>
    <_>
      <rect>
        0 31 13 16</rect></_>
    <_>
      <rect>
        0 34 7 17</rect></_>
    <_>
      <rect>
        0 36 1 12</rect></_>
    <_>
      <rect>
        0 36 2 2</rect></_>
    <_>
      <rect>
        0 38 12 8</rect></_>
    <_>
      <rect>
        0 39 3 8</rect></_>
    <_>
      <rect>
        0 39 3 11</rect></_>
    <_>
      <rect>
        0 43 1 2</rect></_>
    <_>
      <rect>
        0 43 2 4</rect></_>
    <_>
      <rect>
        0 43 12 4</rect></_>
    <_>
      <rect>
        0 44 7 7</rect></_>
    <_>
      <rect>
        0 45 1 6</rect></_>
    <_>
      <rect>
        0 46 1 1</rect></_>
    <_>
      <rect>
        0 47 14 12</rect></_>
    <_>
      <rect>
        0 49 1 1</rect></_>
    <_>
      <rect>
        0 52 1 1</rect></_>
    <_>
      <rect>
        0 52 2 2</rect></_>
    <_>
      <rect>
        0 52 11 8</rect></_>
    <_>
      <rect>
        0 56 2 2</rect></_>
    <_>
      <rect>
        0 56 11 10</rect></_>
    <_>
      <rect>
        0 57 13 9</rect></_>
    <_>
      <rect>
        0 58 3 2</rect></_>
    <_>
      <rect>
        0 58 4 3</rect></_>
    <_>
      <rect>
        0 58 11 14</rect></_>
    <_>
      <rect>
        0 61 7 9</rect></_>
    <_>
      <rect>
        0 64 3 2</rect></_>
    <_>
      <rect>
        0 66 9 6</rect></_>
    <_>
      <rect>
        1 0 9 10</rect></_>
    <_>
      <rect>
        1 1 15 24</rect></_>
    <_>
      <rect>
        1 21 3 7</rect></_>
    <_>
      <rect>
        1 26 4 6</rect></_>
    <_>
      <rect>
        1 29 16 23</rect></_>
    <_>
      <rect>
        1 30 8 13</rect></_>
    <_>
      <rect>
        1 36 4 3</rect></_>
    <_>
      <rect>
        1 38 14 8</rect></_>
    <_>
      <rect>
        1 44 14 4</rect></_>
    <_>
      <rect>
        1 50 7 5</rect></_>
    <_>
      <rect>
        1 62 7 8</rect></_>
    <_>
      <rect>
        1 64 11 9</rect></_>
    <_>
      <rect>
        1 86 11 4</rect></_>
    <_>
      <rect>
        2 11 5 6</rect></_>
    <_>
      <rect>
        2 14 16 20</rect></_>
    <_>
      <rect>
        2 22 8 6</rect></_>
    <_>
      <rect>
        2 24 16 20</rect></_>
    <_>
      <rect>
        2 27 6 3</rect></_>
    <_>
      <rect>
        2 34 8 11</rect></_>
    <_>
      <rect>
        2 42 16 16</rect></_>
    <_>
      <rect>
        2 63 3 5</rect></_>
    <_>
      <rect>
        2 67 16 7</rect></_>
    <_>
      <rect>
        2 68 13 9</rect></_>
    <_>
      <rect>
        2 69 10 10</rect></_>
    <_>
      <rect>
        2 72 16 8</rect></_>
    <_>
      <rect>
        3 35 10 8</rect></_>
    <_>
      <rect>
        3 63 13 10</rect></_>
    <_>
      <rect>
        3 85 11 5</rect></_>
    <_>
      <rect>
        4 1 6 3</rect></_>
    <_>
      <rect>
        4 17 9 12</rect></_>
    <_>
      <rect>
        4 35 6 11</rect></_>
    <_>
      <rect>
        4 44 12 5</rect></_>
    <_>
      <rect>
        4 54 14 12</rect></_>
    <_>
      <rect>
        4 58 10 4</rect></_>
    <_>
      <rect>
        4 59 8 9</rect></_>
    <_>
      <rect>
        4 72 11 8</rect></_>
    <_>
      <rect>
        5 0 15 5</rect></_>
    <_>
      <rect>
        5 20 13 23</rect></_>
    <_>
      <rect>
        5 43 11 5</rect></_>
    <_>
      <rect>
        5 43 12 4</rect></_>
    <_>
      <rect>
        5 45 14 17</rect></_>
    <_>
      <rect>
        5 55 13 11</rect></_>
    <_>
      <rect>
        6 0 11 17</rect></_>
    <_>
      <rect>
        6 17 9 10</rect></_>
    <_>
      <rect>
        6 29 7 12</rect></_>
    <_>
      <rect>
        6 35 11 8</rect></_>
    <_>
      <rect>
        6 36 8 10</rect></_>
    <_>
      <rect>
        6 40 8 8</rect></_>
    <_>
      <rect>
        6 53 13 6</rect></_>
    <_>
      <rect>
        6 56 12 9</rect></_>
    <_>
      <rect>
        6 57 10 5</rect></_>
    <_>
      <rect>
        6 63 8 12</rect></_>
    <_>
      <rect>
        7 16 11 11</rect></_>
    <_>
      <rect>
        7 27 11 7</rect></_>
    <_>
      <rect>
        7 42 8 7</rect></_>
    <_>
      <rect>
        7 49 4 3</rect></_>
    <_>
      <rect>
        7 51 3 2</rect></_>
    <_>
      <rect>
        7 52 6 3</rect></_>
    <_>
      <rect>
        7 61 5 10</rect></_>
    <_>
      <rect>
        7 62 12 11</rect></_>
    <_>
      <rect>
        7 76 6 8</rect></_>
    <_>
      <rect>
        8 21 13 24</rect></_>
    <_>
      <rect>
        8 29 9 18</rect></_>
    <_>
      <rect>
        8 42 9 8</rect></_>
    <_>
      <rect>
        8 42 10 6</rect></_>
    <_>
      <rect>
        8 48 4 2</rect></_>
    <_>
      <rect>
        8 51 3 3</rect></_>
    <_>
      <rect>
        8 52 3 5</rect></_>
    <_>
      <rect>
        9 10 7 6</rect></_>
    <_>
      <rect>
        9 11 12 28</rect></_>
    <_>
      <rect>
        9 35 6 4</rect></_>
    <_>
      <rect>
        9 35 13 7</rect></_>
    <_>
      <rect>
        9 40 10 4</rect></_>
    <_>
      <rect>
        9 43 11 5</rect></_>
    <_>
      <rect>
        9 47 8 4</rect></_>
    <_>
      <rect>
        9 81 8 6</rect></_>
    <_>
      <rect>
        10 22 12 10</rect></_>
    <_>
      <rect>
        10 26 8 7</rect></_>
    <_>
      <rect>
        10 32 12 9</rect></_>
    <_>
      <rect>
        10 37 7 8</rect></_>
    <_>
      <rect>
        10 47 7 7</rect></_>
    <_>
      <rect>
        10 50 8 7</rect></_>
    <_>
      <rect>
        10 51 6 3</rect></_>
    <_>
      <rect>
        10 62 7 9</rect></_>
    <_>
      <rect>
        10 66 13 11</rect></_>
    <_>
      <rect>
        10 70 12 10</rect></_>
    <_>
      <rect>
        10 91 13 3</rect></_>
    <_>
      <rect>
        11 33 13 16</rect></_>
    <_>
      <rect>
        11 35 11 8</rect></_>
    <_>
      <rect>
        11 36 7 8</rect></_>
    <_>
      <rect>
        11 38 7 6</rect></_>
    <_>
      <rect>
        11 39 8 10</rect></_>
    <_>
      <rect>
        11 52 4 6</rect></_>
    <_>
      <rect>
        11 57 13 11</rect></_>
    <_>
      <rect>
        11 59 7 7</rect></_>
    <_>
      <rect>
        12 45 8 4</rect></_>
    <_>
      <rect>
        12 48 8 2</rect></_>
    <_>
      <rect>
        12 50 5 4</rect></_>
    <_>
      <rect>
        12 57 3 3</rect></_>
    <_>
      <rect>
        12 71 4 5</rect></_>
    <_>
      <rect>
        13 26 8 19</rect></_>
    <_>
      <rect>
        13 41 12 10</rect></_>
    <_>
      <rect>
        13 45 7 3</rect></_>
    <_>
      <rect>
        13 47 10 3</rect></_>
    <_>
      <rect>
        13 49 7 2</rect></_>
    <_>
      <rect>
        13 59 12 9</rect></_>
    <_>
      <rect>
        13 77 7 5</rect></_>
    <_>
      <rect>
        14 17 7 6</rect></_>
    <_>
      <rect>
        14 19 6 7</rect></_>
    <_>
      <rect>
        14 26 9 4</rect></_>
    <_>
      <rect>
        14 30 12 18</rect></_>
    <_>
      <rect>
        14 42 8 3</rect></_>
    <_>
      <rect>
        14 45 10 4</rect></_>
    <_>
      <rect>
        14 48 8 9</rect></_>
    <_>
      <rect>
        14 51 7 3</rect></_>
    <_>
      <rect>
        14 55 12 8</rect></_>
    <_>
      <rect>
        14 58 7 8</rect></_>
    <_>
      <rect>
        14 59 7 11</rect></_>
    <_>
      <rect>
        14 64 10 12</rect></_>
    <_>
      <rect>
        15 31 8 10</rect></_>
    <_>
      <rect>
        15 43 6 7</rect></_>
    <_>
      <rect>
        15 45 9 4</rect></_>
    <_>
      <rect>
        15 46 4 2</rect></_>
    <_>
      <rect>
        15 48 8 3</rect></_>
    <_>
      <rect>
        15 49 4 2</rect></_>
    <_>
      <rect>
        15 54 2 2</rect></_>
    <_>
      <rect>
        15 61 10 7</rect></_>
    <_>
      <rect>
        15 62 10 12</rect></_>
    <_>
      <rect>
        16 0 11 13</rect></_>
    <_>
      <rect>
        16 8 10 7</rect></_>
    <_>
      <rect>
        16 40 6 9</rect></_>
    <_>
      <rect>
        16 46 8 3</rect></_>
    <_>
      <rect>
        16 61 8 13</rect></_>
    <_>
      <rect>
        17 28 11 18</rect></_>
    <_>
      <rect>
        17 28 11 22</rect></_>
    <_>
      <rect>
        17 54 10 8</rect></_>
    <_>
      <rect>
        17 79 7 7</rect></_>
    <_>
      <rect>
        18 22 6 5</rect></_>
    <_>
      <rect>
        18 28 7 6</rect></_>
    <_>
      <rect>
        18 34 9 9</rect></_>
    <_>
      <rect>
        18 38 6 6</rect></_>
    <_>
      <rect>
        18 47 5 2</rect></_>
    <_>
      <rect>
        18 58 7 6</rect></_>
    <_>
      <rect>
        18 72 10 8</rect></_>
    <_>
      <rect>
        19 16 7 22</rect></_>
    <_>
      <rect>
        19 33 9 16</rect></_>
    <_>
      <rect>
        19 41 7 7</rect></_>
    <_>
      <rect>
        19 45 8 5</rect></_>
    <_>
      <rect>
        19 47 7 4</rect></_>
    <_>
      <rect>
        19 53 6 5</rect></_>
    <_>
      <rect>
        19 53 10 6</rect></_>
    <_>
      <rect>
        19 70 10 7</rect></_>
    <_>
      <rect>
        19 70 10 10</rect></_>
    <_>
      <rect>
        20 21 7 21</rect></_>
    <_>
      <rect>
        20 24 7 4</rect></_>
    <_>
      <rect>
        20 31 8 6</rect></_>
    <_>
      <rect>
        20 42 9 6</rect></_>
    <_>
      <rect>
        20 49 4 2</rect></_>
    <_>
      <rect>
        21 23 9 7</rect></_>
    <_>
      <rect>
        21 30 8 16</rect></_>
    <_>
      <rect>
        21 36 9 10</rect></_>
    <_>
      <rect>
        21 47 6 7</rect></_>
    <_>
      <rect>
        21 48 6 2</rect></_>
    <_>
      <rect>
        21 49 7 5</rect></_>
    <_>
      <rect>
        21 56 6 6</rect></_>
    <_>
      <rect>
        22 37 4 4</rect></_>
    <_>
      <rect>
        22 38 8 7</rect></_>
    <_>
      <rect>
        22 48 6 3</rect></_>
    <_>
      <rect>
        22 49 4 3</rect></_>
    <_>
      <rect>
        22 50 4 2</rect></_>
    <_>
      <rect>
        22 63 4 5</rect></_>
    <_>
      <rect>
        23 16 9 7</rect></_>
    <_>
      <rect>
        23 20 9 24</rect></_>
    <_>
      <rect>
        23 36 7 15</rect></_>
    <_>
      <rect>
        23 40 9 7</rect></_>
    <_>
      <rect>
        23 54 9 8</rect></_>
    <_>
      <rect>
        23 60 9 13</rect></_>
    <_>
      <rect>
        23 63 4 8</rect></_>
    <_>
      <rect>
        24 34 6 9</rect></_>
    <_>
      <rect>
        24 38 5 5</rect></_>
    <_>
      <rect>
        24 41 7 8</rect></_>
    <_>
      <rect>
        24 43 6 5</rect></_>
    <_>
      <rect>
        24 49 3 2</rect></_>
    <_>
      <rect>
        25 20 4 7</rect></_>
    <_>
      <rect>
        25 22 8 17</rect></_>
    <_>
      <rect>
        25 40 8 8</rect></_>
    <_>
      <rect>
        25 41 7 11</rect></_>
    <_>
      <rect>
        25 44 3 3</rect></_>
    <_>
      <rect>
        25 50 2 2</rect></_>
    <_>
      <rect>
        25 50 6 4</rect></_>
    <_>
      <rect>
        25 60 2 2</rect></_>
    <_>
      <rect>
        25 60 7 7</rect></_>
    <_>
      <rect>
        25 67 4 6</rect></_>
    <_>
      <rect>
        26 1 8 33</rect></_>
    <_>
      <rect>
        26 32 8 13</rect></_>
    <_>
      <rect>
        26 45 4 2</rect></_>
    <_>
      <rect>
        26 48 3 2</rect></_>
    <_>
      <rect>
        27 4 5 5</rect></_>
    <_>
      <rect>
        27 26 7 15</rect></_>
    <_>
      <rect>
        28 13 6 7</rect></_>
    <_>
      <rect>
        28 25 7 5</rect></_>
    <_>
      <rect>
        28 31 7 14</rect></_>
    <_>
      <rect>
        28 73 7 5</rect></_>
    <_>
      <rect>
        29 0 7 32</rect></_>
    <_>
      <rect>
        29 27 7 16</rect></_>
    <_>
      <rect>
        29 30 7 6</rect></_>
    <_>
      <rect>
        29 50 5 3</rect></_>
    <_>
      <rect>
        29 51 4 5</rect></_>
    <_>
      <rect>
        29 63 5 12</rect></_>
    <_>
      <rect>
        30 24 6 7</rect></_>
    <_>
      <rect>
        30 54 2 2</rect></_>
    <_>
      <rect>
        30 69 6 6</rect></_>
    <_>
      <rect>
        32 6 4 20</rect></_>
    <_>
      <rect>
        32 31 6 12</rect></_>
    <_>
      <rect>
        32 38 6 10</rect></_>
    <_>
      <rect>
        32 50 3 2</rect></_>
    <_>
      <rect>
        32 51 5 5</rect></_>
    <_>
      <rect>
        32 53 3 6</rect></_>
    <_>
      <rect>
        32 63 6 7</rect></_>
    <_>
      <rect>
        32 75 4 4</rect></_>
    <_>
      <rect>
        32 82 2 2</rect></_>
    <_>
      <rect>
        32 84 6 5</rect></_>
    <_>
      <rect>
        33 52 5 5</rect></_>
    <_>
      <rect>
        33 53 3 3</rect></_>
    <_>
      <rect>
        34 53 2 2</rect></_>
    <_>
      <rect>
        34 58 3 2</rect></_>
    <_>
      <rect>
        35 1 5 30</rect></_>
    <_>
      <rect>
        35 25 5 7</rect></_>
    <_>
      <rect>
        35 34 5 12</rect></_>
    <_>
      <rect>
        35 37 5 3</rect></_>
    <_>
      <rect>
        35 52 2 2</rect></_>
    <_>
      <rect>
        35 54 5 5</rect></_>
    <_>
      <rect>
        37 25 4 11</rect></_>
    <_>
      <rect>
        37 59 4 2</rect></_>
    <_>
      <rect>
        38 33 4 5</rect></_>
    <_>
      <rect>
        41 0 3 26</rect></_>
    <_>
      <rect>
        41 40 3 8</rect></_>
    <_>
      <rect>
        41 61 3 4</rect></_>
    <_>
      <rect>
        47 19 1 19</rect></_>
    <_>
      <rect>
        47 32 1 2</rect></_>
    <_>
      <rect>
        47 36 1 2</rect></_>
    <_>
      <rect>
        47 37 1 12</rect></_>
    <_>
      <rect>
        47 38 1 3</rect></_></features></cascade>
</opencv_storage>
