<?xml version="1.0"?>
<opencv_storage>
<cascade>
  <stageType>BOOST</stageType>
  <featureType>LBP</featureType>
  <height>100</height>
  <width>50</width>
  <stageParams>
    <boostType>GAB</boostType>
    <minHitRate>9.9900001287460327e-01</minHitRate>
    <maxFalseAlarm>5.0000000000000000e-01</maxFalseAlarm>
    <weightTrimRate>9.4999999999999996e-01</weightTrimRate>
    <maxDepth>1</maxDepth>
    <maxWeakCount>100</maxWeakCount></stageParams>
  <featureParams>
    <maxCatCount>256</maxCatCount>
    <featSize>1</featSize></featureParams>
  <stageNum>25</stageNum>
  <stages>
    <!-- stage 0 -->
    <_>
      <maxWeakCount>3</maxWeakCount>
      <stageThreshold>-7.2535103559494019e-01</stageThreshold>
      <weakClassifiers>
        <_>
          <internalNodes>
            0 -1 34 -518 -201916686 -263182 -202246158 -168100366
            1962194064 -133904 -248384400</internalNodes>
          <leafValues>
            -7.3469388484954834e-01 8.2213437557220459e-01</leafValues></_>
        <_>
          <internalNodes>
            0 -1 14 -8388673 -131083 -9306263 -143525008 -2752605
            -193659808 -1242973286 2035381600</internalNodes>
          <leafValues>
            -6.6607600450515747e-01 7.6700967550277710e-01</leafValues></_>
        <_>
          <internalNodes>
            0 -1 135 -677660262 -653176430 1085976 1056970756 1384306857
            276856968 16943344 48627948</internalNodes>
          <leafValues>
            -7.3933470249176025e-01 6.7541885375976562e-01</leafValues></_></weakClassifiers></_>
    <!-- stage 1 -->
    <_>
      <maxWeakCount>5</maxWeakCount>
      <stageThreshold>-1.7617235183715820e+00</stageThreshold>
      <weakClassifiers>
        <_>
          <internalNodes>
            0 -1 41 2147482587 2139086847 805273599 2145910783 -1
            536838007 1988099467 324351767</internalNodes>
          <leafValues>
            -6.5714287757873535e-01 7.3846155405044556e-01</leafValues></_>
        <_>
          <internalNodes>
            0 -1 79 -1130502 -81330178 989766904 -67125534 -33563396
            -1892917936 -1611087880 2046543355</internalNodes>
          <leafValues>
            -5.8253043889999390e-01 6.7235320806503296e-01</leafValues></_>
        <_>
          <internalNodes>
            0 -1 7 -653790759 -116031487 1342214160 1262534657
            -1996380022 -805240831 -1957330928 1599464195</internalNodes>
          <leafValues>
            -6.1193948984146118e-01 6.2429463863372803e-01</leafValues></_>
        <_>
          <internalNodes>
            0 -1 122 1494372863 -788524973 16842906 923799816 134220281
            -1761083251 33620168 252559547</internalNodes>
          <leafValues>
            -6.7353850603103638e-01 5.6280767917633057e-01</leafValues></_>
        <_>
          <internalNodes>
            0 -1 176 25814010 -1887391488 1085521 419660183 -1877831509
            -1054670847 445223115 705663883</internalNodes>
          <leafValues>
            -6.3217657804489136e-01 6.2779921293258667e-01</leafValues></_></weakClassifiers></_>
    <!-- stage 2 -->
    <_>
      <maxWeakCount>5</maxWeakCount>
      <stageThreshold>-1.5416381359100342e+00</stageThreshold>
      <weakClassifiers>
        <_>
          <internalNodes>
            0 -1 174 -1343229969 -1426342161 -1342296065 142524399
            -1902182657 136888318 246071278 215724031</internalNodes>
          <leafValues>
            -6.1484098434448242e-01 7.2340422868728638e-01</leafValues></_>
        <_>
          <internalNodes>
            0 -1 127 -571220481 -537002258 -889197322 -571650962
            -50528523 78707444 -2131703592 -591663905</internalNodes>
          <leafValues>
            -4.7295197844505310e-01 7.1070939302444458e-01</leafValues></_>
        <_>
          <internalNodes>
            0 -1 195 -1610354445 -2142240757 268517429 -1879011070
            -1862106997 8421378 134908035 14864959</internalNodes>
          <leafValues>
            -5.8970260620117188e-01 5.9731304645538330e-01</leafValues></_>
        <_>
          <internalNodes>
            0 -1 20 -2054950695 -989360107 -2145303281 822340614
            1342257669 1895827456 402675854 2143413239</internalNodes>
          <leafValues>
            -6.0556429624557495e-01 5.6472265720367432e-01</leafValues></_>
        <_>
          <internalNodes>
            0 -1 123 -524594347 -1862204982 1073742269 1031931141
            553700488 -2012741496 184590584 723472891</internalNodes>
          <leafValues>
            -5.9682351350784302e-01 5.9861725568771362e-01</leafValues></_></weakClassifiers></_>
    <!-- stage 3 -->
    <_>
      <maxWeakCount>8</maxWeakCount>
      <stageThreshold>-1.4221546649932861e+00</stageThreshold>
      <weakClassifiers>
        <_>
          <internalNodes>
            0 -1 106 -537526529 -537395457 -931019522 -294147330
            -33685517 1288731121 -453980932 -1057882370</internalNodes>
          <leafValues>
            -5.2412647008895874e-01 7.1571570634841919e-01</leafValues></_>
        <_>
          <internalNodes>
            0 -1 5 -184299009 -1760337661 16814225 1208418309 1074267137
            1619025986 -1140256383 2067232567</internalNodes>
          <leafValues>
            -5.8302807807922363e-01 5.8301919698715210e-01</leafValues></_>
        <_>
          <internalNodes>
            0 -1 35 -50988549 -65669 -394464 -177012878 -170590917
            -193921035 -852864 -149553222</internalNodes>
          <leafValues>
            -5.0915193557739258e-01 6.3351362943649292e-01</leafValues></_>
        <_>
          <internalNodes>
            0 -1 89 -763948098 906396504 381963274 -1322229110
            1359202712 69796024 -1987466264 461109144</internalNodes>
          <leafValues>
            -7.5438523292541504e-01 4.2822653055191040e-01</leafValues></_>
        <_>
          <internalNodes>
            0 -1 66 1988091795 1552163072 341 986296853 570592367
            -1572208635 1758224915 157876742</internalNodes>
          <leafValues>
            -7.3339712619781494e-01 4.2777448892593384e-01</leafValues></_>
        <_>
          <internalNodes>
            0 -1 8 -393270474 1263471747 1074004120 -1576830320
            -157693433 1117826562 1620183381 -763903117</internalNodes>
          <leafValues>
            -6.6487932205200195e-01 4.5920374989509583e-01</leafValues></_>
        <_>
          <internalNodes>
            0 -1 191 -294669256 914292719 -8389442 1122955003 2143278961
            -1495402506 -520650771 -1604583653</internalNodes>
          <leafValues>
            -5.1788383722305298e-01 6.6231405735015869e-01</leafValues></_>
        <_>
          <internalNodes>
            0 -1 136 -1761119777 -1339014909 -1870635008 -1853224822 909
            -1165950896 563749260 517914031</internalNodes>
          <leafValues>
            -6.3568979501724243e-01 5.3941994905471802e-01</leafValues></_></weakClassifiers></_>
    <!-- stage 4 -->
    <_>
      <maxWeakCount>7</maxWeakCount>
      <stageThreshold>-4.8989057540893555e-01</stageThreshold>
      <weakClassifiers>
        <_>
          <internalNodes>
            0 -1 10 -5 -655361 -14418061 -9307277 -11157517 -42664015
            -46810213 -548014237</internalNodes>
          <leafValues>
            -3.1681877374649048e-01 7.7190876007080078e-01</leafValues></_>
        <_>
          <internalNodes>
            0 -1 94 -142743722 -1446248382 16814476 2031845890
            -2138384180 24704 -368334136 -552886134</internalNodes>
          <leafValues>
            -4.5706024765968323e-01 6.2211227416992188e-01</leafValues></_>
        <_>
          <internalNodes>
            0 -1 31 -973023294 -786659840 -780072403 -1089388159
            1476583812 590112 1111658924 1396770694</internalNodes>
          <leafValues>
            -6.9168716669082642e-01 4.2214137315750122e-01</leafValues></_>
        <_>
          <internalNodes>
            0 -1 118 -666111729 -50116333 1082310790 -821886386
            -526015869 -1743780607 -1063217141 -859444521</internalNodes>
          <leafValues>
            -5.2873015403747559e-01 5.2669721841812134e-01</leafValues></_>
        <_>
          <internalNodes>
            0 -1 149 285317786 1499005328 285216919 922751385 1612362474
            713564306 159543448 998971914</internalNodes>
          <leafValues>
            -6.2045001983642578e-01 4.6229955554008484e-01</leafValues></_>
        <_>
          <internalNodes>
            0 -1 110 390582388 -721346492 -1052507956 2072281475
            1129546411 1112543238 -1061125495 -1065297015</internalNodes>
          <leafValues>
            -5.2677881717681885e-01 5.6641870737075806e-01</leafValues></_>
        <_>
          <internalNodes>
            0 -1 46 -742997874 1426161666 276959515 -1715240064
            1083084800 -929898104 548929781 -409627131</internalNodes>
          <leafValues>
            -5.6571489572525024e-01 5.2553927898406982e-01</leafValues></_></weakClassifiers></_>
    <!-- stage 5 -->
    <_>
      <maxWeakCount>6</maxWeakCount>
      <stageThreshold>-1.2027031183242798e+00</stageThreshold>
      <weakClassifiers>
        <_>
          <internalNodes>
            0 -1 44 2004875135 1073725407 -65 1002438399 2147384663
            738144125 2013093759 186324926</internalNodes>
          <leafValues>
            -5.2459013462066650e-01 5.8992803096771240e-01</leafValues></_>
        <_>
          <internalNodes>
            0 -1 68 1494996447 336625937 -1039973348 269517066 227041290
            940048392 145641883 2133259135</internalNodes>
          <leafValues>
            -5.1469200849533081e-01 5.2085328102111816e-01</leafValues></_>
        <_>
          <internalNodes>
            0 -1 143 -741869093 423727625 134316048 -243253221
            -502140258 1153466752 -937897736 1546708155</internalNodes>
          <leafValues>
            -6.6792201995849609e-01 4.1752180457115173e-01</leafValues></_>
        <_>
          <internalNodes>
            0 -1 145 -621093387 -765395741 -369931147 1006607676
            -1401883399 -134189064 -869218124 -805319557</internalNodes>
          <leafValues>
            -4.1229984164237976e-01 6.5832352638244629e-01</leafValues></_>
        <_>
          <internalNodes>
            0 -1 163 -128887809 421286019 437 1901422999 152166799
            -1454669752 289474181 494258243</internalNodes>
          <leafValues>
            -6.2194442749023438e-01 4.3447539210319519e-01</leafValues></_>
        <_>
          <internalNodes>
            0 -1 37 -779701177 -636911097 1090781202 45342 1107493967
            1745095700 3490081 1364428871</internalNodes>
          <leafValues>
            -6.3219261169433594e-01 4.6304041147232056e-01</leafValues></_></weakClassifiers></_>
    <!-- stage 6 -->
    <_>
      <maxWeakCount>8</maxWeakCount>
      <stageThreshold>-1.3449482917785645e+00</stageThreshold>
      <weakClassifiers>
        <_>
          <internalNodes>
            0 -1 43 -737958305 -79615872 402675973 -401539065 -964434550
            -1811488245 -1065123667 12927559</internalNodes>
          <leafValues>
            -6.2204724550247192e-01 5.2255946397781372e-01</leafValues></_>
        <_>
          <internalNodes>
            0 -1 17 -368979361 1997345251 403250098 793903105 -905969535
            1258292229 1089143280 2010595787</internalNodes>
          <leafValues>
            -5.6991660594940186e-01 4.8157057166099548e-01</leafValues></_>
        <_>
          <internalNodes>
            0 -1 151 -805306224 2038530512 -1056964449 -921333627
            -1610040994 -1198439768 -1166016325 983233173</internalNodes>
          <leafValues>
            -5.3462350368499756e-01 5.2709168195724487e-01</leafValues></_>
        <_>
          <internalNodes>
            0 -1 200 386519531 1084314056 1393918425 1644380746
            -792596065 -2013200224 -534312797 1791742607</internalNodes>
          <leafValues>
            -5.1784324645996094e-01 5.0880676507949829e-01</leafValues></_>
        <_>
          <internalNodes>
            0 -1 4 -2020929274 -805142014 17 1921105928 -2143197183
            -2146729848 1090584580 1802982149</internalNodes>
          <leafValues>
            -6.1127674579620361e-01 4.3989735841751099e-01</leafValues></_>
        <_>
          <internalNodes>
            0 -1 84 1363202243 -1760931180 2097416 -720632766 1745395932
            -1700265984 1209043886 -594418721</internalNodes>
          <leafValues>
            -5.8670902252197266e-01 4.9305284023284912e-01</leafValues></_>
        <_>
          <internalNodes>
            0 -1 162 394268857 1485832333 270766197 899678489 176775593
            513818778 151636631 1063452872</internalNodes>
          <leafValues>
            -6.2769931554794312e-01 4.5102483034133911e-01</leafValues></_>
        <_>
          <internalNodes>
            0 -1 166 -456754665 1290018852 1669662788 -2128559994
            -1323171840 -1987526517 1233289782 -373310949</internalNodes>
          <leafValues>
            -5.4933756589889526e-01 5.5045545101165771e-01</leafValues></_></weakClassifiers></_>
    <!-- stage 7 -->
    <_>
      <maxWeakCount>9</maxWeakCount>
      <stageThreshold>-8.9608442783355713e-01</stageThreshold>
      <weakClassifiers>
        <_>
          <internalNodes>
            0 -1 67 -1744568737 -166706854 -1073430514 -804601822
            1208191003 -1073741760 -536313718 -1062159222</internalNodes>
          <leafValues>
            -5.7251906394958496e-01 5.1781278848648071e-01</leafValues></_>
        <_>
          <internalNodes>
            0 -1 183 864694159 320344138 -1072523883 -787541162
            436343455 445513761 143265936 1875609805</internalNodes>
          <leafValues>
            -5.2790582180023193e-01 5.0150698423385620e-01</leafValues></_>
        <_>
          <internalNodes>
            0 -1 50 1205663157 637649065 32789 962625666 772896838
            504451183 134219955 1004488843</internalNodes>
          <leafValues>
            -6.7019611597061157e-01 3.7842398881912231e-01</leafValues></_>
        <_>
          <internalNodes>
            0 -1 61 -8388673 1966673237 -261 242755636 2109666648
            490241109 -46246402 -1620114369</internalNodes>
          <leafValues>
            -4.2307457327842712e-01 6.3760775327682495e-01</leafValues></_>
        <_>
          <internalNodes>
            0 -1 177 1480641752 1599082753 -2147325863 -767295039
            -721276536 -1411809151 -1433761619 1582835240</internalNodes>
          <leafValues>
            -5.9966289997100830e-01 4.2571035027503967e-01</leafValues></_>
        <_>
          <internalNodes>
            0 -1 196 -263201565 10047798 269680861 -1940305711
            -1568204217 269926784 1484878726 1895819411</internalNodes>
          <leafValues>
            -6.7895841598510742e-01 3.6266615986824036e-01</leafValues></_>
        <_>
          <internalNodes>
            0 -1 77 -104738212 1224785984 83902468 -1424457447 717266948
            1476427800 1318226122 -986037621</internalNodes>
          <leafValues>
            -5.8255463838577271e-01 4.5729425549507141e-01</leafValues></_>
        <_>
          <internalNodes>
            0 -1 15 1640006619 1359265810 285278417 269501206
            -1031798266 1370226690 -2096741920 1962376707</internalNodes>
          <leafValues>
            -6.2862956523895264e-01 4.0065413713455200e-01</leafValues></_>
        <_>
          <internalNodes>
            0 -1 132 184600667 1564211249 534604863 498830525
            -1944088599 -1128616072 -1925914630 -301286</internalNodes>
          <leafValues>
            -3.8888347148895264e-01 7.0065689086914062e-01</leafValues></_></weakClassifiers></_>
    <!-- stage 8 -->
    <_>
      <maxWeakCount>7</maxWeakCount>
      <stageThreshold>-7.9180854558944702e-01</stageThreshold>
      <weakClassifiers>
        <_>
          <internalNodes>
            0 -1 103 -3626608 -779648751 1359184343 1495274961
            -532380536 -919762932 -661908765 470810688</internalNodes>
          <leafValues>
            -6.0869562625885010e-01 5.0649350881576538e-01</leafValues></_>
        <_>
          <internalNodes>
            0 -1 59 -787492521 -549355263 1083375626 -1199374334
            -894447473 -1740472320 -1937604406 -195846038</internalNodes>
          <leafValues>
            -4.6252691745758057e-01 4.9223375320434570e-01</leafValues></_>
        <_>
          <internalNodes>
            0 -1 102 -360660847 -251525041 285216827 557318165
            -2146959222 708510348 134793903 1050522177</internalNodes>
          <leafValues>
            -5.1842802762985229e-01 4.7456365823745728e-01</leafValues></_>
        <_>
          <internalNodes>
            0 -1 13 -1882465878 1519518993 1395136530 -1820325760
            589465994 545292298 -1492971118 1998652171</internalNodes>
          <leafValues>
            -6.8052178621292114e-01 3.6414989829063416e-01</leafValues></_>
        <_>
          <internalNodes>
            0 -1 144 -33554499 1606334446 2147401656 -42467329
            1062884469 56260069 503252212 -1610877953</internalNodes>
          <leafValues>
            -4.8523116111755371e-01 5.5008560419082642e-01</leafValues></_>
        <_>
          <internalNodes>
            0 -1 74 -121513327 -504223072 -1097003565 -747526077
            -825289705 1050622970 1043090926 -1125656957</internalNodes>
          <leafValues>
            -3.9743232727050781e-01 6.5575724840164185e-01</leafValues></_>
        <_>
          <internalNodes>
            0 -1 146 -246296229 138658065 -2129329744 286195982
            -1459426926 1343490 -1954379632 9362042</internalNodes>
          <leafValues>
            -7.5359421968460083e-01 3.7999454140663147e-01</leafValues></_></weakClassifiers></_>
    <!-- stage 9 -->
    <_>
      <maxWeakCount>7</maxWeakCount>
      <stageThreshold>-7.7789670228958130e-01</stageThreshold>
      <weakClassifiers>
        <_>
          <internalNodes>
            0 -1 1 -51398 -545292432 -2 -1075347491 -4112378 -2154627
            1150234289 2000122641</internalNodes>
          <leafValues>
            -4.8373103141784668e-01 5.4697102308273315e-01</leafValues></_>
        <_>
          <internalNodes>
            0 -1 164 -846925152 -788455257 -2113601323 805983159
            -469203837 1665368194 -930488149 278931467</internalNodes>
          <leafValues>
            -6.2136906385421753e-01 4.0020841360092163e-01</leafValues></_>
        <_>
          <internalNodes>
            0 -1 185 -1325170321 201470785 386122050 103371786
            -2147483477 1266761985 19055583 1479535246</internalNodes>
          <leafValues>
            -5.9767246246337891e-01 4.4686374068260193e-01</leafValues></_>
        <_>
          <internalNodes>
            0 -1 87 -289214066 -502165159 -1794964589 -314998765
            1075522186 -938475512 1076020175 -1054751413</internalNodes>
          <leafValues>
            -5.2524006366729736e-01 5.2695906162261963e-01</leafValues></_>
        <_>
          <internalNodes>
            0 -1 158 -1105040389 2058419702 -813871368 532541110
            108031859 -911180673 825231864 -1880144131</internalNodes>
          <leafValues>
            -4.9292400479316711e-01 5.4530310630798340e-01</leafValues></_>
        <_>
          <internalNodes>
            0 -1 109 -1890937615 2064696278 143085883 -1198288383
            -2004320021 -1081540350 -1053783373 1520451859</internalNodes>
          <leafValues>
            -5.6978249549865723e-01 5.0014704465866089e-01</leafValues></_>
        <_>
          <internalNodes>
            0 -1 82 -234877871 -787922894 1073742931 -918334707
            -1979709240 -1188360158 -1576886078 772352385</internalNodes>
          <leafValues>
            -5.8312934637069702e-01 4.4670870900154114e-01</leafValues></_></weakClassifiers></_>
    <!-- stage 10 -->
    <_>
      <maxWeakCount>10</maxWeakCount>
      <stageThreshold>-8.0873501300811768e-01</stageThreshold>
      <weakClassifiers>
        <_>
          <internalNodes>
            0 -1 86 944763899 61123311 -65667 789576636 8149 1002309354
            2137261054 1001328251</internalNodes>
          <leafValues>
            -4.7438752651214600e-01 5.3258037567138672e-01</leafValues></_>
        <_>
          <internalNodes>
            0 -1 128 -681985 1860573170 1069547258 -550306818 1608682740
            1529509879 1029382324 -537662017</internalNodes>
          <leafValues>
            -3.9027214050292969e-01 5.7278496026992798e-01</leafValues></_>
        <_>
          <internalNodes>
            0 -1 85 -855601040 1898038419 -1878259017 -112393643
            -392167190 -1475733325 -1602189157 2117651665</internalNodes>
          <leafValues>
            -5.2859151363372803e-01 4.2990639805793762e-01</leafValues></_>
        <_>
          <internalNodes>
            0 -1 6 -792345749 1401849089 -2113813438 -540625645
            -1471479669 -868220416 -1987869821 -101612750</internalNodes>
          <leafValues>
            -4.7193917632102966e-01 4.8480576276779175e-01</leafValues></_>
        <_>
          <internalNodes>
            0 -1 26 1329582303 1873264635 -1610910021 1878786035
            526778115 -1762263084 2104749859 -821082385</internalNodes>
          <leafValues>
            -4.2785993218421936e-01 5.9560143947601318e-01</leafValues></_>
        <_>
          <internalNodes>
            0 -1 105 1103503902 990969917 -2004598751 -1224420717
            1493414905 1485343374 837632843 2077198027</internalNodes>
          <leafValues>
            -4.9731317162513733e-01 4.8983100056648254e-01</leafValues></_>
        <_>
          <internalNodes>
            0 -1 92 -1022843351 559110180 -804273863 -611892709
            -1600995075 -1164558199 1384853671 136873285</internalNodes>
          <leafValues>
            -6.1660027503967285e-01 4.0909826755523682e-01</leafValues></_>
        <_>
          <internalNodes>
            0 -1 108 1556174965 1505321203 -1883394561 1603360529
            -1665933327 -1901039651 908348135 -1631889509</internalNodes>
          <leafValues>
            -3.5908812284469604e-01 7.6261818408966064e-01</leafValues></_>
        <_>
          <internalNodes>
            0 -1 161 -1078018209 -4980738 -285306896 -545914898
            -1086817027 167804318 867632368 -1075060758</internalNodes>
          <leafValues>
            -3.9977824687957764e-01 6.4110100269317627e-01</leafValues></_>
        <_>
          <internalNodes>
            0 -1 170 1778575429 990761031 -536456825 1080248408
            -1861713910 1493729304 -727498065 707648906</internalNodes>
          <leafValues>
            -5.6057292222976685e-01 4.5470806956291199e-01</leafValues></_></weakClassifiers></_>
    <!-- stage 11 -->
    <_>
      <maxWeakCount>9</maxWeakCount>
      <stageThreshold>-7.1602606773376465e-01</stageThreshold>
      <weakClassifiers>
        <_>
          <internalNodes>
            0 -1 36 -33281 2145328991 -139 2085838454 -12755625
            1073237301 1064711537 1596276599</internalNodes>
          <leafValues>
            -4.7639486193656921e-01 5.4850089550018311e-01</leafValues></_>
        <_>
          <internalNodes>
            0 -1 117 2134237183 -1939554458 -327696 -726123282
            2138959285 -873332803 2138434872 -4456493</internalNodes>
          <leafValues>
            -3.4960627555847168e-01 6.4531934261322021e-01</leafValues></_>
        <_>
          <internalNodes>
            0 -1 139 268456080 -543225856 151012119 428560924
            -1841299012 -1331134336 -895450449 974952641</internalNodes>
          <leafValues>
            -6.2799155712127686e-01 3.8430988788604736e-01</leafValues></_>
        <_>
          <internalNodes>
            0 -1 12 1298360743 792625008 -25985549 1060853558
            -1082951914 1971288023 2010716113 -652222863</internalNodes>
          <leafValues>
            -4.6758022904396057e-01 4.8807144165039062e-01</leafValues></_>
        <_>
          <internalNodes>
            0 -1 100 -59674477 -1607095068 -2036772936 -539467907
            216915631 -627331152 -2009576707 -604903469</internalNodes>
          <leafValues>
            -4.3903896212577820e-01 5.9066945314407349e-01</leafValues></_>
        <_>
          <internalNodes>
            0 -1 198 1452349403 996355 -1874767843 37808139 -1005743960
            -703037368 -804721697 1088288975</internalNodes>
          <leafValues>
            -6.2139558792114258e-01 4.7258901596069336e-01</leafValues></_>
        <_>
          <internalNodes>
            0 -1 125 -1618224250 -1379925371 -1742438381 1351618567
            -2121776436 25397792 -1081079125 1107993858</internalNodes>
          <leafValues>
            -6.3202387094497681e-01 3.8812452554702759e-01</leafValues></_>
        <_>
          <internalNodes>
            0 -1 112 -1710141255 -1618280054 1103178758 530194696
            1007157256 -1201142685 -1744254402 1007429201</internalNodes>
          <leafValues>
            -6.0372442007064819e-01 4.2268261313438416e-01</leafValues></_>
        <_>
          <internalNodes>
            0 -1 73 -1935641023 526431945 482016541 1898479540 -51366191
            1551512422 -457384325 -1090859453</internalNodes>
          <leafValues>
            -4.9389168620109558e-01 5.6308507919311523e-01</leafValues></_></weakClassifiers></_>
    <!-- stage 12 -->
    <_>
      <maxWeakCount>8</maxWeakCount>
      <stageThreshold>-8.0585366487503052e-01</stageThreshold>
      <weakClassifiers>
        <_>
          <internalNodes>
            0 -1 3 -66916919 -1723751851 8654912 553877592 -265637749
            339804178 -847080320 810754096</internalNodes>
          <leafValues>
            -6.2195122241973877e-01 4.7484275698661804e-01</leafValues></_>
        <_>
          <internalNodes>
            0 -1 55 -4456449 2003935985 -65541 842071730 -1619657344
            -145686704 -4685832 -1347698181</internalNodes>
          <leafValues>
            -3.4211283922195435e-01 6.0772281885147095e-01</leafValues></_>
        <_>
          <internalNodes>
            0 -1 25 -17044925 -823526424 -1368687385 -1820557510
            -1244314025 -2072035478 1289590193 -276037710</internalNodes>
          <leafValues>
            -3.0138215422630310e-01 6.9311279058456421e-01</leafValues></_>
        <_>
          <internalNodes>
            0 -1 197 1364949767 67191072 -1862205374 273682437 136446899
            136896521 539034395 448630175</internalNodes>
          <leafValues>
            -5.7945638895034790e-01 4.0802422165870667e-01</leafValues></_>
        <_>
          <internalNodes>
            0 -1 154 -880229180 1250757933 92340349 -2070608577
            595677920 1381105715 739850381 -499218133</internalNodes>
          <leafValues>
            -4.7541907429695129e-01 5.1607888936996460e-01</leafValues></_>
        <_>
          <internalNodes>
            0 -1 32 -1977883761 -989265525 4198739 1507770770 159515023
            -64978629 1073774931 -1041775184</internalNodes>
          <leafValues>
            -4.7643837332725525e-01 5.1522028446197510e-01</leafValues></_>
        <_>
          <internalNodes>
            0 -1 29 -134250665 -307265623 -16877993 1895693994
            1567949390 -1556136065 -432114060 -172247313</internalNodes>
          <leafValues>
            -3.7140402197837830e-01 6.6719681024551392e-01</leafValues></_>
        <_>
          <internalNodes>
            0 -1 184 302022724 -567984121 25211285 -1873997544
            -2113826119 -2121195487 -930575717 176818252</internalNodes>
          <leafValues>
            -6.7581713199615479e-01 4.6001529693603516e-01</leafValues></_></weakClassifiers></_>
    <!-- stage 13 -->
    <_>
      <maxWeakCount>9</maxWeakCount>
      <stageThreshold>-7.1874058246612549e-01</stageThreshold>
      <weakClassifiers>
        <_>
          <internalNodes>
            0 -1 142 -303040666 -923992466 2146430844 -273877012
            -159419067 -1912638089 -1879083664 -1409657050</internalNodes>
          <leafValues>
            -3.5315984487533569e-01 5.5555558204650879e-01</leafValues></_>
        <_>
          <internalNodes>
            0 -1 201 -1049897761 -788447231 -1879031551 -2147434237
            -771253717 1217570819 -400453301 114969855</internalNodes>
          <leafValues>
            -4.3750905990600586e-01 4.6397364139556885e-01</leafValues></_>
        <_>
          <internalNodes>
            0 -1 58 -979943170 -539983269 67633488 285247602 -2012708724
            553910345 -1609334339 1966562761</internalNodes>
          <leafValues>
            -6.1109733581542969e-01 3.5253438353538513e-01</leafValues></_>
        <_>
          <internalNodes>
            0 -1 167 475084767 864190495 344998045 1494425633 1346372111
            -1509783408 218337511 1291504529</internalNodes>
          <leafValues>
            -5.3900527954101562e-01 3.9164051413536072e-01</leafValues></_>
        <_>
          <internalNodes>
            0 -1 179 -167855141 -1461445664 536837623 -1935679750
            493780147 496414456 624296948 -1074838554</internalNodes>
          <leafValues>
            -4.6177992224693298e-01 4.9595147371292114e-01</leafValues></_>
        <_>
          <internalNodes>
            0 -1 187 1552387603 -652460027 -973012659 643483806
            -1971011412 1929412992 -921709925 -503174638</internalNodes>
          <leafValues>
            -4.5294722914695740e-01 5.0826627016067505e-01</leafValues></_>
        <_>
          <internalNodes>
            0 -1 180 84318386 -1715470188 167838003 -1795161968
            991955435 -813692922 705331381 722289796</internalNodes>
          <leafValues>
            -6.3886028528213501e-01 3.8276028633117676e-01</leafValues></_>
        <_>
          <internalNodes>
            0 -1 49 -14160715 -9069072 -4522001 -1083363791 -59427613
            -420135211 1685421276 -658872321</internalNodes>
          <leafValues>
            -3.9010682702064514e-01 6.5179008245468140e-01</leafValues></_>
        <_>
          <internalNodes>
            0 -1 182 -803605982 -12314578 1342247172 -2105294586
            -1828546363 1351811228 345150083 1882358447</internalNodes>
          <leafValues>
            -5.6931805610656738e-01 4.3916696310043335e-01</leafValues></_></weakClassifiers></_>
    <!-- stage 14 -->
    <_>
      <maxWeakCount>8</maxWeakCount>
      <stageThreshold>-1.1489630937576294e+00</stageThreshold>
      <weakClassifiers>
        <_>
          <internalNodes>
            0 -1 11 -70 -16842775 -1158485214 -1309491334 2147155438
            359989119 2003955703 2004287357</internalNodes>
          <leafValues>
            -3.8524588942527771e-01 5.2877700328826904e-01</leafValues></_>
        <_>
          <internalNodes>
            0 -1 159 469785753 -1069543120 -1040100967 -577695344
            983571130 -1456666456 757615276 364726289</internalNodes>
          <leafValues>
            -5.0869452953338623e-01 3.9940780401229858e-01</leafValues></_>
        <_>
          <internalNodes>
            0 -1 116 1229101848 -1795026866 1111494662 927568050
            -2146581740 -2013232384 -1576803392 -369237002</internalNodes>
          <leafValues>
            -5.2104425430297852e-01 4.0706378221511841e-01</leafValues></_>
        <_>
          <internalNodes>
            0 -1 124 222565433 419961137 -997916151 1976023563 705430696
            776364033 545259585 461622019</internalNodes>
          <leafValues>
            -7.3088622093200684e-01 3.1581094861030579e-01</leafValues></_>
        <_>
          <internalNodes>
            0 -1 141 -670983740 -725508093 386175382 -1333589869
            697412531 1887535235 -570383729 -458574885</internalNodes>
          <leafValues>
            -5.1840031147003174e-01 4.1385439038276672e-01</leafValues></_>
        <_>
          <internalNodes>
            0 -1 71 -141371920 -1913394115 1958473105 -1669263955
            -189071561 -1097307928 -1229529670 -575703333</internalNodes>
          <leafValues>
            -4.1287198662757874e-01 5.7897514104843140e-01</leafValues></_>
        <_>
          <internalNodes>
            0 -1 28 1644584899 -1073721250 -2134896237 -1755733549
            1111800576 -1035370432 -2142893337 1496535124</internalNodes>
          <leafValues>
            -6.0867667198181152e-01 4.2324212193489075e-01</leafValues></_>
        <_>
          <internalNodes>
            0 -1 52 -1229469941 -1015628058 2144333293 -142671875
            2138763246 1173225327 2013222827 -410527771</internalNodes>
          <leafValues>
            -4.0978977084159851e-01 6.1532390117645264e-01</leafValues></_></weakClassifiers></_>
    <!-- stage 15 -->
    <_>
      <maxWeakCount>10</maxWeakCount>
      <stageThreshold>-1.1355706453323364e+00</stageThreshold>
      <weakClassifiers>
        <_>
          <internalNodes>
            0 -1 126 -537399813 -4353 -352322306 2147478783 -184549385
            -841679369 -990880513 -592320291</internalNodes>
          <leafValues>
            -2.3837208747863770e-01 6.1842107772827148e-01</leafValues></_>
        <_>
          <internalNodes>
            0 -1 19 456387071 1376010463 -2130669287 87556445 67518529
            193146161 276892389 2076396439</internalNodes>
          <leafValues>
            -4.8213341832160950e-01 4.0818741917610168e-01</leafValues></_>
        <_>
          <internalNodes>
            0 -1 138 603982480 -1304950396 151644701 421398544 456132764
            -610662400 809501113 1023152334</internalNodes>
          <leafValues>
            -7.0446425676345825e-01 2.8640088438987732e-01</leafValues></_>
        <_>
          <internalNodes>
            0 -1 178 -1347449353 -1502728730 -1627441167 469741562
            1576875381 222068090 -1647522572 -881935117</internalNodes>
          <leafValues>
            -4.2453005909919739e-01 5.5603080987930298e-01</leafValues></_>
        <_>
          <internalNodes>
            0 -1 33 -333863476 -767554551 553861425 -1086914085
            1882302862 1652722733 -1563630926 -1221229429</internalNodes>
          <leafValues>
            -4.9185726046562195e-01 4.3461841344833374e-01</leafValues></_>
        <_>
          <internalNodes>
            0 -1 76 -2128451494 -213716864 4457329 -54421400 671727770
            -1602155904 134923003 1562759296</internalNodes>
          <leafValues>
            -4.9689418077468872e-01 4.4336232542991638e-01</leafValues></_>
        <_>
          <internalNodes>
            0 -1 21 88228439 1459621896 407 18546816 1210173506
            -2147352576 1241596101 -81702931</internalNodes>
          <leafValues>
            -5.0966233015060425e-01 4.5315194129943848e-01</leafValues></_>
        <_>
          <internalNodes>
            0 -1 42 -1740626961 -1224671079 360775939 1939148807
            1082166168 1082672017 -2147375939 214123265</internalNodes>
          <leafValues>
            -4.8871031403541565e-01 4.5591112971305847e-01</leafValues></_>
        <_>
          <internalNodes>
            0 -1 202 -2145164289 17369922 -1073741311 2013569031
            536887562 8604160 33767626 -1940763345</internalNodes>
          <leafValues>
            -5.1758939027786255e-01 4.6798369288444519e-01</leafValues></_>
        <_>
          <internalNodes>
            0 -1 99 -2045770349 -1209860096 -2146955068 -1652483052
            -1606383424 -390523764 327156647 1585646693</internalNodes>
          <leafValues>
            -6.2448859214782715e-01 3.9720016717910767e-01</leafValues></_></weakClassifiers></_>
    <!-- stage 16 -->
    <_>
      <maxWeakCount>9</maxWeakCount>
      <stageThreshold>-5.6173527240753174e-01</stageThreshold>
      <weakClassifiers>
        <_>
          <internalNodes>
            0 -1 95 -8470738 -348162 -67334920 -159656514 2138896080
            1366342868 1610611196 -1154224130</internalNodes>
          <leafValues>
            -3.1597220897674561e-01 5.6835937500000000e-01</leafValues></_>
        <_>
          <internalNodes>
            0 -1 129 1242345653 97526993 1342818641 1595155551
            1481638076 -289865712 276859532 495917289</internalNodes>
          <leafValues>
            -4.5240029692649841e-01 4.1934841871261597e-01</leafValues></_>
        <_>
          <internalNodes>
            0 -1 22 -1034698015 -1870412735 1266745378 -653949629
            -935100345 -1305079136 -132020053 -1120610623</internalNodes>
          <leafValues>
            -4.5290979743003845e-01 4.3052452802658081e-01</leafValues></_>
        <_>
          <internalNodes>
            0 -1 156 -842296714 52461574 16777416 -141606230 -2138369931
            429854871 311210704 -2026785681</internalNodes>
          <leafValues>
            -4.7117251157760620e-01 4.2624229192733765e-01</leafValues></_>
        <_>
          <internalNodes>
            0 -1 104 1694668491 -1019125616 219808405 -174780214
            -2111730773 -1971257200 -1316044341 1599601297</internalNodes>
          <leafValues>
            -4.7162339091300964e-01 4.8170971870422363e-01</leafValues></_>
        <_>
          <internalNodes>
            0 -1 40 -294715417 1282080265 -1095057552 -536150034
            -537035425 -455311363 -142608735 -662702081</internalNodes>
          <leafValues>
            -3.9750018715858459e-01 5.4175251722335815e-01</leafValues></_>
        <_>
          <internalNodes>
            0 -1 119 -570753029 -621936673 -1933792004 -168346369
            -84082689 -865011216 -856285605 -625525145</internalNodes>
          <leafValues>
            -3.7400048971176147e-01 5.7905530929565430e-01</leafValues></_>
        <_>
          <internalNodes>
            0 -1 101 630196664 -1871884256 -1056947937 1413177622
            142749890 -1431797362 -2105390888 534651552</internalNodes>
          <leafValues>
            -6.4753270149230957e-01 3.9567604660987854e-01</leafValues></_>
        <_>
          <internalNodes>
            0 -1 78 1376378190 -2045652599 407157396 -671084260
            -1711242743 -1986359262 620823235 -675886263</internalNodes>
          <leafValues>
            -5.1555311679840088e-01 4.3660920858383179e-01</leafValues></_></weakClassifiers></_>
    <!-- stage 17 -->
    <_>
      <maxWeakCount>9</maxWeakCount>
      <stageThreshold>-7.5367063283920288e-01</stageThreshold>
      <weakClassifiers>
        <_>
          <internalNodes>
            0 -1 9 -2124954298 1381630467 1638754 1493303954 -930512760
            1078200833 1821444194 1433528130</internalNodes>
          <leafValues>
            -5.8409786224365234e-01 4.6425765752792358e-01</leafValues></_>
        <_>
          <internalNodes>
            0 -1 114 -360402364 546718473 -736096053 -801959421
            1141379860 185139233 -1732013909 54769925</internalNodes>
          <leafValues>
            -5.8932971954345703e-01 3.2171756029129028e-01</leafValues></_>
        <_>
          <internalNodes>
            0 -1 130 -1910012876 -2069852152 -1767554683 -1048237805
            262878 -1358230885 1888184327 1869398739</internalNodes>
          <leafValues>
            -5.1730054616928101e-01 4.1304808855056763e-01</leafValues></_>
        <_>
          <internalNodes>
            0 -1 148 -648495045 1068516792 1878871547 756817471
            1052364539 -1096668039 930618906 -4311845</internalNodes>
          <leafValues>
            -3.6646860837936401e-01 6.0593736171722412e-01</leafValues></_>
        <_>
          <internalNodes>
            0 -1 189 -1702112519 71344530 -1056876112 -1291624180
            675356813 -1992228709 42568101 1808385198</internalNodes>
          <leafValues>
            -5.0288629531860352e-01 4.2492115497589111e-01</leafValues></_>
        <_>
          <internalNodes>
            0 -1 113 -226388783 2078851651 456498261 -1388421683
            -1037915129 -843258641 -1155237249 -301756713</internalNodes>
          <leafValues>
            -3.4623935818672180e-01 6.5717226266860962e-01</leafValues></_>
        <_>
          <internalNodes>
            0 -1 134 37967863 945283203 1094778907 -1928183721
            1078004001 -1174388608 -1048100699 1262635019</internalNodes>
          <leafValues>
            -6.1990153789520264e-01 3.5360196232795715e-01</leafValues></_>
        <_>
          <internalNodes>
            0 -1 18 -1059549 1240198762 -201556299 -9273481 1736423189
            469745526 -673376300 -337445665</internalNodes>
          <leafValues>
            -4.0686029195785522e-01 5.9279018640518188e-01</leafValues></_>
        <_>
          <internalNodes>
            0 -1 165 -1324666238 -352120446 1342179480 1889095815
            -2077720423 1100693508 -1878465520 1080222315</internalNodes>
          <leafValues>
            -7.0060157775878906e-01 3.8506773114204407e-01</leafValues></_></weakClassifiers></_>
    <!-- stage 18 -->
    <_>
      <maxWeakCount>10</maxWeakCount>
      <stageThreshold>-1.0760116577148438e+00</stageThreshold>
      <weakClassifiers>
        <_>
          <internalNodes>
            0 -1 90 -1627435249 714136436 -1179970 177372986 1476360985
            289144692 2002616286 2115761928</internalNodes>
          <leafValues>
            -3.6094674468040466e-01 5.3339433670043945e-01</leafValues></_>
        <_>
          <internalNodes>
            0 -1 107 -251493869 -787857135 -2013179841 -2146467809
            -2095982329 1816134212 -1475024289 -2007966005</internalNodes>
          <leafValues>
            -4.9815064668655396e-01 3.9153757691383362e-01</leafValues></_>
        <_>
          <internalNodes>
            0 -1 56 -555286609 2100821873 -327693 -1289716368
            -1083269296 -868974764 -1083607151 -7371349</internalNodes>
          <leafValues>
            -3.3609014749526978e-01 5.9740418195724487e-01</leafValues></_>
        <_>
          <internalNodes>
            0 -1 152 680028982 -1695297127 -1760476839 531628691
            614654504 2022072321 -1609850461 219128362</internalNodes>
          <leafValues>
            -5.4917138814926147e-01 3.6522784829139709e-01</leafValues></_>
        <_>
          <internalNodes>
            0 -1 0 -1872824445 -777938512 127259 -1119715246 -829781851
            243304448 1417700259 1361121856</internalNodes>
          <leafValues>
            -5.6829059123992920e-01 3.2053577899932861e-01</leafValues></_>
        <_>
          <internalNodes>
            0 -1 63 1107433833 142676865 528656 -165641719 1077936248
            -744865722 -347569758 1846036712</internalNodes>
          <leafValues>
            -5.7737833261489868e-01 3.7330821156501770e-01</leafValues></_>
        <_>
          <internalNodes>
            0 -1 65 285282710 -784334256 268448344 -720043242
            -1073706576 -805297910 118225642 -2010079544</internalNodes>
          <leafValues>
            -5.6527447700500488e-01 3.6592146754264832e-01</leafValues></_>
        <_>
          <internalNodes>
            0 -1 27 -1182925441 -402751618 -1073815599 -826344700
            -1745068188 1164410758 -713163067 -738721869</internalNodes>
          <leafValues>
            -4.1323101520538330e-01 5.4406422376632690e-01</leafValues></_>
        <_>
          <internalNodes>
            0 -1 188 -1476262438 675545128 -1870030743 -1978859324
            412950951 -435519096 -1971117920 702729146</internalNodes>
          <leafValues>
            -6.1608630418777466e-01 3.9355793595314026e-01</leafValues></_>
        <_>
          <internalNodes>
            0 -1 51 1717730815 246577534 -1409405189 871956415
            1534475593 -42565667 2003696511 -203713025</internalNodes>
          <leafValues>
            -3.9731803536415100e-01 5.7213479280471802e-01</leafValues></_></weakClassifiers></_>
    <!-- stage 19 -->
    <_>
      <maxWeakCount>9</maxWeakCount>
      <stageThreshold>-7.5380957126617432e-01</stageThreshold>
      <weakClassifiers>
        <_>
          <internalNodes>
            0 -1 181 278007024 1006895764 -2059401835 499696265
            -2146946119 -1165983583 16797866 245370124</internalNodes>
          <leafValues>
            -5.5214720964431763e-01 4.5525902509689331e-01</leafValues></_>
        <_>
          <internalNodes>
            0 -1 204 -1396969501 -1531078807 -1476435986 1052188532
            -1074372866 1073545199 -1090693249 -339812617</internalNodes>
          <leafValues>
            -3.1264048814773560e-01 6.3078224658966064e-01</leafValues></_>
        <_>
          <internalNodes>
            0 -1 47 -207991926 1511596705 1218183434 -741897406
            -2004032893 1162659978 813908139 1129120975</internalNodes>
          <leafValues>
            -5.3354322910308838e-01 3.7369221448898315e-01</leafValues></_>
        <_>
          <internalNodes>
            0 -1 172 -525869690 673104646 134283264 4309337 -938925925
            805441545 -1912492885 2129377742</internalNodes>
          <leafValues>
            -5.9825021028518677e-01 3.2701969146728516e-01</leafValues></_>
        <_>
          <internalNodes>
            0 -1 157 -411036893 -1711079422 1342373893 -1016937958
            -1040037247 -1776779263 1888012548 -633810745</internalNodes>
          <leafValues>
            -4.9610692262649536e-01 4.2745310068130493e-01</leafValues></_>
        <_>
          <internalNodes>
            0 -1 62 -12882121 1303680021 -268992678 405352080
            -1646635647 -598090380 -1078136856 -67119633</internalNodes>
          <leafValues>
            -3.5083118081092834e-01 6.9485044479370117e-01</leafValues></_>
        <_>
          <internalNodes>
            0 -1 97 -1044178479 -1060962302 1628476573 -671088558 575799
            973180947 -1339029287 420317090</internalNodes>
          <leafValues>
            -5.6319922208786011e-01 4.3655487895011902e-01</leafValues></_>
        <_>
          <internalNodes>
            0 -1 93 432062796 -1216294909 545263833 1421148357 268865772
            1141039246 44185257 21824653</internalNodes>
          <leafValues>
            -6.5591555833816528e-01 3.9038592576980591e-01</leafValues></_>
        <_>
          <internalNodes>
            0 -1 121 1184587387 352116029 1643863164 -537015052
            -1117032456 694188977 -1860052944 -559377037</internalNodes>
          <leafValues>
            -4.4699493050575256e-01 5.4327553510665894e-01</leafValues></_></weakClassifiers></_>
    <!-- stage 20 -->
    <_>
      <maxWeakCount>11</maxWeakCount>
      <stageThreshold>-7.9428356885910034e-01</stageThreshold>
      <weakClassifiers>
        <_>
          <internalNodes>
            0 -1 2 -619990384 -205520741 1048793 -669810615 -2008973270
            -2013233016 142721313 925990912</internalNodes>
          <leafValues>
            -5.7771259546279907e-01 4.7418585419654846e-01</leafValues></_>
        <_>
          <internalNodes>
            0 -1 193 526388368 1499136252 1082130481 -1692336091
            1157764764 -1853849344 268962714 786189032</internalNodes>
          <leafValues>
            -6.1707717180252075e-01 3.0727341771125793e-01</leafValues></_>
        <_>
          <internalNodes>
            0 -1 131 -319438915 -1141952729 2147286959 1593321218
            -1652593169 -1271550339 -36208705 -1609935859</internalNodes>
          <leafValues>
            -3.6301484704017639e-01 5.5570846796035767e-01</leafValues></_>
        <_>
          <internalNodes>
            0 -1 96 1090736410 -987889528 -1055443964 1037107217
            -939487183 353378601 -1718635848 -1980712780</internalNodes>
          <leafValues>
            -5.2852952480316162e-01 3.8620182871818542e-01</leafValues></_>
        <_>
          <internalNodes>
            0 -1 169 -1995865569 163864 -2029973481 -619692030
            -1597795910 -1205860161 499187880 1233903642</internalNodes>
          <leafValues>
            -4.7415554523468018e-01 4.4381716847419739e-01</leafValues></_>
        <_>
          <internalNodes>
            0 -1 205 -1446511233 213778284 -143757320 874314679
            1946050316 629143364 -576717006 -125927569</internalNodes>
          <leafValues>
            -4.3704789876937866e-01 5.1005071401596069e-01</leafValues></_>
        <_>
          <internalNodes>
            0 -1 16 -546046197 878603123 -655503 524254055 1434211953
            -537624740 1607496949 -1615202337</internalNodes>
          <leafValues>
            -4.0388289093971252e-01 5.4235249757766724e-01</leafValues></_>
        <_>
          <internalNodes>
            0 -1 83 131740 1963725938 297301 -721338351 537561099
            -1736429397 578889867 1999532036</internalNodes>
          <leafValues>
            -6.2105739116668701e-01 3.6488953232765198e-01</leafValues></_>
        <_>
          <internalNodes>
            0 -1 53 -1995750318 1628110850 -1979150314 1728267388
            1779389102 -2000516979 -704009873 -1809728448</internalNodes>
          <leafValues>
            -5.7800143957138062e-01 3.9368286728858948e-01</leafValues></_>
        <_>
          <internalNodes>
            0 -1 150 -46443307 2129599965 -1091027017 -8512003
            1051241467 -570802305 -1904689541 -1113944329</internalNodes>
          <leafValues>
            -3.7188678979873657e-01 6.4373153448104858e-01</leafValues></_>
        <_>
          <internalNodes>
            0 -1 171 441129929 957988882 -1073175273 -217513725
            -124537728 -2084011904 1745365033 1136916573</internalNodes>
          <leafValues>
            -5.9414762258529663e-01 4.5204445719718933e-01</leafValues></_></weakClassifiers></_>
    <!-- stage 21 -->
    <_>
      <maxWeakCount>10</maxWeakCount>
      <stageThreshold>-8.9511859416961670e-01</stageThreshold>
      <weakClassifiers>
        <_>
          <internalNodes>
            0 -1 38 -196631 -655363 -9175262 -80643150 -545456661
            -101646795 1073461882 -32181134</internalNodes>
          <leafValues>
            -2.7918782830238342e-01 5.5996036529541016e-01</leafValues></_>
        <_>
          <internalNodes>
            0 -1 155 -515047354 226800294 159385748 1907855437
            -469442413 268665354 -1386667305 1780665439</internalNodes>
          <leafValues>
            -4.7636872529983521e-01 3.9078781008720398e-01</leafValues></_>
        <_>
          <internalNodes>
            0 -1 24 -286919085 1862004716 -1166542300 -139280395
            -2042430397 1326935605 -273303661 -296226401</internalNodes>
          <leafValues>
            -3.3621138334274292e-01 5.7499068975448608e-01</leafValues></_>
        <_>
          <internalNodes>
            0 -1 91 -720240640 -1870856164 -2130640639 -1853702131
            -2012886391 -1683872759 1095295187 1478280177</internalNodes>
          <leafValues>
            -5.8136290311813354e-01 3.6741837859153748e-01</leafValues></_>
        <_>
          <internalNodes>
            0 -1 81 -869790568 -1208660815 -357183849 -1083106506
            476374216 -1167864135 1579214511 -50988365</internalNodes>
          <leafValues>
            -4.2789739370346069e-01 5.2616536617279053e-01</leafValues></_>
        <_>
          <internalNodes>
            0 -1 57 554316168 1476395009 -2080292478 357667074
            1166689068 -1442117567 -1974973500 737837067</internalNodes>
          <leafValues>
            -5.8515489101409912e-01 3.6693191528320312e-01</leafValues></_>
        <_>
          <internalNodes>
            0 -1 168 262862269 -290496517 2143231615 800930861 510716913
            -1736624140 343692532 -1346638097</internalNodes>
          <leafValues>
            -3.6780333518981934e-01 5.9518504142761230e-01</leafValues></_>
        <_>
          <internalNodes>
            0 -1 186 514691093 -116141052 -1986586227 34275350
            -1744166750 -1683451736 -519378230 -1472069112</internalNodes>
          <leafValues>
            -4.4533005356788635e-01 5.0575411319732666e-01</leafValues></_>
        <_>
          <internalNodes>
            0 -1 203 -1374842559 -2121695227 -1073610349 310510337
            -2079948799 1258389504 16958467 -1233455893</internalNodes>
          <leafValues>
            -5.0733315944671631e-01 4.4669064879417419e-01</leafValues></_>
        <_>
          <internalNodes>
            0 -1 75 -910376301 -585678581 1090588949 -2015756207
            -2013056460 -217446358 -578016621 1553825998</internalNodes>
          <leafValues>
            -4.9988159537315369e-01 4.9495279788970947e-01</leafValues></_></weakClassifiers></_>
    <!-- stage 22 -->
    <_>
      <maxWeakCount>10</maxWeakCount>
      <stageThreshold>-7.7903503179550171e-01</stageThreshold>
      <weakClassifiers>
        <_>
          <internalNodes>
            0 -1 192 2130697081 15269502 1056964349 -118685956 352058614
            212594398 520045693 787395709</internalNodes>
          <leafValues>
            -3.5902637243270874e-01 5.2122855186462402e-01</leafValues></_>
        <_>
          <internalNodes>
            0 -1 88 -1880248980 -387498145 -52 -478740497 1609940805
            108986199 -704643105 -1045567505</internalNodes>
          <leafValues>
            -3.9662113785743713e-01 4.3901875615119934e-01</leafValues></_>
        <_>
          <internalNodes>
            0 -1 60 -537526533 -101658967 -4263949 -365856143 -25641496
            -63668476 -6267280 -806721334</internalNodes>
          <leafValues>
            -3.4253695607185364e-01 5.2559655904769897e-01</leafValues></_>
        <_>
          <internalNodes>
            0 -1 98 943149085 -1706553231 285278258 940636290 402661376
            788764864 -1341650792 1527351505</internalNodes>
          <leafValues>
            -5.6126266717910767e-01 3.4483391046524048e-01</leafValues></_>
        <_>
          <internalNodes>
            0 -1 175 -50537235 -1654620931 2147418103 502923004
            1718934965 -84578636 -995865394 -6584738</internalNodes>
          <leafValues>
            -3.9699155092239380e-01 5.2364438772201538e-01</leafValues></_>
        <_>
          <internalNodes>
            0 -1 48 1645039003 -762383343 1042 -1223457700 1879461967
            704970760 -1702776110 1562199309</internalNodes>
          <leafValues>
            -5.2409523725509644e-01 4.0628880262374878e-01</leafValues></_>
        <_>
          <internalNodes>
            0 -1 140 2096613294 -1342242903 -1090519169 -503332981
            -840630365 742129524 -419741765 -760261746</internalNodes>
          <leafValues>
            -3.7727159261703491e-01 5.9532594680786133e-01</leafValues></_>
        <_>
          <internalNodes>
            0 -1 45 541031 -1185119831 1426739292 144771573 419588148
            -1157494782 1397270952 2015369388</internalNodes>
          <leafValues>
            -5.3296101093292236e-01 4.3463858962059021e-01</leafValues></_>
        <_>
          <internalNodes>
            0 -1 120 -1258826123 -774123859 -830501711 -570634627
            -1351192644 -17500687 -865563477 -604189959</internalNodes>
          <leafValues>
            -4.0506267547607422e-01 5.9749072790145874e-01</leafValues></_>
        <_>
          <internalNodes>
            0 -1 199 -1287195649 -1983610730 1828929838 -163036584
            151177434 961249419 1107395216 696979598</internalNodes>
          <leafValues>
            -4.7952297329902649e-01 4.8263666033744812e-01</leafValues></_></weakClassifiers></_>
    <!-- stage 23 -->
    <_>
      <maxWeakCount>9</maxWeakCount>
      <stageThreshold>-7.2250872850418091e-01</stageThreshold>
      <weakClassifiers>
        <_>
          <internalNodes>
            0 -1 30 -323760142 -2030632978 2144794614 -811073602
            -402854226 -553912459 552937462 1147257924</internalNodes>
          <leafValues>
            -3.2149901986122131e-01 5.1509606838226318e-01</leafValues></_>
        <_>
          <internalNodes>
            0 -1 69 -4981519 -1644213126 741058874 1509545018 -8212
            -2146345516 -1137577094 -850602251</internalNodes>
          <leafValues>
            -3.6209863424301147e-01 5.0760036706924438e-01</leafValues></_>
        <_>
          <internalNodes>
            0 -1 153 430074326 121303182 594184 525846098 4595849
            453564435 -402579251 2075117707</internalNodes>
          <leafValues>
            -5.5931663513183594e-01 3.3719965815544128e-01</leafValues></_>
        <_>
          <internalNodes>
            0 -1 137 -72634369 1801977848 2147471130 1877196795
            -247505027 -1874316034 1307381948 -808981323</internalNodes>
          <leafValues>
            -3.6935698986053467e-01 5.2170068025588989e-01</leafValues></_>
        <_>
          <internalNodes>
            0 -1 194 907415632 1167332257 1098916419 957743754
            -779423569 -1644134269 -525832053 713038249</internalNodes>
          <leafValues>
            -6.2098759412765503e-01 2.9762196540832520e-01</leafValues></_>
        <_>
          <internalNodes>
            0 -1 54 1245146755 1727660015 -185008414 -58720521 788002803
            -522223617 -139180233 -252094989</internalNodes>
          <leafValues>
            -3.9718228578567505e-01 5.2512341737747192e-01</leafValues></_>
        <_>
          <internalNodes>
            0 -1 80 2114551997 1535069838 787017727 360099833 -164472196
            -911340314 620256919 -573571333</internalNodes>
          <leafValues>
            -3.5780033469200134e-01 6.0882532596588135e-01</leafValues></_>
        <_>
          <internalNodes>
            0 -1 133 -1728016384 336732416 1115791365 437522433
            -1991177988 -96796661 1887460822 1880143377</internalNodes>
          <leafValues>
            -7.1705603599548340e-01 3.4092250466346741e-01</leafValues></_>
        <_>
          <internalNodes>
            0 -1 64 -379424500 1913716832 1718545 -1847652318 59908993
            -2129588182 16818312 -213319669</internalNodes>
          <leafValues>
            -5.3863114118576050e-01 3.9737850427627563e-01</leafValues></_></weakClassifiers></_>
    <!-- stage 24 -->
    <_>
      <maxWeakCount>10</maxWeakCount>
      <stageThreshold>-7.1691608428955078e-01</stageThreshold>
      <weakClassifiers>
        <_>
          <internalNodes>
            0 -1 39 -35127813 -3407873 -61538702 -101450014 -33761013
            -1334510480 -151543502 -1856905168</internalNodes>
          <leafValues>
            -4.0589568018913269e-01 4.9956858158111572e-01</leafValues></_>
        <_>
          <internalNodes>
            0 -1 111 1157352541 1353305968 -2013438114 1428628944
            -1632995847 -1678241872 455297183 1000590043</internalNodes>
          <leafValues>
            -3.7059143185615540e-01 4.6184974908828735e-01</leafValues></_>
        <_>
          <internalNodes>
            0 -1 160 1878769535 461289470 -289423684 2142994366
            525786541 152335871 255202460 -872708657</internalNodes>
          <leafValues>
            -3.8347271084785461e-01 4.6870276331901550e-01</leafValues></_>
        <_>
          <internalNodes>
            0 -1 190 973780480 1133511107 1343242506 -1024997519
            286011904 1216544769 -1454849383 1445424285</internalNodes>
          <leafValues>
            -5.8521008491516113e-01 3.1042087078094482e-01</leafValues></_>
        <_>
          <internalNodes>
            0 -1 115 -1555377690 -767393677 -2147482537 855742901
            -1451175049 76611650 1075046538 -1056842970</internalNodes>
          <leafValues>
            -4.4210243225097656e-01 4.2610362172126770e-01</leafValues></_>
        <_>
          <internalNodes>
            0 -1 147 -1096137372 767433192 2147446399 268065812
            -700784917 1059946232 940654715 -336401797</internalNodes>
          <leafValues>
            -3.7064734101295471e-01 5.7831126451492310e-01</leafValues></_>
        <_>
          <internalNodes>
            0 -1 72 1477696053 1838338193 25631006 269259224 -1207943152
            -1463549816 -645873624 150698017</internalNodes>
          <leafValues>
            -6.2684130668640137e-01 3.3207315206527710e-01</leafValues></_>
        <_>
          <internalNodes>
            0 -1 70 -21049523 -2047537215 2147475452 -1850998855
            -1657880940 2113613109 -8405254 -1082132325</internalNodes>
          <leafValues>
            -2.8620487451553345e-01 7.2352910041809082e-01</leafValues></_>
        <_>
          <internalNodes>
            0 -1 173 -1376912203 -16583 -78089 -1293764117 -50364498
            -369098891 -1077938243 -1637727736</internalNodes>
          <leafValues>
            -3.7013456225395203e-01 5.9503263235092163e-01</leafValues></_>
        <_>
          <internalNodes>
            0 -1 23 -199016321 -1108574341 2147467254 1718616061
            2138492604 1342177143 -1212711051 -717496688</internalNodes>
          <leafValues>
            -4.0502181649208069e-01 5.6885993480682373e-01</leafValues></_></weakClassifiers></_></stages>
  <features>
    <_>
      <rect>
        0 0 15 9</rect></_>
    <_>
      <rect>
        0 1 5 32</rect></_>
    <_>
      <rect>
        0 1 8 25</rect></_>
    <_>
      <rect>
        0 2 16 32</rect></_>
    <_>
      <rect>
        0 5 2 27</rect></_>
    <_>
      <rect>
        0 7 8 31</rect></_>
    <_>
      <rect>
        0 9 13 23</rect></_>
    <_>
      <rect>
        0 13 10 20</rect></_>
    <_>
      <rect>
        0 21 7 6</rect></_>
    <_>
      <rect>
        0 22 11 13</rect></_>
    <_>
      <rect>
        0 22 11 17</rect></_>
    <_>
      <rect>
        0 23 11 10</rect></_>
    <_>
      <rect>
        0 25 3 14</rect></_>
    <_>
      <rect>
        0 26 11 6</rect></_>
    <_>
      <rect>
        0 27 11 15</rect></_>
    <_>
      <rect>
        0 30 5 7</rect></_>
    <_>
      <rect>
        0 32 6 11</rect></_>
    <_>
      <rect>
        0 33 9 8</rect></_>
    <_>
      <rect>
        0 37 2 3</rect></_>
    <_>
      <rect>
        0 37 6 7</rect></_>
    <_>
      <rect>
        0 37 9 8</rect></_>
    <_>
      <rect>
        0 39 3 9</rect></_>
    <_>
      <rect>
        0 40 12 8</rect></_>
    <_>
      <rect>
        0 41 1 6</rect></_>
    <_>
      <rect>
        0 45 2 3</rect></_>
    <_>
      <rect>
        0 46 1 2</rect></_>
    <_>
      <rect>
        0 46 3 4</rect></_>
    <_>
      <rect>
        0 49 1 1</rect></_>
    <_>
      <rect>
        0 49 5 7</rect></_>
    <_>
      <rect>
        0 54 1 2</rect></_>
    <_>
      <rect>
        1 2 7 10</rect></_>
    <_>
      <rect>
        1 7 13 11</rect></_>
    <_>
      <rect>
        1 8 8 7</rect></_>
    <_>
      <rect>
        1 12 11 9</rect></_>
    <_>
      <rect>
        1 12 14 19</rect></_>
    <_>
      <rect>
        1 13 12 19</rect></_>
    <_>
      <rect>
        1 16 7 28</rect></_>
    <_>
      <rect>
        1 23 6 7</rect></_>
    <_>
      <rect>
        1 26 11 14</rect></_>
    <_>
      <rect>
        1 28 14 14</rect></_>
    <_>
      <rect>
        1 31 3 2</rect></_>
    <_>
      <rect>
        1 34 16 22</rect></_>
    <_>
      <rect>
        2 4 14 7</rect></_>
    <_>
      <rect>
        2 40 16 12</rect></_>
    <_>
      <rect>
        2 46 16 18</rect></_>
    <_>
      <rect>
        2 87 8 4</rect></_>
    <_>
      <rect>
        3 5 10 10</rect></_>
    <_>
      <rect>
        3 14 11 9</rect></_>
    <_>
      <rect>
        3 36 12 7</rect></_>
    <_>
      <rect>
        3 45 12 5</rect></_>
    <_>
      <rect>
        3 57 15 14</rect></_>
    <_>
      <rect>
        3 61 4 8</rect></_>
    <_>
      <rect>
        4 14 10 5</rect></_>
    <_>
      <rect>
        4 16 15 21</rect></_>
    <_>
      <rect>
        4 20 5 5</rect></_>
    <_>
      <rect>
        4 32 7 12</rect></_>
    <_>
      <rect>
        4 32 7 14</rect></_>
    <_>
      <rect>
        5 33 5 10</rect></_>
    <_>
      <rect>
        5 33 11 6</rect></_>
    <_>
      <rect>
        6 8 14 26</rect></_>
    <_>
      <rect>
        6 29 6 13</rect></_>
    <_>
      <rect>
        6 33 7 8</rect></_>
    <_>
      <rect>
        6 37 8 7</rect></_>
    <_>
      <rect>
        6 39 4 4</rect></_>
    <_>
      <rect>
        7 7 10 11</rect></_>
    <_>
      <rect>
        7 29 12 7</rect></_>
    <_>
      <rect>
        7 47 12 13</rect></_>
    <_>
      <rect>
        8 24 14 15</rect></_>
    <_>
      <rect>
        8 32 6 6</rect></_>
    <_>
      <rect>
        8 35 11 7</rect></_>
    <_>
      <rect>
        8 38 6 6</rect></_>
    <_>
      <rect>
        8 41 10 6</rect></_>
    <_>
      <rect>
        9 40 9 5</rect></_>
    <_>
      <rect>
        9 44 9 5</rect></_>
    <_>
      <rect>
        9 45 12 4</rect></_>
    <_>
      <rect>
        9 46 9 3</rect></_>
    <_>
      <rect>
        9 52 5 2</rect></_>
    <_>
      <rect>
        10 23 10 7</rect></_>
    <_>
      <rect>
        10 28 6 4</rect></_>
    <_>
      <rect>
        10 28 10 8</rect></_>
    <_>
      <rect>
        10 46 8 3</rect></_>
    <_>
      <rect>
        10 47 10 4</rect></_>
    <_>
      <rect>
        10 48 9 3</rect></_>
    <_>
      <rect>
        10 52 2 2</rect></_>
    <_>
      <rect>
        11 34 10 9</rect></_>
    <_>
      <rect>
        11 48 6 4</rect></_>
    <_>
      <rect>
        11 52 13 16</rect></_>
    <_>
      <rect>
        12 6 7 11</rect></_>
    <_>
      <rect>
        12 22 8 6</rect></_>
    <_>
      <rect>
        12 27 10 9</rect></_>
    <_>
      <rect>
        12 34 4 4</rect></_>
    <_>
      <rect>
        12 54 6 3</rect></_>
    <_>
      <rect>
        13 1 7 9</rect></_>
    <_>
      <rect>
        13 5 11 10</rect></_>
    <_>
      <rect>
        13 24 9 8</rect></_>
    <_>
      <rect>
        13 24 10 11</rect></_>
    <_>
      <rect>
        13 32 11 6</rect></_>
    <_>
      <rect>
        13 39 3 2</rect></_>
    <_>
      <rect>
        13 42 4 2</rect></_>
    <_>
      <rect>
        13 42 8 5</rect></_>
    <_>
      <rect>
        13 42 11 6</rect></_>
    <_>
      <rect>
        13 45 3 3</rect></_>
    <_>
      <rect>
        13 46 7 3</rect></_>
    <_>
      <rect>
        13 49 6 6</rect></_>
    <_>
      <rect>
        13 56 4 4</rect></_>
    <_>
      <rect>
        13 60 5 5</rect></_>
    <_>
      <rect>
        14 21 12 17</rect></_>
    <_>
      <rect>
        14 28 12 16</rect></_>
    <_>
      <rect>
        14 43 9 4</rect></_>
    <_>
      <rect>
        14 53 7 4</rect></_>
    <_>
      <rect>
        15 17 10 8</rect></_>
    <_>
      <rect>
        15 43 10 4</rect></_>
    <_>
      <rect>
        15 46 6 3</rect></_>
    <_>
      <rect>
        15 47 7 3</rect></_>
    <_>
      <rect>
        16 9 7 11</rect></_>
    <_>
      <rect>
        16 10 7 11</rect></_>
    <_>
      <rect>
        16 16 8 18</rect></_>
    <_>
      <rect>
        16 27 6 12</rect></_>
    <_>
      <rect>
        16 28 11 14</rect></_>
    <_>
      <rect>
        16 35 11 10</rect></_>
    <_>
      <rect>
        16 38 9 8</rect></_>
    <_>
      <rect>
        16 38 10 7</rect></_>
    <_>
      <rect>
        16 40 8 4</rect></_>
    <_>
      <rect>
        16 43 4 3</rect></_>
    <_>
      <rect>
        16 62 6 12</rect></_>
    <_>
      <rect>
        17 2 11 14</rect></_>
    <_>
      <rect>
        17 22 11 16</rect></_>
    <_>
      <rect>
        17 30 10 11</rect></_>
    <_>
      <rect>
        17 32 7 7</rect></_>
    <_>
      <rect>
        17 44 6 3</rect></_>
    <_>
      <rect>
        17 59 5 5</rect></_>
    <_>
      <rect>
        18 0 10 7</rect></_>
    <_>
      <rect>
        18 44 6 4</rect></_>
    <_>
      <rect>
        18 51 7 4</rect></_>
    <_>
      <rect>
        18 65 1 1</rect></_>
    <_>
      <rect>
        19 31 10 7</rect></_>
    <_>
      <rect>
        19 36 6 6</rect></_>
    <_>
      <rect>
        19 38 9 4</rect></_>
    <_>
      <rect>
        19 46 3 2</rect></_>
    <_>
      <rect>
        19 49 3 2</rect></_>
    <_>
      <rect>
        20 9 8 8</rect></_>
    <_>
      <rect>
        20 17 10 8</rect></_>
    <_>
      <rect>
        20 25 5 7</rect></_>
    <_>
      <rect>
        20 29 10 12</rect></_>
    <_>
      <rect>
        20 30 8 7</rect></_>
    <_>
      <rect>
        20 35 8 9</rect></_>
    <_>
      <rect>
        20 38 10 4</rect></_>
    <_>
      <rect>
        20 42 6 4</rect></_>
    <_>
      <rect>
        20 43 6 4</rect></_>
    <_>
      <rect>
        20 45 4 2</rect></_>
    <_>
      <rect>
        20 46 3 3</rect></_>
    <_>
      <rect>
        20 48 5 3</rect></_>
    <_>
      <rect>
        20 63 3 3</rect></_>
    <_>
      <rect>
        20 70 10 10</rect></_>
    <_>
      <rect>
        21 11 7 9</rect></_>
    <_>
      <rect>
        21 18 8 8</rect></_>
    <_>
      <rect>
        21 23 6 7</rect></_>
    <_>
      <rect>
        21 33 6 12</rect></_>
    <_>
      <rect>
        21 35 7 7</rect></_>
    <_>
      <rect>
        21 46 4 2</rect></_>
    <_>
      <rect>
        22 33 7 6</rect></_>
    <_>
      <rect>
        22 34 8 7</rect></_>
    <_>
      <rect>
        22 45 2 2</rect></_>
    <_>
      <rect>
        22 62 1 1</rect></_>
    <_>
      <rect>
        23 9 9 10</rect></_>
    <_>
      <rect>
        23 20 9 9</rect></_>
    <_>
      <rect>
        23 28 3 4</rect></_>
    <_>
      <rect>
        23 60 1 1</rect></_>
    <_>
      <rect>
        24 37 6 7</rect></_>
    <_>
      <rect>
        24 43 4 2</rect></_>
    <_>
      <rect>
        24 58 5 3</rect></_>
    <_>
      <rect>
        24 65 1 1</rect></_>
    <_>
      <rect>
        24 68 8 5</rect></_>
    <_>
      <rect>
        26 0 8 6</rect></_>
    <_>
      <rect>
        26 19 8 27</rect></_>
    <_>
      <rect>
        26 35 6 9</rect></_>
    <_>
      <rect>
        26 46 8 17</rect></_>
    <_>
      <rect>
        27 52 4 3</rect></_>
    <_>
      <rect>
        28 35 4 4</rect></_>
    <_>
      <rect>
        28 35 6 7</rect></_>
    <_>
      <rect>
        28 46 4 2</rect></_>
    <_>
      <rect>
        28 50 2 2</rect></_>
    <_>
      <rect>
        29 18 7 8</rect></_>
    <_>
      <rect>
        29 36 4 5</rect></_>
    <_>
      <rect>
        29 52 3 4</rect></_>
    <_>
      <rect>
        29 58 7 5</rect></_>
    <_>
      <rect>
        30 1 6 5</rect></_>
    <_>
      <rect>
        30 1 6 10</rect></_>
    <_>
      <rect>
        30 39 3 2</rect></_>
    <_>
      <rect>
        30 40 4 2</rect></_>
    <_>
      <rect>
        31 62 3 3</rect></_>
    <_>
      <rect>
        32 16 6 7</rect></_>
    <_>
      <rect>
        32 29 6 10</rect></_>
    <_>
      <rect>
        32 45 3 4</rect></_>
    <_>
      <rect>
        32 48 4 3</rect></_>
    <_>
      <rect>
        35 8 5 23</rect></_>
    <_>
      <rect>
        35 34 5 3</rect></_>
    <_>
      <rect>
        35 35 5 9</rect></_>
    <_>
      <rect>
        35 55 5 4</rect></_>
    <_>
      <rect>
        36 39 2 3</rect></_>
    <_>
      <rect>
        36 55 4 4</rect></_>
    <_>
      <rect>
        38 1 4 22</rect></_>
    <_>
      <rect>
        41 13 3 20</rect></_>
    <_>
      <rect>
        43 12 2 26</rect></_>
    <_>
      <rect>
        47 31 1 11</rect></_>
    <_>
      <rect>
        47 44 1 1</rect></_></features></cascade>
</opencv_storage>
