<?xml version="1.0"?>
<opencv_storage>
<cascade>
  <stageType>BOOST</stageType>
  <featureType>LBP</featureType>
  <height>100</height>
  <width>50</width>
  <stageParams>
    <boostType>GAB</boostType>
    <minHitRate>9.9900001287460327e-01</minHitRate>
    <maxFalseAlarm>2.0000000298023224e-01</maxFalseAlarm>
    <weightTrimRate>9.4999999999999996e-01</weightTrimRate>
    <maxDepth>1</maxDepth>
    <maxWeakCount>100</maxWeakCount></stageParams>
  <featureParams>
    <maxCatCount>256</maxCatCount>
    <featSize>1</featSize></featureParams>
  <stageNum>25</stageNum>
  <stages>
    <!-- stage 0 -->
    <_>
      <maxWeakCount>6</maxWeakCount>
      <stageThreshold>-3.0191522836685181e-01</stageThreshold>
      <weakClassifiers>
        <_>
          <internalNodes>
            0 -1 5 -517 -330758 -168365326 -235801358 -1109787406
            -1600085776 -789514784 -248458000</internalNodes>
          <leafValues>
            -7.4446338415145874e-01 8.2625865936279297e-01</leafValues></_>
        <_>
          <internalNodes>
            0 -1 7 -67907074 -753814572 16847152 -142475198 411617436
            1073774785 948027994 1497449571</internalNodes>
          <leafValues>
            -7.0101392269134521e-01 6.8164026737213135e-01</leafValues></_>
        <_>
          <internalNodes>
            0 -1 206 -33555201 -537526532 -386013956 -705168149
            -59310593 -598409516 1576918268 1348324604</internalNodes>
          <leafValues>
            -6.1700528860092163e-01 7.5200664997100830e-01</leafValues></_>
        <_>
          <internalNodes>
            0 -1 26 -217853646 -47906750 -2130607859 1560875457
            1611940448 823132289 -503208286 1712407040</internalNodes>
          <leafValues>
            -8.1299912929534912e-01 5.7781749963760376e-01</leafValues></_>
        <_>
          <internalNodes>
            0 -1 164 -1790717510 -586121082 16908456 -171691968
            -1023375224 268439690 167872672 529188523</internalNodes>
          <leafValues>
            -6.9915997982025146e-01 6.6730213165283203e-01</leafValues></_>
        <_>
          <internalNodes>
            0 -1 53 -780870716 -750694124 826343641 -644673528
            -2139032408 -1065353088 -771503448 1095518272</internalNodes>
          <leafValues>
            -7.7976185083389282e-01 5.2361017465591431e-01</leafValues></_></weakClassifiers></_>
    <!-- stage 1 -->
    <_>
      <maxWeakCount>8</maxWeakCount>
      <stageThreshold>-3.6796110868453979e-01</stageThreshold>
      <weakClassifiers>
        <_>
          <internalNodes>
            0 -1 97 -82063173 453058849 4113 268779547 134324475
            310378640 269451403 209371</internalNodes>
          <leafValues>
            -7.6422762870788574e-01 7.0036101341247559e-01</leafValues></_>
        <_>
          <internalNodes>
            0 -1 105 -276840450 -1103456836 1056879280 -1174768646
            -1107296788 253811928 -2014077718 2145118655</internalNodes>
          <leafValues>
            -5.8785837888717651e-01 6.9376647472381592e-01</leafValues></_>
        <_>
          <internalNodes>
            0 -1 209 -779890082 5378 271646776 520097984 -1056386901 136
            2244744 164087963</internalNodes>
          <leafValues>
            -7.1001571416854858e-01 5.3328585624694824e-01</leafValues></_>
        <_>
          <internalNodes>
            0 -1 10 -1023197103 -2108653439 1074200849 -956284927
            -2130081664 0 17137795 1262865939</internalNodes>
          <leafValues>
            -6.7086356878280640e-01 5.7901364564895630e-01</leafValues></_>
        <_>
          <internalNodes>
            0 -1 3 -934885162 272695552 0 1110798635 134316170
            -2147245952 198145 1967902803</internalNodes>
          <leafValues>
            -6.5458148717880249e-01 5.9024882316589355e-01</leafValues></_>
        <_>
          <internalNodes>
            0 -1 87 1238354939 -653062139 20497 151240727 -1694127405
            814228096 1611235499 731716190</internalNodes>
          <leafValues>
            -7.0568579435348511e-01 5.6455051898956299e-01</leafValues></_>
        <_>
          <internalNodes>
            0 -1 109 1376392265 816841221 16875551 152043656 -376962906
            -2013134848 134350059 529481883</internalNodes>
          <leafValues>
            -6.1735361814498901e-01 6.9239580631256104e-01</leafValues></_>
        <_>
          <internalNodes>
            0 -1 154 -754921381 -788529150 69632 276840512 -2013097832
            -1475346432 570526604 1299012755</internalNodes>
          <leafValues>
            -6.9629359245300293e-01 6.0461598634719849e-01</leafValues></_></weakClassifiers></_>
    <!-- stage 2 -->
    <_>
      <maxWeakCount>10</maxWeakCount>
      <stageThreshold>-2.9656270146369934e-01</stageThreshold>
      <weakClassifiers>
        <_>
          <internalNodes>
            0 -1 39 -69208097 -867461885 1082184961 345031424 -796398161
            -626556926 -1006079525 483415</internalNodes>
          <leafValues>
            -7.0454543828964233e-01 6.1206895112991333e-01</leafValues></_>
        <_>
          <internalNodes>
            0 -1 115 -262145 -327689 -587343634 -55187202 -33751557
            -458221584 -118423810 -54396166</internalNodes>
          <leafValues>
            -4.8705312609672546e-01 5.9562504291534424e-01</leafValues></_>
        <_>
          <internalNodes>
            0 -1 269 -558105439 -1871513809 -50348330 1089633850
            -134220554 917500791 -12587289 -526141557</internalNodes>
          <leafValues>
            -4.4927403330802917e-01 6.7455971240997314e-01</leafValues></_>
        <_>
          <internalNodes>
            0 -1 1 -1056190477 285442374 -1056882162 -1736305902
            1361117201 1242234889 1419452513 523462401</internalNodes>
          <leafValues>
            -6.3436299562454224e-01 4.4838246703147888e-01</leafValues></_>
        <_>
          <internalNodes>
            0 -1 204 -1795139384 -45268975 -2146411501 2038895669
            1209051321 -276102239 -2004812849 581878536</internalNodes>
          <leafValues>
            -6.9464540481567383e-01 4.2720636725425720e-01</leafValues></_>
        <_>
          <internalNodes>
            0 -1 257 -1615003791 170143341 1341570938 905865471
            637532413 184549351 2128444894 -738197641</internalNodes>
          <leafValues>
            -4.7729766368865967e-01 6.9791620969772339e-01</leafValues></_>
        <_>
          <internalNodes>
            0 -1 128 -599662377 1442877696 1074106438 1350656156
            -1010183941 -662167308 671194285 -798953319</internalNodes>
          <leafValues>
            -6.1159884929656982e-01 5.4922324419021606e-01</leafValues></_>
        <_>
          <internalNodes>
            0 -1 51 278078939 134580416 -1879047808 -712834684 134819944
            449315018 142737821 703361321</internalNodes>
          <leafValues>
            -6.8964785337448120e-01 4.6317169070243835e-01</leafValues></_>
        <_>
          <internalNodes>
            0 -1 163 -268648633 979959791 -1073774598 972865534
            1069440592 1073510269 -1107624516 -4622337</internalNodes>
          <leafValues>
            -4.9819719791412354e-01 6.5529400110244751e-01</leafValues></_>
        <_>
          <internalNodes>
            0 -1 210 -1761504897 423888664 16777370 -1795159928
            -754941698 -1979449214 691537048 740246283</internalNodes>
          <leafValues>
            -6.6524893045425415e-01 4.9120807647705078e-01</leafValues></_></weakClassifiers></_>
    <!-- stage 3 -->
    <_>
      <maxWeakCount>10</maxWeakCount>
      <stageThreshold>-2.1513141691684723e-01</stageThreshold>
      <weakClassifiers>
        <_>
          <internalNodes>
            0 -1 2 -37249550 -787526 -393232 -135006223 -33948302
            -1048513680 -33595422 -713952398</internalNodes>
          <leafValues>
            -5.0566035509109497e-01 6.2429904937744141e-01</leafValues></_>
        <_>
          <internalNodes>
            0 -1 116 -787623682 1929580802 -1207887154 -745328511
            -1819891447 1078165928 -2012424034 -798367090</internalNodes>
          <leafValues>
            -4.9957916140556335e-01 5.3745001554489136e-01</leafValues></_>
        <_>
          <internalNodes>
            0 -1 294 -1609572641 163841 71303208 301059 17531563
            -2146762751 1107427523 -1467333569</internalNodes>
          <leafValues>
            -4.8773980140686035e-01 5.6571137905120850e-01</leafValues></_>
        <_>
          <internalNodes>
            0 -1 158 1397936385 1981180418 -2138734439 1922015379
            159825151 -216825644 1385359724 1477796869</internalNodes>
          <leafValues>
            -5.9140151739120483e-01 4.7329595685005188e-01</leafValues></_>
        <_>
          <internalNodes>
            0 -1 110 -968564455 -61457216 1051897297 -1355436364
            -140446550 -19442460 -688324887 -68632841</internalNodes>
          <leafValues>
            -4.8415482044219971e-01 6.1881393194198608e-01</leafValues></_>
        <_>
          <internalNodes>
            0 -1 85 -648576561 1376915735 -2129395572 1035094042
            990917000 33850395 705278202 2069811646</internalNodes>
          <leafValues>
            -5.7325994968414307e-01 5.2475976943969727e-01</leafValues></_>
        <_>
          <internalNodes>
            0 -1 113 1465102637 722632845 -1006518011 529252865
            673903238 868813058 742457867 2062221655</internalNodes>
          <leafValues>
            -6.7268985509872437e-01 4.4022774696350098e-01</leafValues></_>
        <_>
          <internalNodes>
            0 -1 84 -788299454 -905437023 -2130673344 1605439548
            -2009004032 1126236162 1791744153 -1694121205</internalNodes>
          <leafValues>
            -5.5518209934234619e-01 5.5798310041427612e-01</leafValues></_>
        <_>
          <internalNodes>
            0 -1 4 -196886326 -779013790 67175090 -780037870 537912043
            1375740708 76161285 -676921209</internalNodes>
          <leafValues>
            -5.8422714471817017e-01 5.5326479673385620e-01</leafValues></_>
        <_>
          <internalNodes>
            0 -1 174 1083388247 -2129129216 -1828648486 -1852801006
            1343563045 403743056 1107368590 403386075</internalNodes>
          <leafValues>
            -6.4934265613555908e-01 4.8843041062355042e-01</leafValues></_></weakClassifiers></_>
    <!-- stage 4 -->
    <_>
      <maxWeakCount>10</maxWeakCount>
      <stageThreshold>-5.2945512533187866e-01</stageThreshold>
      <weakClassifiers>
        <_>
          <internalNodes>
            0 -1 18 2040126919 -846773997 -1037991662 -184331373
            -981111166 -536671742 547750145 5599298</internalNodes>
          <leafValues>
            -7.2560977935791016e-01 5.0157231092453003e-01</leafValues></_>
        <_>
          <internalNodes>
            0 -1 285 -638584897 1049361 939559245 1130515 1074366699
            33624229 277811344 1842868127</internalNodes>
          <leafValues>
            -5.2255356311798096e-01 4.9040666222572327e-01</leafValues></_>
        <_>
          <internalNodes>
            0 -1 246 386932213 -1861517296 -1873117089 419495951
            43548843 -1744629583 -1342176819 488132777</internalNodes>
          <leafValues>
            -6.3406229019165039e-01 4.3314424157142639e-01</leafValues></_>
        <_>
          <internalNodes>
            0 -1 192 -1021660194 2654274 134299674 2031222796 1477104085
            1267335178 1342312596 -810829617</internalNodes>
          <leafValues>
            -5.7734948396682739e-01 4.3555983901023865e-01</leafValues></_>
        <_>
          <internalNodes>
            0 -1 213 -461249577 -461307248 -133169065 -590239413
            143241613 1208200073 -1070800709 412962006</internalNodes>
          <leafValues>
            -6.0976183414459229e-01 4.0062883496284485e-01</leafValues></_>
        <_>
          <internalNodes>
            0 -1 188 1275642502 -1324533481 1543975433 1343858702
            -2142732154 1241598362 -1677626257 1074128399</internalNodes>
          <leafValues>
            -6.1046224832534790e-01 4.3007197976112366e-01</leafValues></_>
        <_>
          <internalNodes>
            0 -1 142 1342215361 -1810755520 -1726934965 -1390408428
            1150304408 -846626732 36223689 782354123</internalNodes>
          <leafValues>
            -6.2268346548080444e-01 4.1899371147155762e-01</leafValues></_>
        <_>
          <internalNodes>
            0 -1 23 -104246841 -1045882872 268521472 1913258132
            -134047472 1083834368 -2146942944 -541857313</internalNodes>
          <leafValues>
            -4.8233845829963684e-01 5.9552419185638428e-01</leafValues></_>
        <_>
          <internalNodes>
            0 -1 47 -273285359 -9961737 -4358287 1865514513 -143819280
            -270239756 -1117325398 -566502155</internalNodes>
          <leafValues>
            -4.4141575694084167e-01 6.2389326095581055e-01</leafValues></_>
        <_>
          <internalNodes>
            0 -1 191 -52429321 -323363329 -16982786 1878894846 -50757903
            -50557711 -1132966768 -87890857</internalNodes>
          <leafValues>
            -4.6760386228561401e-01 5.8265888690948486e-01</leafValues></_></weakClassifiers></_>
    <!-- stage 5 -->
    <_>
      <maxWeakCount>11</maxWeakCount>
      <stageThreshold>-2.2126866877079010e-01</stageThreshold>
      <weakClassifiers>
        <_>
          <internalNodes>
            0 -1 8 -136064521 1064533971 -8519757 453232499 -143370379
            1997628725 2134136305 2068931923</internalNodes>
          <leafValues>
            -4.6370968222618103e-01 5.7065218687057495e-01</leafValues></_>
        <_>
          <internalNodes>
            0 -1 173 -620262913 309477654 1074267230 394936586 682135985
            2038629027 -2118975336 1068458238</internalNodes>
          <leafValues>
            -5.0663799047470093e-01 5.0827777385711670e-01</leafValues></_>
        <_>
          <internalNodes>
            0 -1 135 617856383 465274376 -804679657 221884547 411705431
            192944677 302267051 1000055470</internalNodes>
          <leafValues>
            -6.3611263036727905e-01 4.0910804271697998e-01</leafValues></_>
        <_>
          <internalNodes>
            0 -1 207 1459877618 -49577574 16843444 1399391617
            -1337293397 25722913 1619714764 394971247</internalNodes>
          <leafValues>
            -5.3281164169311523e-01 4.8031720519065857e-01</leafValues></_>
        <_>
          <internalNodes>
            0 -1 197 789583097 -1723662251 134275157 1560823058
            1276182715 -301858791 302617034 726338475</internalNodes>
          <leafValues>
            -5.1225703954696655e-01 4.8648801445960999e-01</leafValues></_>
        <_>
          <internalNodes>
            0 -1 98 -1862184419 -754286336 134316100 -1324449250
            -2079679861 -1475344373 -2070574994 -661530584</internalNodes>
          <leafValues>
            -6.0186451673507690e-01 4.4915935397148132e-01</leafValues></_>
        <_>
          <internalNodes>
            0 -1 123 1510089476 2025934865 475056152 1342375947
            -1467182820 72143398 1666336920 1101563563</internalNodes>
          <leafValues>
            -7.3474395275115967e-01 3.4270858764648438e-01</leafValues></_>
        <_>
          <internalNodes>
            0 -1 42 1658156265 558440627 1141129523 -1503489023
            1392539980 1913799049 -300804062 -645794549</internalNodes>
          <leafValues>
            -5.8995395898818970e-01 3.9993405342102051e-01</leafValues></_>
        <_>
          <internalNodes>
            0 -1 130 1863844252 307700021 71843855 553786517 -343736144
            1242638337 402842254 2122977618</internalNodes>
          <leafValues>
            -7.2787952423095703e-01 3.3268967270851135e-01</leafValues></_>
        <_>
          <internalNodes>
            0 -1 22 1372216079 1882276290 -2147368957 -984809469 8421417
            1084776576 1207976082 -61647979</internalNodes>
          <leafValues>
            -4.7779247164726257e-01 5.3250235319137573e-01</leafValues></_>
        <_>
          <internalNodes>
            0 -1 137 1766245206 185729040 54923478 -2096885438
            1241580112 42115113 -800978840 -2014674913</internalNodes>
          <leafValues>
            -5.5417227745056152e-01 4.8916646838188171e-01</leafValues></_></weakClassifiers></_>
    <!-- stage 6 -->
    <_>
      <maxWeakCount>12</maxWeakCount>
      <stageThreshold>-3.5834577679634094e-01</stageThreshold>
      <weakClassifiers>
        <_>
          <internalNodes>
            0 -1 293 732691935 783226877 -1073840129 142536191
            -2146828803 -1611268129 -1124147201 117111519</internalNodes>
          <leafValues>
            -4.2967244982719421e-01 5.7631820440292358e-01</leafValues></_>
        <_>
          <internalNodes>
            0 -1 224 344380562 -197131743 -2147476203 -669462015
            -2142236521 -1105723254 -905424919 404279825</internalNodes>
          <leafValues>
            -6.0996419191360474e-01 3.9422777295112610e-01</leafValues></_>
        <_>
          <internalNodes>
            0 -1 19 1296552471 1359778139 344209 -1606320093 1074846784
            -1591541695 570548967 1264808341</internalNodes>
          <leafValues>
            -5.5075895786285400e-01 4.1657382249832153e-01</leafValues></_>
        <_>
          <internalNodes>
            0 -1 103 -1024920568 -650438394 310468733 1934860551
            549989547 151158785 -1953381989 321676362</internalNodes>
          <leafValues>
            -5.8201056718826294e-01 4.2789307236671448e-01</leafValues></_>
        <_>
          <internalNodes>
            0 -1 237 -532481 -1073942785 -84091137 -680145176 -597369091
            -587661319 -931865368 -807412646</internalNodes>
          <leafValues>
            -4.3327641487121582e-01 5.7107853889465332e-01</leafValues></_>
        <_>
          <internalNodes>
            0 -1 247 -532265984 -243137445 285302977 -1809889919
            1611285445 939525224 -1467633233 2124076765</internalNodes>
          <leafValues>
            -5.5357491970062256e-01 4.5773917436599731e-01</leafValues></_>
        <_>
          <internalNodes>
            0 -1 88 956680537 -1766027819 772537082 -1791949508
            615736630 -802654992 1059094203 -562189245</internalNodes>
          <leafValues>
            -4.2340725660324097e-01 6.0471826791763306e-01</leafValues></_>
        <_>
          <internalNodes>
            0 -1 187 19433968 -753335920 285245895 -715325431 -804646503
            -644874198 -637433722 1016619456</internalNodes>
          <leafValues>
            -6.8782562017440796e-01 3.8068929314613342e-01</leafValues></_>
        <_>
          <internalNodes>
            0 -1 54 -2100041148 -1307524317 -2147479549 -183762850
            714927 -2113797760 1694733109 -1527954416</internalNodes>
          <leafValues>
            -6.2280023097991943e-01 4.3800503015518188e-01</leafValues></_>
        <_>
          <internalNodes>
            0 -1 41 -206231193 -83935234 2147417788 -67347460 1803515725
            -1376028681 -1484839861 -1715470346</internalNodes>
          <leafValues>
            -4.9848833680152893e-01 5.6623715162277222e-01</leafValues></_>
        <_>
          <internalNodes>
            0 -1 185 139951759 1485833474 -2076114923 -1877925479 205283
            -402063104 1074433103 483375509</internalNodes>
          <leafValues>
            -5.9252256155014038e-01 4.3265101313591003e-01</leafValues></_>
        <_>
          <internalNodes>
            0 -1 165 -419451058 -718209485 -1 -243796113 -436732412
            -948111531 -536875137 -886776246</internalNodes>
          <leafValues>
            -4.5656225085258484e-01 6.1105591058731079e-01</leafValues></_></weakClassifiers></_>
    <!-- stage 7 -->
    <_>
      <maxWeakCount>12</maxWeakCount>
      <stageThreshold>-4.3929952383041382e-01</stageThreshold>
      <weakClassifiers>
        <_>
          <internalNodes>
            0 -1 36 -134217743 -18481345 666009138 1999664882 -33685512
            339017589 -33559558 1700134770</internalNodes>
          <leafValues>
            -4.5021644234657288e-01 5.3427064418792725e-01</leafValues></_>
        <_>
          <internalNodes>
            0 -1 160 -938243 -1141526786 2063571710 -302019841 -33588481
            1960110064 -906576643 -453640961</internalNodes>
          <leafValues>
            -4.2474380135536194e-01 5.2567028999328613e-01</leafValues></_>
        <_>
          <internalNodes>
            0 -1 255 -267281069 -1877125808 -1056746161 948542090
            638097211 134230172 215089584 800533195</internalNodes>
          <leafValues>
            -5.0162017345428467e-01 4.5102396607398987e-01</leafValues></_>
        <_>
          <internalNodes>
            0 -1 44 -1953099314 1194398058 -2146891607 1809129501
            -1979269050 402653192 -243080949 1459978245</internalNodes>
          <leafValues>
            -5.9395539760589600e-01 3.9131256937980652e-01</leafValues></_>
        <_>
          <internalNodes>
            0 -1 144 -771718960 1389887636 -2063396659 -645918503
            -2013214535 -1500938055 -1979136278 1065355160</internalNodes>
          <leafValues>
            -6.3928395509719849e-01 3.7692096829414368e-01</leafValues></_>
        <_>
          <internalNodes>
            0 -1 138 17969373 978502785 1157976444 1209933850 260120
            134971394 -1559772948 -1689691463</internalNodes>
          <leafValues>
            -5.6131219863891602e-01 4.5929285883903503e-01</leafValues></_>
        <_>
          <internalNodes>
            0 -1 24 -411572285 1542617079 -8454283 1328625653 1728997190
            -145246986 2139075575 -977143819</internalNodes>
          <leafValues>
            -4.8565554618835449e-01 5.2836108207702637e-01</leafValues></_>
        <_>
          <internalNodes>
            0 -1 239 1887457499 295982866 1342326933 420610312
            -1509887269 -1711111986 721996437 2078935316</internalNodes>
          <leafValues>
            -5.6641125679016113e-01 4.4285380840301514e-01</leafValues></_>
        <_>
          <internalNodes>
            0 -1 65 -498858149 -788443125 36866 -1992224631 -2130017663
            -1998911358 -1065151862 -181097134</internalNodes>
          <leafValues>
            -5.6733334064483643e-01 4.7974514961242676e-01</leafValues></_>
        <_>
          <internalNodes>
            0 -1 297 -1438816065 -1903268614 -1090519307 2122185463
            1862172654 -167903748 1996488151 -1929402761</internalNodes>
          <leafValues>
            -4.1072875261306763e-01 6.5013128519058228e-01</leafValues></_>
        <_>
          <internalNodes>
            0 -1 75 -637213416 -251193061 16810194 -1751285499
            1890298159 -1475704696 822379075 1078108416</internalNodes>
          <leafValues>
            -6.2763792276382446e-01 4.1297286748886108e-01</leafValues></_>
        <_>
          <internalNodes>
            0 -1 153 1250369405 370311173 -2147482431 354451983 17252504
            202067978 -926870860 2014094330</internalNodes>
          <leafValues>
            -6.2594133615493774e-01 4.1732418537139893e-01</leafValues></_></weakClassifiers></_>
    <!-- stage 8 -->
    <_>
      <maxWeakCount>13</maxWeakCount>
      <stageThreshold>-4.5373633503913879e-01</stageThreshold>
      <weakClassifiers>
        <_>
          <internalNodes>
            0 -1 37 -67108914 -396296209 -67372294 1743847410 -19103794
            1083505662 -301989902 2004352855</internalNodes>
          <leafValues>
            -4.4320711493492126e-01 5.2041703462600708e-01</leafValues></_>
        <_>
          <internalNodes>
            0 -1 201 -503100601 -687472342 42087436 1474777986
            -231652433 1090529924 -1967090672 -1615613969</internalNodes>
          <leafValues>
            -3.3551457524299622e-01 5.8086609840393066e-01</leafValues></_>
        <_>
          <internalNodes>
            0 -1 230 269017139 503844952 1091592469 -821018166 412106954
            -1148715005 1510354157 999555247</internalNodes>
          <leafValues>
            -5.0679409503936768e-01 4.2569413781166077e-01</leafValues></_>
        <_>
          <internalNodes>
            0 -1 73 -1879125193 1866076245 -289538118 925085441
            -554650156 -765430192 1065150334 -268714773</internalNodes>
          <leafValues>
            -3.2634216547012329e-01 6.7714929580688477e-01</leafValues></_>
        <_>
          <internalNodes>
            0 -1 34 -644703997 -1232925429 33686544 -921625598
            -1995599585 268568576 -2126151677 -60566320</internalNodes>
          <leafValues>
            -5.0096678733825684e-01 4.5939195156097412e-01</leafValues></_>
        <_>
          <internalNodes>
            0 -1 275 -1757850049 -2075975294 268435907 -532180449
            -1006567154 -560594894 -503246715 546238690</internalNodes>
          <leafValues>
            -6.3806617259979248e-01 3.7731665372848511e-01</leafValues></_>
        <_>
          <internalNodes>
            0 -1 114 -870716156 32901 285672856 1101373601 1217110577
            -1006141055 -1836891393 -363519290</internalNodes>
          <leafValues>
            -5.1357609033584595e-01 4.7310218214988708e-01</leafValues></_>
        <_>
          <internalNodes>
            0 -1 215 1477066912 453509166 -2121189999 -1642960871
            -2146680678 -1355120639 -1459057495 1552421015</internalNodes>
          <leafValues>
            -6.4705020189285278e-01 3.6665397882461548e-01</leafValues></_>
        <_>
          <internalNodes>
            0 -1 29 -1124374811 -1108623378 2130602687 -151094281
            -1488505059 1064763381 880278823 -335551053</internalNodes>
          <leafValues>
            -4.5417895913124084e-01 5.5795085430145264e-01</leafValues></_>
        <_>
          <internalNodes>
            0 -1 167 -124255213 -1114141103 -1629028387 1413593049
            2145956559 -452997958 -840638513 -1179396249</internalNodes>
          <leafValues>
            -3.6069998145103455e-01 6.9520950317382812e-01</leafValues></_>
        <_>
          <internalNodes>
            0 -1 68 487405670 327770691 -1878720445 1111556104
            -1054203636 537100810 537033455 1607053929</internalNodes>
          <leafValues>
            -6.0097438097000122e-01 4.3369662761688232e-01</leafValues></_>
        <_>
          <internalNodes>
            0 -1 223 -1573104157 -136786072 -37957889 368398060
            2096955391 987365112 -306968431 -270037133</internalNodes>
          <leafValues>
            -3.8148623704910278e-01 6.6120725870132446e-01</leafValues></_>
        <_>
          <internalNodes>
            0 -1 178 -1064068974 118849744 1351680153 -1252327119
            8399016 -1293410152 671711697 504128432</internalNodes>
          <leafValues>
            -6.0100835561752319e-01 4.3065965175628662e-01</leafValues></_></weakClassifiers></_>
    <!-- stage 9 -->
    <_>
      <maxWeakCount>11</maxWeakCount>
      <stageThreshold>-3.3141189813613892e-01</stageThreshold>
      <weakClassifiers>
        <_>
          <internalNodes>
            0 -1 183 -402658744 -806367258 -264 -218112273 201227519
            807728144 1988657397 1363860298</internalNodes>
          <leafValues>
            -4.3999999761581421e-01 4.9957448244094849e-01</leafValues></_>
        <_>
          <internalNodes>
            0 -1 301 -1465126925 -1442972162 -1025 914276350 -1107444226
            503316478 1071087359 -1828782149</internalNodes>
          <leafValues>
            -3.6933392286300659e-01 4.9014756083488464e-01</leafValues></_>
        <_>
          <internalNodes>
            0 -1 277 -590488193 -656081160 -65793 519892731 889043830
            -1426584072 1283331823 -1057353</internalNodes>
          <leafValues>
            -3.2201564311981201e-01 6.1750042438507080e-01</leafValues></_>
        <_>
          <internalNodes>
            0 -1 40 1990157510 1093943553 335609900 -2033237562
            -1979054779 353468418 295711331 1892608019</internalNodes>
          <leafValues>
            -6.6564542055130005e-01 3.2804331183433533e-01</leafValues></_>
        <_>
          <internalNodes>
            0 -1 156 1774458307 -593244580 211529727 -38294341
            -251913157 -71577928 2106645999 -84031237</internalNodes>
          <leafValues>
            -3.5995247960090637e-01 6.8183183670043945e-01</leafValues></_>
        <_>
          <internalNodes>
            0 -1 233 -880623615 1545183529 -1610612587 -581758773
            -2126333637 -648984061 162029791 1286535629</internalNodes>
          <leafValues>
            -4.7923746705055237e-01 4.8495048284530640e-01</leafValues></_>
        <_>
          <internalNodes>
            0 -1 193 1171622471 -938475297 1078039824 -183280848
            -788029055 -2108663771 -784645560 -1121913437</internalNodes>
          <leafValues>
            -4.7402608394622803e-01 5.2906161546707153e-01</leafValues></_>
        <_>
          <internalNodes>
            0 -1 13 -109372229 2112839652 -25247755 1065180927
            2129248036 2013181949 1073725364 -5513867</internalNodes>
          <leafValues>
            -3.0899056792259216e-01 6.7696279287338257e-01</leafValues></_>
        <_>
          <internalNodes>
            0 -1 281 873202504 34119680 -1979502582 -2037039007 31466163
            -1163835776 405408927 1070081512</internalNodes>
          <leafValues>
            -6.7935544252395630e-01 3.5197374224662781e-01</leafValues></_>
        <_>
          <internalNodes>
            0 -1 9 -1828220210 -758036975 1879048418 1388445840
            142776771 822640786 -2138536733 -683158640</internalNodes>
          <leafValues>
            -6.0264331102371216e-01 3.8858106732368469e-01</leafValues></_>
        <_>
          <internalNodes>
            0 -1 21 -445389977 -521404546 -318834826 -1627521029
            -606096291 530251389 -704782382 -69730305</internalNodes>
          <leafValues>
            -3.7063321471214294e-01 6.7435395717620850e-01</leafValues></_></weakClassifiers></_>
    <!-- stage 10 -->
    <_>
      <maxWeakCount>14</maxWeakCount>
      <stageThreshold>-4.2672848701477051e-01</stageThreshold>
      <weakClassifiers>
        <_>
          <internalNodes>
            0 -1 152 -28852252 -35193860 -1426345218 -16646 -1610613256
            1165260816 1022817532 186881788</internalNodes>
          <leafValues>
            -4.4315543770790100e-01 5.0556027889251709e-01</leafValues></_>
        <_>
          <internalNodes>
            0 -1 235 -344989305 1962917671 -1107296644 855563963
            1591667935 -386158658 -1207959809 -1297548786</internalNodes>
          <leafValues>
            -3.6629500985145569e-01 5.1000541448593140e-01</leafValues></_>
        <_>
          <internalNodes>
            0 -1 248 -804002745 -732233515 -637435731 -1868758251
            -1601488496 656527760 -696215397 1389103194</internalNodes>
          <leafValues>
            -4.9439805746078491e-01 3.9312145113945007e-01</leafValues></_>
        <_>
          <internalNodes>
            0 -1 227 -1949125296 143225039 1745879075 -1026129812
            151060564 -133611518 -799741631 -16992033</internalNodes>
          <leafValues>
            -4.7383961081504822e-01 4.2534637451171875e-01</leafValues></_>
        <_>
          <internalNodes>
            0 -1 216 1870684533 1900969990 1090650255 1426391505
            1848280248 -1819737983 599813820 243438516</internalNodes>
          <leafValues>
            -5.9041279554367065e-01 3.4894415736198425e-01</leafValues></_>
        <_>
          <internalNodes>
            0 -1 132 -706592611 1226018289 229410845 -46293376
            1016517689 -1929720008 -1698965814 -1192242093</internalNodes>
          <leafValues>
            -3.4188097715377808e-01 6.4736258983612061e-01</leafValues></_>
        <_>
          <internalNodes>
            0 -1 48 1158791673 -1012289379 268501232 322967688 434268185
            1052698 883661003 2117484832</internalNodes>
          <leafValues>
            -6.2339270114898682e-01 3.3962094783782959e-01</leafValues></_>
        <_>
          <internalNodes>
            0 -1 194 -1811677357 -184188395 -1878982651 -1589518317
            -115780474 -930839872 -2078238236 -1610237363</internalNodes>
          <leafValues>
            -4.9135971069335938e-01 4.7088485956192017e-01</leafValues></_>
        <_>
          <internalNodes>
            0 -1 92 -1068465322 -251507635 -1996423143 -142540717
            -1979270971 1242202400 426840658 1310982144</internalNodes>
          <leafValues>
            -6.1099344491958618e-01 3.7121620774269104e-01</leafValues></_>
        <_>
          <internalNodes>
            0 -1 242 -1526082668 1182795973 436289568 1166039313
            -1333712785 160202880 427958313 1336873100</internalNodes>
          <leafValues>
            -6.1964988708496094e-01 3.4291821718215942e-01</leafValues></_>
        <_>
          <internalNodes>
            0 -1 127 1359446383 2067961089 -2095184822 1971458096
            1086165544 -900128231 -652540716 -1621800818</internalNodes>
          <leafValues>
            -4.6952253580093384e-01 4.9959886074066162e-01</leafValues></_>
        <_>
          <internalNodes>
            0 -1 16 293818855 616777552 -805273534 695206313 1124162050
            1074003968 1208243956 -8140671</internalNodes>
          <leafValues>
            -4.7200605273246765e-01 4.9485275149345398e-01</leafValues></_>
        <_>
          <internalNodes>
            0 -1 74 -905662971 -1721901823 8388630 -1744468588
            -2146795369 147198064 -2136503926 2065763537</internalNodes>
          <leafValues>
            -6.1928272247314453e-01 3.8781422376632690e-01</leafValues></_>
        <_>
          <internalNodes>
            0 -1 81 -29267253 -1162075047 -10162529 -571376253
            1953265312 1585210911 2097081838 -17854793</internalNodes>
          <leafValues>
            -3.3433824777603149e-01 7.0891046524047852e-01</leafValues></_></weakClassifiers></_>
    <!-- stage 11 -->
    <_>
      <maxWeakCount>12</maxWeakCount>
      <stageThreshold>-2.4229353666305542e-01</stageThreshold>
      <weakClassifiers>
        <_>
          <internalNodes>
            0 -1 72 -17859097 846952271 2147482485 1013066426 2143163734
            70467442 -1250093067 2130704186</internalNodes>
          <leafValues>
            -2.7332243323326111e-01 5.7330638170242310e-01</leafValues></_>
        <_>
          <internalNodes>
            0 -1 262 -510273065 353833043 805378069 227020951 168125611
            -662699896 780730501 507526077</internalNodes>
          <leafValues>
            -5.2302533388137817e-01 3.7124073505401611e-01</leafValues></_>
        <_>
          <internalNodes>
            0 -1 170 -2112888530 -184413723 -1877931970 1401097683
            -1992261141 539035779 -2122266101 -240584273</internalNodes>
          <leafValues>
            -4.4257324934005737e-01 4.6345925331115723e-01</leafValues></_>
        <_>
          <internalNodes>
            0 -1 208 -1342045933 -553515501 -2135883772 339935251
            -1190976733 -927956336 -2012621653 -662105349</internalNodes>
          <leafValues>
            -4.2322462797164917e-01 4.5938819646835327e-01</leafValues></_>
        <_>
          <internalNodes>
            0 -1 145 605041808 -1656192869 394494353 -652410091
            429105340 -1974959957 -1861581861 504078496</internalNodes>
          <leafValues>
            -6.1453282833099365e-01 3.3240619301795959e-01</leafValues></_>
        <_>
          <internalNodes>
            0 -1 133 -1777610159 -1641655076 649113493 421207257
            -442302801 -2042142979 -2044298536 -1112482049</internalNodes>
          <leafValues>
            -3.4914207458496094e-01 6.1755836009979248e-01</leafValues></_>
        <_>
          <internalNodes>
            0 -1 20 -584864473 -1522106528 2004777758 812556137
            -1359524842 2147483639 -1897925135 -542115851</internalNodes>
          <leafValues>
            -4.0097442269325256e-01 5.2900296449661255e-01</leafValues></_>
        <_>
          <internalNodes>
            0 -1 264 587596263 387195202 -1878712164 -1152843373
            159453572 1778632857 -1205270319 2042331378</internalNodes>
          <leafValues>
            -4.9183481931686401e-01 4.4291868805885315e-01</leafValues></_>
        <_>
          <internalNodes>
            0 -1 245 642129971 -872275642 1409304607 -465272616
            1099548720 -435879936 -2123923360 -1426289442</internalNodes>
          <leafValues>
            -5.2638363838195801e-01 4.2663097381591797e-01</leafValues></_>
        <_>
          <internalNodes>
            0 -1 249 748300476 1469251968 -2080372397 -989723886
            16782933 -1171631999 1073905857 1555428646</internalNodes>
          <leafValues>
            -6.8262994289398193e-01 3.3039528131484985e-01</leafValues></_>
        <_>
          <internalNodes>
            0 -1 219 274279859 2020548470 -16650 -138859779 -1073867162
            -1896513602 -1115701276 -1343007398</internalNodes>
          <leafValues>
            -4.0002882480621338e-01 5.7541400194168091e-01</leafValues></_>
        <_>
          <internalNodes>
            0 -1 292 -66146298 553684992 -1877997031 848435475
            -2004871062 1233690770 -2139061621 1933750799</internalNodes>
          <leafValues>
            -6.0820716619491577e-01 3.8537365198135376e-01</leafValues></_></weakClassifiers></_>
    <!-- stage 12 -->
    <_>
      <maxWeakCount>13</maxWeakCount>
      <stageThreshold>-2.9814964532852173e-01</stageThreshold>
      <weakClassifiers>
        <_>
          <internalNodes>
            0 -1 155 1068699645 307387183 2142207998 402786856 938988564
            1265065812 795743388 2071693048</internalNodes>
          <leafValues>
            -3.5934290289878845e-01 5.1662176847457886e-01</leafValues></_>
        <_>
          <internalNodes>
            0 -1 6 377280 -1608769472 -2147368766 -883518397 680167434
            -1031765888 -286751837 -989518079</internalNodes>
          <leafValues>
            -5.3415828943252563e-01 3.5882496833801270e-01</leafValues></_>
        <_>
          <internalNodes>
            0 -1 265 -1996347042 34637056 -1274862795 -1660567552
            612567307 445284496 595788432 2070790574</internalNodes>
          <leafValues>
            -5.2855747938156128e-01 3.9417564868927002e-01</leafValues></_>
        <_>
          <internalNodes>
            0 -1 222 -2121543258 1879048206 -2130145214 -1387855854
            1623213093 67641347 1342374384 -371539269</internalNodes>
          <leafValues>
            -5.5125004053115845e-01 3.3867114782333374e-01</leafValues></_>
        <_>
          <internalNodes>
            0 -1 176 528629880 -926065600 4792767 -146337454 1744996554
            1488789656 704702636 152197146</internalNodes>
          <leafValues>
            -5.6494367122650146e-01 3.4573912620544434e-01</leafValues></_>
        <_>
          <internalNodes>
            0 -1 94 1296648837 -654046460 33474 -1727592427 -1039950853
            8520328 -670254834 -530540374</internalNodes>
          <leafValues>
            -5.5577129125595093e-01 3.7048724293708801e-01</leafValues></_>
        <_>
          <internalNodes>
            0 -1 119 -1878902480 278309264 75598619 -1309599679
            226547355 -661815079 -905827106 789073977</internalNodes>
          <leafValues>
            -6.1584335565567017e-01 3.5567033290863037e-01</leafValues></_>
        <_>
          <internalNodes>
            0 -1 200 626414991 738934808 92357512 1565687811 33599653
            34209929 1073823880 -1168610656</internalNodes>
          <leafValues>
            -4.8414811491966248e-01 4.4878765940666199e-01</leafValues></_>
        <_>
          <internalNodes>
            0 -1 159 -991235818 1493184869 8458885 1095996498 18653359
            -1006401508 -586987389 1130613763</internalNodes>
          <leafValues>
            -5.2688533067703247e-01 4.0952417254447937e-01</leafValues></_>
        <_>
          <internalNodes>
            0 -1 268 -1073725266 1964060813 16830477 -233684862
            1208002570 -1270873979 -2010445590 143163399</internalNodes>
          <leafValues>
            -5.8771210908889771e-01 3.6261683702468872e-01</leafValues></_>
        <_>
          <internalNodes>
            0 -1 91 -956579837 -1145622886 -1367773611 -1279336708
            -244877575 1736244805 -457158935 -91358033</internalNodes>
          <leafValues>
            -3.2095351815223694e-01 6.9149833917617798e-01</leafValues></_>
        <_>
          <internalNodes>
            0 -1 263 136147735 -1827204267 -1788852791 533757952
            562168063 1646985472 729883409 1577484891</internalNodes>
          <leafValues>
            -6.2648040056228638e-01 3.5932204127311707e-01</leafValues></_>
        <_>
          <internalNodes>
            0 -1 79 -2146451047 436257286 17047566 772842496 -1741814396
            939565064 1091945346 -1255439841</internalNodes>
          <leafValues>
            -4.6798819303512573e-01 5.0342404842376709e-01</leafValues></_></weakClassifiers></_>
    <!-- stage 13 -->
    <_>
      <maxWeakCount>13</maxWeakCount>
      <stageThreshold>-7.0065003633499146e-01</stageThreshold>
      <weakClassifiers>
        <_>
          <internalNodes>
            0 -1 56 -420582546 1852538878 2128571942 1509916394
            256841487 393969535 -134220174 1925117951</internalNodes>
          <leafValues>
            -3.5952848196029663e-01 5.3437215089797974e-01</leafValues></_>
        <_>
          <internalNodes>
            0 -1 228 -16785665 -843063563 -302059521 -151662858
            1584782581 -860594832 -386654980 -340078897</internalNodes>
          <leafValues>
            -3.2133203744888306e-01 5.4188418388366699e-01</leafValues></_>
        <_>
          <internalNodes>
            0 -1 58 -406556241 423690501 201342991 1442956563 1611884667
            1914863744 11258586 732856483</internalNodes>
          <leafValues>
            -4.6493059396743774e-01 4.1951411962509155e-01</leafValues></_>
        <_>
          <internalNodes>
            0 -1 0 -669860270 1573048597 218366297 -1177220598
            -1330344787 -478034377 319562666 925450637</internalNodes>
          <leafValues>
            -4.8125606775283813e-01 4.1337475180625916e-01</leafValues></_>
        <_>
          <internalNodes>
            0 -1 86 1152613759 -617324973 716274484 -1684130554
            -46568065 1475960561 -381756238 -17275813</internalNodes>
          <leafValues>
            -3.9377272129058838e-01 5.1667577028274536e-01</leafValues></_>
        <_>
          <internalNodes>
            0 -1 131 -1354280839 579438477 1343247900 93651104
            -1873919217 406851752 -1686085797 195364963</internalNodes>
          <leafValues>
            -4.6996915340423584e-01 4.6545368432998657e-01</leafValues></_>
        <_>
          <internalNodes>
            0 -1 288 -1551391460 -1744793600 268501251 411095040
            1099392314 197158680 679609504 924565700</internalNodes>
          <leafValues>
            -7.2761785984039307e-01 2.8071707487106323e-01</leafValues></_>
        <_>
          <internalNodes>
            0 -1 12 1087291591 -783581183 268566659 -133970829 8421540
            1074085889 -1935327071 -1691270542</internalNodes>
          <leafValues>
            -5.5614727735519409e-01 3.9556404948234558e-01</leafValues></_>
        <_>
          <internalNodes>
            0 -1 150 -1599909466 -2133092074 1074350145 1250116640
            -909999805 33591361 -509949262 842979755</internalNodes>
          <leafValues>
            -5.6021159887313843e-01 3.9158692955970764e-01</leafValues></_>
        <_>
          <internalNodes>
            0 -1 252 5509238 -261406691 163859 840434049 -1977925088
            1669988626 302745742 -293437235</internalNodes>
          <leafValues>
            -4.8210939764976501e-01 4.7018346190452576e-01</leafValues></_>
        <_>
          <internalNodes>
            0 -1 280 1912838603 -2143288536 1627525131 -332068336
            -1472010077 704643722 170010634 -1244804097</internalNodes>
          <leafValues>
            -4.6603146195411682e-01 4.7954991459846497e-01</leafValues></_>
        <_>
          <internalNodes>
            0 -1 179 -1055702014 -1060289526 335560787 1024409858
            1342809001 419528706 671146112 1537882757</internalNodes>
          <leafValues>
            -5.5945116281509399e-01 4.3600365519523621e-01</leafValues></_>
        <_>
          <internalNodes>
            0 -1 205 -1408502923 -1472700389 285279491 -703901110
            1082479140 -805306229 -1732009304 -1405459413</internalNodes>
          <leafValues>
            -4.8439952731132507e-01 4.9887663125991821e-01</leafValues></_></weakClassifiers></_>
    <!-- stage 14 -->
    <_>
      <maxWeakCount>15</maxWeakCount>
      <stageThreshold>-6.5922331809997559e-01</stageThreshold>
      <weakClassifiers>
        <_>
          <internalNodes>
            0 -1 161 -271319553 -545325346 -185008934 -42082562
            -34144776 -447739915 -23790412 -577714960</internalNodes>
          <leafValues>
            -3.9830508828163147e-01 5.2127659320831299e-01</leafValues></_>
        <_>
          <internalNodes>
            0 -1 232 -1642218377 2107053329 1661124691 -1273114302
            159514755 -938891264 -1060599324 319546562</internalNodes>
          <leafValues>
            -3.8844728469848633e-01 4.4411322474479675e-01</leafValues></_>
        <_>
          <internalNodes>
            0 -1 121 -329772474 42468373 -1073541031 1406531744
            160079595 1363878476 -1438096919 5081102</internalNodes>
          <leafValues>
            -5.3705179691314697e-01 3.2563427090644836e-01</leafValues></_>
        <_>
          <internalNodes>
            0 -1 198 381932603 -1432728254 2126269694 -1883743135
            -1208984369 1062862713 -323105030 -298360877</internalNodes>
          <leafValues>
            -2.8723403811454773e-01 6.6134315729141235e-01</leafValues></_>
        <_>
          <internalNodes>
            0 -1 101 -1772928565 1209566214 18120834 -213708522
            1635819683 -1375633192 33575059 171954422</internalNodes>
          <leafValues>
            -4.9696841835975647e-01 3.8195300102233887e-01</leafValues></_>
        <_>
          <internalNodes>
            0 -1 190 -753558924 -1694250986 203334 -251559274
            -2130616319 -267343615 -1593513415 -371118550</internalNodes>
          <leafValues>
            -4.8257049918174744e-01 4.2084544897079468e-01</leafValues></_>
        <_>
          <internalNodes>
            0 -1 220 -1068587698 -157990383 423723293 815147525
            -2142822399 -1952841702 -2126389026 -1305586646</internalNodes>
          <leafValues>
            -4.5293518900871277e-01 4.7104433178901672e-01</leafValues></_>
        <_>
          <internalNodes>
            0 -1 71 -2113690174 1073766435 1074168080 -2109996331
            -1065341948 1166708746 10127751 982489734</internalNodes>
          <leafValues>
            -6.3171106576919556e-01 3.4257119894027710e-01</leafValues></_>
        <_>
          <internalNodes>
            0 -1 181 -1539379535 -571542041 -268566545 2138628081
            988999606 -285844620 -285739320 -1970911516</internalNodes>
          <leafValues>
            -3.6049333214759827e-01 5.8625972270965576e-01</leafValues></_>
        <_>
          <internalNodes>
            0 -1 78 -135364757 2133090160 -786437 -408462735 2133653304
            -1628151819 1071451453 -1077013089</internalNodes>
          <leafValues>
            -4.1070410609245300e-01 5.1991140842437744e-01</leafValues></_>
        <_>
          <internalNodes>
            0 -1 286 269996795 201819139 -1287061503 -240015103
            813793635 1000050690 -930542968 1285538315</internalNodes>
          <leafValues>
            -4.7383970022201538e-01 4.7861391305923462e-01</leafValues></_>
        <_>
          <internalNodes>
            0 -1 57 257888575 -616545918 168100864 398647425 708337709
            1778958560 -469163864 -286289751</internalNodes>
          <leafValues>
            -4.9910774827003479e-01 4.6265098452568054e-01</leafValues></_>
        <_>
          <internalNodes>
            0 -1 64 25192460 1684094977 285234579 -82341804 -1023393585
            -1458749021 68715200 -831815503</internalNodes>
          <leafValues>
            -4.5518308877944946e-01 5.1523530483245850e-01</leafValues></_>
        <_>
          <internalNodes>
            0 -1 95 187198474 -1811249877 55575961 298024968 1145739363
            1778442243 -1018640251 1787609549</internalNodes>
          <leafValues>
            -6.5526288747787476e-01 3.7929919362068176e-01</leafValues></_>
        <_>
          <internalNodes>
            0 -1 146 302629504 1376389120 -2054270767 2030502419
            -1718992728 -1618870144 21497986 1184992467</internalNodes>
          <leafValues>
            -6.3715887069702148e-01 3.6152467131614685e-01</leafValues></_></weakClassifiers></_>
    <!-- stage 15 -->
    <_>
      <maxWeakCount>14</maxWeakCount>
      <stageThreshold>-1.5419940650463104e-01</stageThreshold>
      <weakClassifiers>
        <_>
          <internalNodes>
            0 -1 14 -34078721 -1149501442 -1913129117 -776946463
            -168298755 -160762766 -172960335 -1806471056</internalNodes>
          <leafValues>
            -3.3086875081062317e-01 5.4674220085144043e-01</leafValues></_>
        <_>
          <internalNodes>
            0 -1 251 1481431815 -681777531 -2013249244 -2142249600
            -1056414918 -661061376 -553334134 -503279093</internalNodes>
          <leafValues>
            -3.5939559340476990e-01 4.6674835681915283e-01</leafValues></_>
        <_>
          <internalNodes>
            0 -1 271 -1325235913 387088916 -2130640560 -2003906465
            90714365 176752937 588197937 200233872</internalNodes>
          <leafValues>
            -5.7713675498962402e-01 3.3786827325820923e-01</leafValues></_>
        <_>
          <internalNodes>
            0 -1 172 -151126017 -528453 -285676038 -1696718634 -83887119
            -1412663447 -57393210 -1098004658</internalNodes>
          <leafValues>
            -3.7082472443580627e-01 5.1087129116058350e-01</leafValues></_>
        <_>
          <internalNodes>
            0 -1 148 -981072598 1409320714 -728196907 1779093777
            269224334 -2077324672 1117854678 1827195333</internalNodes>
          <leafValues>
            -5.9269839525222778e-01 3.3717527985572815e-01</leafValues></_>
        <_>
          <internalNodes>
            0 -1 244 -1430528231 -1435795730 -285231234 -1058017664
            -302021039 -1612185731 -1091190813 -593768849</internalNodes>
          <leafValues>
            -3.7611174583435059e-01 5.6110328435897827e-01</leafValues></_>
        <_>
          <internalNodes>
            0 -1 50 1376238289 -125870095 800767725 -617876621
            1461609782 -1258957347 80295416 -321913730</internalNodes>
          <leafValues>
            -3.5330036282539368e-01 6.1033129692077637e-01</leafValues></_>
        <_>
          <internalNodes>
            0 -1 66 -804011968 1628504080 135397404 337268776
            -1331101000 949563524 -1430200256 464119818</internalNodes>
          <leafValues>
            -5.6237053871154785e-01 4.1350299119949341e-01</leafValues></_>
        <_>
          <internalNodes>
            0 -1 27 -277907615 1651494604 -285214170 -764248330
            -1921009849 1722809845 -159541835 -143135245</internalNodes>
          <leafValues>
            -3.9159509539604187e-01 5.9274739027023315e-01</leafValues></_>
        <_>
          <internalNodes>
            0 -1 284 -921939709 -653639677 1409356822 -971816831
            1309313675 1351160064 134250897 1631645607</internalNodes>
          <leafValues>
            -5.4359894990921021e-01 4.2537638545036316e-01</leafValues></_>
        <_>
          <internalNodes>
            0 -1 60 437060633 1621152000 42008586 1276149834 1879590415
            1087017096 -1071478318 -1471548534</internalNodes>
          <leafValues>
            -5.1739054918289185e-01 4.2542961239814758e-01</leafValues></_>
        <_>
          <internalNodes>
            0 -1 168 1612738600 1428160560 1180830 -1085456352
            -1979182950 -1186987360 -134163785 1759570581</internalNodes>
          <leafValues>
            -7.9752868413925171e-01 2.9219311475753784e-01</leafValues></_>
        <_>
          <internalNodes>
            0 -1 283 -1092632815 -570491074 -353374742 820702783 -524428
            -2097219721 2130632686 -932049689</internalNodes>
          <leafValues>
            -4.4550904631614685e-01 5.0836980342864990e-01</leafValues></_>
        <_>
          <internalNodes>
            0 -1 35 1883533470 1074487360 1082130569 357154837
            1073897523 -1002438565 -534740797 -542939460</internalNodes>
          <leafValues>
            -4.3998554348945618e-01 4.9367973208427429e-01</leafValues></_></weakClassifiers></_>
    <!-- stage 16 -->
    <_>
      <maxWeakCount>14</maxWeakCount>
      <stageThreshold>-6.9412368535995483e-01</stageThreshold>
      <weakClassifiers>
        <_>
          <internalNodes>
            0 -1 32 -292566318 2024538042 -1074282497 -67899411
            -1438929209 2130148849 649455185 7195728</internalNodes>
          <leafValues>
            -3.5053762793540955e-01 4.9603524804115295e-01</leafValues></_>
        <_>
          <internalNodes>
            0 -1 124 -1056751483 319152156 -738115562 1342505995
            554141611 1084266114 -1341845989 -989731170</internalNodes>
          <leafValues>
            -4.2504882812500000e-01 3.8819190859794617e-01</leafValues></_>
        <_>
          <internalNodes>
            0 -1 282 1761932256 1897470208 277369242 402931800 687886606
            -1308065787 302428846 1491268491</internalNodes>
          <leafValues>
            -5.2427911758422852e-01 3.4230437874794006e-01</leafValues></_>
        <_>
          <internalNodes>
            0 -1 141 -1399914405 -1285084455 -1782788136 -1626537827
            -465639789 803593976 -1087767749 -283126021</internalNodes>
          <leafValues>
            -2.3673067986965179e-01 7.8512686491012573e-01</leafValues></_>
        <_>
          <internalNodes>
            0 -1 151 -65541 2109537981 -98312 -1700937990 -59408387
            1051295707 -536923270 -178597461</internalNodes>
          <leafValues>
            -3.4627500176429749e-01 5.4491770267486572e-01</leafValues></_>
        <_>
          <internalNodes>
            0 -1 241 -1827460608 587698197 -1962862580 -803924575
            1635944585 1804275848 4241928 1032706074</internalNodes>
          <leafValues>
            -6.3607329130172729e-01 3.0123654007911682e-01</leafValues></_>
        <_>
          <internalNodes>
            0 -1 15 1208172926 -649526844 171968770 294822018 143427724
            1562935321 -1937471351 -748486077</internalNodes>
          <leafValues>
            -4.2886722087860107e-01 4.7800421714782715e-01</leafValues></_>
        <_>
          <internalNodes>
            0 -1 273 -1189683149 148275266 -2146369410 1367458112
            -1978615653 680591489 1225277872 1275716239</internalNodes>
          <leafValues>
            -5.3619968891143799e-01 3.7841603159904480e-01</leafValues></_>
        <_>
          <internalNodes>
            0 -1 43 -2084470553 1574504629 1342210163 353767502
            -1475867473 -1149230974 261128899 1084687280</internalNodes>
          <leafValues>
            -5.4226875305175781e-01 3.7918090820312500e-01</leafValues></_>
        <_>
          <internalNodes>
            0 -1 259 -135170 -1677975555 -16793601 -1652707844
            -1090752771 745856221 -855868162 -1952742337</internalNodes>
          <leafValues>
            -3.5908299684524536e-01 6.2896364927291870e-01</leafValues></_>
        <_>
          <internalNodes>
            0 -1 108 1497827488 1363280065 163840 -1623179262 1107368601
            1082458136 134283914 999986888</internalNodes>
          <leafValues>
            -6.1492532491683960e-01 3.5336330533027649e-01</leafValues></_>
        <_>
          <internalNodes>
            0 -1 80 2092393904 -764138 -13194370 -1230074187 -1109459086
            -726509752 2050797947 -215650979</internalNodes>
          <leafValues>
            -4.3909502029418945e-01 5.1043075323104858e-01</leafValues></_>
        <_>
          <internalNodes>
            0 -1 296 720605175 63684236 2147418099 -50991363 1602221919
            -268501381 1996159486 -255690753</internalNodes>
          <leafValues>
            -4.0350240468978882e-01 5.3522956371307373e-01</leafValues></_>
        <_>
          <internalNodes>
            0 -1 162 774880845 732610431 -1073774618 1688076268
            -1166182578 -293798025 -134418683 -269101575</internalNodes>
          <leafValues>
            -3.8908275961875916e-01 5.2364999055862427e-01</leafValues></_></weakClassifiers></_>
    <!-- stage 17 -->
    <_>
      <maxWeakCount>16</maxWeakCount>
      <stageThreshold>-4.9297291040420532e-01</stageThreshold>
      <weakClassifiers>
        <_>
          <internalNodes>
            0 -1 46 -2113828665 1409484032 1409463314 -1877938031 576651
            1024034816 -1517955541 8413698</internalNodes>
          <leafValues>
            -6.0000002384185791e-01 4.4214558601379395e-01</leafValues></_>
        <_>
          <internalNodes>
            0 -1 218 -2117731021 -1320159575 1074319379 64854257
            -2109160786 -2113026044 1636680160 1577525195</internalNodes>
          <leafValues>
            -4.3396472930908203e-01 4.1677570343017578e-01</leafValues></_>
        <_>
          <internalNodes>
            0 -1 226 -437256970 1332502502 -4 -1141377026 2004833653
            234124660 -1073777180 -911524437</internalNodes>
          <leafValues>
            -3.9965811371803284e-01 4.8330953717231750e-01</leafValues></_>
        <_>
          <internalNodes>
            0 -1 67 -143982805 -13509324 1878196223 1781661440
            -1288964623 -25665552 -273547399 -1903488565</internalNodes>
          <leafValues>
            -3.6211580038070679e-01 5.3160476684570312e-01</leafValues></_>
        <_>
          <internalNodes>
            0 -1 238 1041383480 -1792016064 1359483994 1309212680
            -1744772359 -1692729078 587727165 994214296</internalNodes>
          <leafValues>
            -6.6920185089111328e-01 2.7500483393669128e-01</leafValues></_>
        <_>
          <internalNodes>
            0 -1 96 -531576556 -1065348845 1074008128 425280128
            1078464538 33718602 -268236113 1664422477</internalNodes>
          <leafValues>
            -6.1029940843582153e-01 3.3053940534591675e-01</leafValues></_>
        <_>
          <internalNodes>
            0 -1 186 1633277209 1929072312 767278463 -999600931
            1854471594 -1124184236 -282207750 -270873893</internalNodes>
          <leafValues>
            -3.0992850661277771e-01 7.2028803825378418e-01</leafValues></_>
        <_>
          <internalNodes>
            0 -1 149 1766477284 -2062532221 1426137241 -485405688
            1409812808 462061712 1074135084 2005633509</internalNodes>
          <leafValues>
            -5.8035349845886230e-01 3.7147140502929688e-01</leafValues></_>
        <_>
          <internalNodes>
            0 -1 11 -1793113326 78352515 65552 902894625 1107821602
            1082695692 1224802483 -1000883292</internalNodes>
          <leafValues>
            -4.6603241562843323e-01 4.5623758435249329e-01</leafValues></_>
        <_>
          <internalNodes>
            0 -1 290 2143530455 -1922858489 335741121 -1702553726
            1350963730 1141047969 629846152 699592966</internalNodes>
          <leafValues>
            -5.5059868097305298e-01 3.8569712638854980e-01</leafValues></_>
        <_>
          <internalNodes>
            0 -1 240 -1073400325 605098246 1210122261 1019879560
            -671055450 -1935275520 -2008952326 2016930638</internalNodes>
          <leafValues>
            -5.8067440986633301e-01 3.5550561547279358e-01</leafValues></_>
        <_>
          <internalNodes>
            0 -1 134 -1149133679 1887077570 518110333 -2093666350
            -52284216 -1078154513 -387416417 -127162637</internalNodes>
          <leafValues>
            -3.6059176921844482e-01 6.6338771581649780e-01</leafValues></_>
        <_>
          <internalNodes>
            0 -1 49 135401849 -769816369 -2012953506 22024310
            -1475182434 1547699461 296399 2016420392</internalNodes>
          <leafValues>
            -5.4589408636093140e-01 4.1145548224449158e-01</leafValues></_>
        <_>
          <internalNodes>
            0 -1 63 952682306 -246939517 83886355 -586067249 -1578391397
            -1744732151 541672198 -666266495</internalNodes>
          <leafValues>
            -4.8070162534713745e-01 4.5526209473609924e-01</leafValues></_>
        <_>
          <internalNodes>
            0 -1 182 -1881209794 -1409782146 754819901 2109062830
            1073528457 -620826665 2013228503 -541069927</internalNodes>
          <leafValues>
            -3.7747830152511597e-01 5.9813839197158813e-01</leafValues></_>
        <_>
          <internalNodes>
            0 -1 267 720918 -671020767 -1862154917 102858816 -1962684276
            235047432 -2038136392 474526709</internalNodes>
          <leafValues>
            -6.8980109691619873e-01 3.4685522317886353e-01</leafValues></_></weakClassifiers></_>
    <!-- stage 18 -->
    <_>
      <maxWeakCount>12</maxWeakCount>
      <stageThreshold>-4.2754763364791870e-01</stageThreshold>
      <weakClassifiers>
        <_>
          <internalNodes>
            0 -1 31 -1023326134 1342324738 65736 -595324923 1073941058
            2105540 1661469735 1911269698</internalNodes>
          <leafValues>
            -5.9105432033538818e-01 4.5454546809196472e-01</leafValues></_>
        <_>
          <internalNodes>
            0 -1 254 -1769826824 164008 -2004761837 -1675587200
            -2130173629 68198536 234953092 467239578</internalNodes>
          <leafValues>
            -6.0267144441604614e-01 3.2500809431076050e-01</leafValues></_>
        <_>
          <internalNodes>
            0 -1 177 -953336749 1583992172 704434067 362798391
            1235285150 -17113354 2119544743 -1093952281</internalNodes>
          <leafValues>
            -2.7493563294410706e-01 7.7304166555404663e-01</leafValues></_>
        <_>
          <internalNodes>
            0 -1 243 -1890807785 21123736 -2109669222 1921155091
            153100803 -758896511 -2097131377 1866238529</internalNodes>
          <leafValues>
            -4.8633712530136108e-01 4.2761778831481934e-01</leafValues></_>
        <_>
          <internalNodes>
            0 -1 276 -1912344522 -2092412799 -1610611750 4329489
            268438328 1373718528 151521408 1500319851</internalNodes>
          <leafValues>
            -6.8137258291244507e-01 3.1153452396392822e-01</leafValues></_>
        <_>
          <internalNodes>
            0 -1 117 502058989 -474808650 -1334525902 -675068591
            -46154019 687996090 674945886 -1686872201</internalNodes>
          <leafValues>
            -3.8532802462577820e-01 5.6987988948822021e-01</leafValues></_>
        <_>
          <internalNodes>
            0 -1 93 -2136780691 270630916 -654261085 14090259
            -2054586199 438902913 -402587608 51737417</internalNodes>
          <leafValues>
            -5.3928929567337036e-01 4.0638521313667297e-01</leafValues></_>
        <_>
          <internalNodes>
            0 -1 17 -1071390493 1342373889 234917913 612599873 403702308
            -931119099 1344341125 1713965443</internalNodes>
          <leafValues>
            -6.7787683010101318e-01 3.1966736912727356e-01</leafValues></_>
        <_>
          <internalNodes>
            0 -1 299 -2049465058 403718473 16385 385974312 268484624
            1140850688 -2147319805 -1707206177</internalNodes>
          <leafValues>
            -4.8400914669036865e-01 4.6849027276039124e-01</leafValues></_>
        <_>
          <internalNodes>
            0 -1 107 1218937818 839434528 -1593792488 1280704617
            285542450 -1457389566 673742891 1556702028</internalNodes>
          <leafValues>
            -5.8635759353637695e-01 3.8886603713035583e-01</leafValues></_>
        <_>
          <internalNodes>
            0 -1 225 1614609423 -478887991 -20975761 2078764657
            -1348485272 2120155100 536412159 -1053178439</internalNodes>
          <leafValues>
            -3.8963726162910461e-01 6.0989296436309814e-01</leafValues></_>
        <_>
          <internalNodes>
            0 -1 234 -1159774148 152043545 1073764358 1342652556
            12582993 -1341636608 -2138537335 782469313</internalNodes>
          <leafValues>
            -5.3313529491424561e-01 4.4550576806068420e-01</leafValues></_></weakClassifiers></_>
    <!-- stage 19 -->
    <_>
      <maxWeakCount>12</maxWeakCount>
      <stageThreshold>-4.7527757287025452e-01</stageThreshold>
      <weakClassifiers>
        <_>
          <internalNodes>
            0 -1 266 -638445121 -2121635424 791617405 520134096
            490149360 -1166317571 527715752 268030364</internalNodes>
          <leafValues>
            -1.8987341225147247e-01 6.0179978609085083e-01</leafValues></_>
        <_>
          <internalNodes>
            0 -1 211 -936239617 481873904 2105367647 -883090212
            221519602 -1442153992 675120524 -1610900517</internalNodes>
          <leafValues>
            -2.5931209325790405e-01 6.2947750091552734e-01</leafValues></_>
        <_>
          <internalNodes>
            0 -1 195 1426198554 675676441 679964 1947341330 -535727584
            -1190125549 906054632 977813176</internalNodes>
          <leafValues>
            -6.5061503648757935e-01 3.0274769663810730e-01</leafValues></_>
        <_>
          <internalNodes>
            0 -1 25 -84149525 700020458 -285807084 1663418174 15900490
            2011561839 819889879 -572533421</internalNodes>
          <leafValues>
            -2.8897044062614441e-01 7.0411264896392822e-01</leafValues></_>
        <_>
          <internalNodes>
            0 -1 83 1128350279 1330506113 8650754 -2137391093
            -1056240610 176196288 235847938 -128892728</internalNodes>
          <leafValues>
            -5.2408164739608765e-01 3.8089844584465027e-01</leafValues></_>
        <_>
          <internalNodes>
            0 -1 45 1593736869 -95682700 -50335879 -1145896969
            -554848501 1819639765 -25856078 -389816599</internalNodes>
          <leafValues>
            -3.6884197592735291e-01 5.8564430475234985e-01</leafValues></_>
        <_>
          <internalNodes>
            0 -1 212 51940337 -1743695676 69647 1501300056 335728341
            -1450966886 176751209 457331379</internalNodes>
          <leafValues>
            -5.6460976600646973e-01 3.9830628037452698e-01</leafValues></_>
        <_>
          <internalNodes>
            0 -1 274 128474643 -583069159 2147368463 -446731 343872250
            -286130374 1013333370 -1363720973</internalNodes>
          <leafValues>
            -2.6453951001167297e-01 7.9200476408004761e-01</leafValues></_>
        <_>
          <internalNodes>
            0 -1 90 -298725735 -1415761919 795918024 2145664067
            -1099762645 1949781042 -184587066 -23240961</internalNodes>
          <leafValues>
            -3.2856342196464539e-01 6.5954846143722534e-01</leafValues></_>
        <_>
          <internalNodes>
            0 -1 217 293880594 -645266430 -1743517421 1439105949
            807626762 1898062210 1168154819 1592576746</internalNodes>
          <leafValues>
            -5.6002283096313477e-01 4.3456393480300903e-01</leafValues></_>
        <_>
          <internalNodes>
            0 -1 126 -1064922968 -1876047808 -2080227328 -2130603696
            1078731392 -1469562839 -939519910 -811919164</internalNodes>
          <leafValues>
            -4.7410616278648376e-01 4.9391496181488037e-01</leafValues></_>
        <_>
          <internalNodes>
            0 -1 104 -1437533592 244429188 196627 -1827667584 671782980
            -1845360635 -1878294521 1128382610</internalNodes>
          <leafValues>
            -6.1744362115859985e-01 3.9665862917900085e-01</leafValues></_></weakClassifiers></_>
    <!-- stage 20 -->
    <_>
      <maxWeakCount>13</maxWeakCount>
      <stageThreshold>-2.8779006004333496e-01</stageThreshold>
      <weakClassifiers>
        <_>
          <internalNodes>
            0 -1 295 544971859 -1939308996 922707695 140537330
            1065221191 763227900 532479230 1520196383</internalNodes>
          <leafValues>
            -3.7166324257850647e-01 5.2201259136199951e-01</leafValues></_>
        <_>
          <internalNodes>
            0 -1 157 -81735023 1045400856 -298483745 1870994677
            1592304282 -543635739 627627742 -108542509</internalNodes>
          <leafValues>
            -2.5862145423889160e-01 6.6659426689147949e-01</leafValues></_>
        <_>
          <internalNodes>
            0 -1 287 4243 1476595933 -1861119791 420580353 -2147483477
            -115343357 1233144 940238865</internalNodes>
          <leafValues>
            -4.6438562870025635e-01 4.2282712459564209e-01</leafValues></_>
        <_>
          <internalNodes>
            0 -1 221 -527996128 -394116779 16802126 -371502845
            -2071870976 -1215821694 1082777632 -634607589</internalNodes>
          <leafValues>
            -5.5769538879394531e-01 3.5294941067695618e-01</leafValues></_>
        <_>
          <internalNodes>
            0 -1 61 94810012 -151274064 -1180895 -1243168802 -1622266727
            -277061642 -563649360 -871877231</internalNodes>
          <leafValues>
            -3.6732736229896545e-01 5.6469935178756714e-01</leafValues></_>
        <_>
          <internalNodes>
            0 -1 55 -1877765233 1645052037 -2080309103 110100609
            -2146957017 -1694465918 -1601077033 248504459</internalNodes>
          <leafValues>
            -4.7133901715278625e-01 4.5807757973670959e-01</leafValues></_>
        <_>
          <internalNodes>
            0 -1 140 -677254020 942413574 -588223219 1152508154
            -587210773 195623865 -1665761366 -1447590522</internalNodes>
          <leafValues>
            -4.3512040376663208e-01 5.4803144931793213e-01</leafValues></_>
        <_>
          <internalNodes>
            0 -1 136 5247304 153899012 1362 -263650673 -938698732
            554270720 2162824 1895876746</internalNodes>
          <leafValues>
            -7.1944034099578857e-01 3.4262576699256897e-01</leafValues></_>
        <_>
          <internalNodes>
            0 -1 102 2091640705 -1083793621 -268441617 -1816201226
            133426678 795223933 1735278511 -939463003</internalNodes>
          <leafValues>
            -4.5696610212326050e-01 5.1612931489944458e-01</leafValues></_>
        <_>
          <internalNodes>
            0 -1 59 -486573796 -1140935681 2147434219 2147483317
            2143371279 -8507393 -1208105032 -320965654</internalNodes>
          <leafValues>
            -4.2443531751632690e-01 5.3377956151962280e-01</leafValues></_>
        <_>
          <internalNodes>
            0 -1 143 -1873653296 -171964144 2363860 1494286351
            1619005600 -796884352 -2146402119 1397231754</internalNodes>
          <leafValues>
            -5.3104972839355469e-01 4.4308507442474365e-01</leafValues></_>
        <_>
          <internalNodes>
            0 -1 89 2101149182 530840504 1919713337 -2026926536
            -243840899 -1339531435 1064337047 -1983980027</internalNodes>
          <leafValues>
            -3.7229230999946594e-01 6.5598446130752563e-01</leafValues></_>
        <_>
          <internalNodes>
            0 -1 298 -1775567765 1869348420 -24592 -310428385 1845280605
            1325350911 -1100212932 -837098446</internalNodes>
          <leafValues>
            -3.6444452404975891e-01 6.2817066907882690e-01</leafValues></_></weakClassifiers></_>
    <!-- stage 21 -->
    <_>
      <maxWeakCount>12</maxWeakCount>
      <stageThreshold>-5.2593445777893066e-01</stageThreshold>
      <weakClassifiers>
        <_>
          <internalNodes>
            0 -1 272 162443003 1068187375 -335577345 804863998
            -1342193690 -545292290 -1073774660 248972525</internalNodes>
          <leafValues>
            -4.8500001430511475e-01 4.9500000476837158e-01</leafValues></_>
        <_>
          <internalNodes>
            0 -1 258 -415983013 -542498887 -17367043 -1762071559
            -545534321 -37882114 -553716546 -1397225325</internalNodes>
          <leafValues>
            -2.9302787780761719e-01 6.4900833368301392e-01</leafValues></_>
        <_>
          <internalNodes>
            0 -1 260 22151295 -1862139752 1342390680 1359642864
            1644786017 -2008317247 -1571708748 1306051291</internalNodes>
          <leafValues>
            -4.8825958371162415e-01 4.3187561631202698e-01</leafValues></_>
        <_>
          <internalNodes>
            0 -1 111 -513124079 816336342 1069473655 -604160988
            -583280973 -268517377 -1468787009 -342220872</internalNodes>
          <leafValues>
            -3.2529506087303162e-01 6.6672831773757935e-01</leafValues></_>
        <_>
          <internalNodes>
            0 -1 166 311096551 -2001690719 1291015566 -470423565
            1593531754 -1023738064 238058906 401985163</internalNodes>
          <leafValues>
            -4.4866627454757690e-01 5.0365495681762695e-01</leafValues></_>
        <_>
          <internalNodes>
            0 -1 76 -155271233 -1141409030 -704841038 -1359760414
            -33554440 -1980735311 2130261086 -1328055046</internalNodes>
          <leafValues>
            -4.8577260971069336e-01 5.4021483659744263e-01</leafValues></_>
        <_>
          <internalNodes>
            0 -1 229 2050596337 -1309081863 -1358995714 680873710
            1009800171 984645628 1044155984 -1214069665</internalNodes>
          <leafValues>
            -4.2035782337188721e-01 5.8278304338455200e-01</leafValues></_>
        <_>
          <internalNodes>
            0 -1 231 605079090 1092125192 -771751887 -1740435167
            2055250110 143663104 -1878884188 1051452464</internalNodes>
          <leafValues>
            -5.8036988973617554e-01 4.3996438384056091e-01</leafValues></_>
        <_>
          <internalNodes>
            0 -1 169 1078200690 -1072377599 -1870102272 -1337720447
            1084903955 548446274 -1853749631 -2123997013</internalNodes>
          <leafValues>
            -6.2739181518554688e-01 4.0253734588623047e-01</leafValues></_>
        <_>
          <internalNodes>
            0 -1 278 -806420771 1331449084 -16859140 -1109643284
            217619700 -1883871236 -1199782401 -880091905</internalNodes>
          <leafValues>
            -4.1823741793632507e-01 5.7686126232147217e-01</leafValues></_>
        <_>
          <internalNodes>
            0 -1 236 -1963062019 -90258 -198465 -1334624341 -813828429
            -1593901697 1838634957 -1073102188</internalNodes>
          <leafValues>
            -4.3587353825569153e-01 5.6952095031738281e-01</leafValues></_>
        <_>
          <internalNodes>
            0 -1 300 1337969983 -432117778 -85460254 -788529297
            -201507714 -721420308 1451226111 -923026113</internalNodes>
          <leafValues>
            -3.7867438793182373e-01 6.5416854619979858e-01</leafValues></_></weakClassifiers></_>
    <!-- stage 22 -->
    <_>
      <maxWeakCount>13</maxWeakCount>
      <stageThreshold>-1.7624309286475182e-02</stageThreshold>
      <weakClassifiers>
        <_>
          <internalNodes>
            0 -1 69 -766719224 536986370 129033 805705986 -460947218
            -2147171840 134464128 4522052</internalNodes>
          <leafValues>
            -5.6386291980743408e-01 4.5426115393638611e-01</leafValues></_>
        <_>
          <internalNodes>
            0 -1 120 1208583460 1461197066 20560 1048963969 1111493623
            -930525042 1747460993 1250410512</internalNodes>
          <leafValues>
            -5.3620964288711548e-01 3.5902267694473267e-01</leafValues></_>
        <_>
          <internalNodes>
            0 -1 99 154769517 -130058563 -1411121665 623550738
            -814473544 -1375859012 -298029317 -561006788</internalNodes>
          <leafValues>
            -2.8567382693290710e-01 6.8056726455688477e-01</leafValues></_>
        <_>
          <internalNodes>
            0 -1 106 1924378691 -985562794 805933328 -1609564032
            -1977024314 1779106312 -1048321820 1356237004</internalNodes>
          <leafValues>
            -4.9828976392745972e-01 3.7477412819862366e-01</leafValues></_>
        <_>
          <internalNodes>
            0 -1 139 -1619547721 -845296267 -1097736334 -1583130817
            1706618974 1878873853 -1624523685 -1897587704</internalNodes>
          <leafValues>
            -3.6308929324150085e-01 6.2430918216705322e-01</leafValues></_>
        <_>
          <internalNodes>
            0 -1 250 -700247266 458903569 151077139 540545296 -397860414
            2021670920 -2113209976 136892673</internalNodes>
          <leafValues>
            -5.5114603042602539e-01 4.0674868226051331e-01</leafValues></_>
        <_>
          <internalNodes>
            0 -1 147 -1052464326 1006637184 -1073703148 1234272454
            545624214 545540776 1208526881 992840355</internalNodes>
          <leafValues>
            -5.6879401206970215e-01 3.6846169829368591e-01</leafValues></_>
        <_>
          <internalNodes>
            0 -1 189 285278218 1640366090 197121 -1287028718 -1191173888
            -720528895 -1048467325 -914231262</internalNodes>
          <leafValues>
            -5.2263486385345459e-01 4.3754169344902039e-01</leafValues></_>
        <_>
          <internalNodes>
            0 -1 122 1179712360 -2122252270 16642 -1044332359 672055425
            -1979710460 142663811 -2092300908</internalNodes>
          <leafValues>
            -5.0889080762863159e-01 4.6694386005401611e-01</leafValues></_>
        <_>
          <internalNodes>
            0 -1 279 -1841856232 -2008870144 -780128229 885587971
            -381609947 581894168 -517324800 2137325778</internalNodes>
          <leafValues>
            -6.8991178274154663e-01 3.4571239352226257e-01</leafValues></_>
        <_>
          <internalNodes>
            0 -1 291 80816051 1485836570 -2088648427 -1709899509
            -1610444508 545308672 -1014939506 484985606</internalNodes>
          <leafValues>
            -5.8674073219299316e-01 3.7073975801467896e-01</leafValues></_>
        <_>
          <internalNodes>
            0 -1 112 50750730 -1333554104 290621589 2097250324 536969708
            -1543372640 67793 1244209317</internalNodes>
          <leafValues>
            -6.2592166662216187e-01 3.9272430539131165e-01</leafValues></_>
        <_>
          <internalNodes>
            0 -1 175 -318601385 800939228 1034772405 1051941627
            -600462145 -298090522 621354171 -1361630790</internalNodes>
          <leafValues>
            -3.3362659811973572e-01 7.5288718938827515e-01</leafValues></_></weakClassifiers></_>
    <!-- stage 23 -->
    <_>
      <maxWeakCount>12</maxWeakCount>
      <stageThreshold>-5.7419723272323608e-01</stageThreshold>
      <weakClassifiers>
        <_>
          <internalNodes>
            0 -1 202 1794717685 1680785271 -1073742102 1033420474
            1610110836 -16777218 1467432168 536684472</internalNodes>
          <leafValues>
            -4.0239045023918152e-01 5.4826956987380981e-01</leafValues></_>
        <_>
          <internalNodes>
            0 -1 70 -184620033 -68059393 -318850060 -118049798 -279302
            1311912699 -185567119 -942426882</internalNodes>
          <leafValues>
            -3.3401635289192200e-01 5.6107831001281738e-01</leafValues></_>
        <_>
          <internalNodes>
            0 -1 129 221375604 -1691001797 -1435316292 -400389210
            -1111771939 -627417986 -1626242684 -897582518</internalNodes>
          <leafValues>
            -3.2052698731422424e-01 6.0578811168670654e-01</leafValues></_>
        <_>
          <internalNodes>
            0 -1 261 1376344094 -788463037 1074397202 1342259248
            -1073598080 277053539 -499078774 1209633675</internalNodes>
          <leafValues>
            -5.5794608592987061e-01 3.9182889461517334e-01</leafValues></_>
        <_>
          <internalNodes>
            0 -1 203 513141937 -759304941 1455389816 737774776 -90039121
            -1095143448 -1112781261 -610283523</internalNodes>
          <leafValues>
            -2.9369741678237915e-01 7.3634272813796997e-01</leafValues></_>
        <_>
          <internalNodes>
            0 -1 62 -752272556 -1475182064 33636407 -1560281067
            404072610 1753260053 -204865527 321880583</internalNodes>
          <leafValues>
            -4.7693583369255066e-01 5.0059878826141357e-01</leafValues></_>
        <_>
          <internalNodes>
            0 -1 28 -754491378 -1043291643 17322041 71475204 67649538
            302137344 -2112788351 -534043811</internalNodes>
          <leafValues>
            -5.1062893867492676e-01 4.7880396246910095e-01</leafValues></_>
        <_>
          <internalNodes>
            0 -1 100 -771391098 469762178 16991 17125893 17015067
            34799658 69261486 10695315</internalNodes>
          <leafValues>
            -6.3411450386047363e-01 4.2827233672142029e-01</leafValues></_>
        <_>
          <internalNodes>
            0 -1 256 671552116 -1052518510 26288139 1699590533 397
            413204640 -2009054696 2007495208</internalNodes>
          <leafValues>
            -5.9950882196426392e-01 4.0263420343399048e-01</leafValues></_>
        <_>
          <internalNodes>
            0 -1 52 74715679 872332836 2080292607 -589316379 2147380287
            -545294473 -1174493226 -570944009</internalNodes>
          <leafValues>
            -4.5716273784637451e-01 5.7601994276046753e-01</leafValues></_>
        <_>
          <internalNodes>
            0 -1 253 2143211248 -1174798594 -1090617346 -262070820
            1492415059 -1293001228 -943780532 -268450085</internalNodes>
          <leafValues>
            -3.4611731767654419e-01 6.9484609365463257e-01</leafValues></_>
        <_>
          <internalNodes>
            0 -1 214 2046977209 437354498 67139841 -2130444283 16973971
            -1961885679 -1073708829 1401495952</internalNodes>
          <leafValues>
            -5.3998422622680664e-01 4.7974577546119690e-01</leafValues></_></weakClassifiers></_>
    <!-- stage 24 -->
    <_>
      <maxWeakCount>14</maxWeakCount>
      <stageThreshold>-7.7043718099594116e-01</stageThreshold>
      <weakClassifiers>
        <_>
          <internalNodes>
            0 -1 270 1978674434 1029533247 -17832876 -2131763270
            -134218189 2004678646 -285351691 748740383</internalNodes>
          <leafValues>
            -3.0419579148292542e-01 5.5836576223373413e-01</leafValues></_>
        <_>
          <internalNodes>
            0 -1 30 2032796877 -1690681365 -201412729 1929314046
            225912326 930248694 -956520629 -1031929857</internalNodes>
          <leafValues>
            -3.4899774193763733e-01 5.5297374725341797e-01</leafValues></_>
        <_>
          <internalNodes>
            0 -1 82 -1651418189 -610500685 -537264194 -1079132191
            -268517685 -1120084179 -2043936521 -23584687</internalNodes>
          <leafValues>
            -3.1151351332664490e-01 6.3989722728729248e-01</leafValues></_>
        <_>
          <internalNodes>
            0 -1 180 808989946 689147977 -1845492720 364971186
            1109559451 -535134064 150995080 -91422692</internalNodes>
          <leafValues>
            -4.5621535181999207e-01 4.7184941172599792e-01</leafValues></_>
        <_>
          <internalNodes>
            0 -1 196 285380873 1888665602 805372630 -162398094
            1098916227 -335017694 75964 2065449094</internalNodes>
          <leafValues>
            -5.5328005552291870e-01 4.4298920035362244e-01</leafValues></_>
        <_>
          <internalNodes>
            0 -1 118 -1223742983 1815698681 -277938187 -1644348509
            771370420 -402767880 -1208608773 -593758402</internalNodes>
          <leafValues>
            -3.7324449419975281e-01 6.8100601434707642e-01</leafValues></_>
        <_>
          <internalNodes>
            0 -1 38 -803778068 -991330111 -2080374640 1879195921
            562189187 50432008 -1442774718 1949163810</internalNodes>
          <leafValues>
            -5.6607657670974731e-01 4.3529596924781799e-01</leafValues></_>
        <_>
          <internalNodes>
            0 -1 125 16875799 16778755 34359450 -1191181762 4358658
            33947649 -1465317632 -644726394</internalNodes>
          <leafValues>
            -4.8300746083259583e-01 5.1421129703521729e-01</leafValues></_>
        <_>
          <internalNodes>
            0 -1 33 -2025061941 -2146631543 -2101346303 1241579521
            -1971257333 -2142896127 -2009004018 -1944743670</internalNodes>
          <leafValues>
            -5.1072496175765991e-01 4.9035879969596863e-01</leafValues></_>
        <_>
          <internalNodes>
            0 -1 289 -1073053884 -1585167985 -1858072439 1644298525
            17344131 805309440 -400514810 714252417</internalNodes>
          <leafValues>
            -6.2322944402694702e-01 4.2316713929176331e-01</leafValues></_>
        <_>
          <internalNodes>
            0 -1 77 -952814195 -945258520 -1360576517 221233139
            1874378683 -822149257 100433719 -1255062127</internalNodes>
          <leafValues>
            -4.0860956907272339e-01 6.0458439588546753e-01</leafValues></_>
        <_>
          <internalNodes>
            0 -1 199 -954810098 857575424 -1744830451 308353174 1094065
            864026624 -1711272918 2021820811</internalNodes>
          <leafValues>
            -5.7713180780410767e-01 4.4744279980659485e-01</leafValues></_>
        <_>
          <internalNodes>
            0 -1 184 268435667 -2097070080 212992 -805171200 -2129002485
            1486931622 537037033 -1743421307</internalNodes>
          <leafValues>
            -4.6297150850296021e-01 5.4050344228744507e-01</leafValues></_>
        <_>
          <internalNodes>
            0 -1 171 575812391 -1576532983 1090617602 -796389320
            -1742191095 -1727913854 -2104866292 732775001</internalNodes>
          <leafValues>
            -6.2946081161499023e-01 4.3080246448516846e-01</leafValues></_></weakClassifiers></_></stages>
  <features>
    <_>
      <rect>
        0 5 12 12</rect></_>
    <_>
      <rect>
        0 7 6 22</rect></_>
    <_>
      <rect>
        0 8 14 21</rect></_>
    <_>
      <rect>
        0 11 8 10</rect></_>
    <_>
      <rect>
        0 17 9 7</rect></_>
    <_>
      <rect>
        0 17 16 18</rect></_>
    <_>
      <rect>
        0 25 13 14</rect></_>
    <_>
      <rect>
        0 27 12 10</rect></_>
    <_>
      <rect>
        0 28 7 12</rect></_>
    <_>
      <rect>
        0 28 9 4</rect></_>
    <_>
      <rect>
        0 28 11 13</rect></_>
    <_>
      <rect>
        0 29 3 7</rect></_>
    <_>
      <rect>
        0 31 8 12</rect></_>
    <_>
      <rect>
        0 32 1 11</rect></_>
    <_>
      <rect>
        0 32 16 12</rect></_>
    <_>
      <rect>
        0 33 10 6</rect></_>
    <_>
      <rect>
        0 34 4 9</rect></_>
    <_>
      <rect>
        0 36 7 9</rect></_>
    <_>
      <rect>
        0 38 16 13</rect></_>
    <_>
      <rect>
        0 40 5 9</rect></_>
    <_>
      <rect>
        0 41 1 2</rect></_>
    <_>
      <rect>
        0 43 1 1</rect></_>
    <_>
      <rect>
        0 43 3 8</rect></_>
    <_>
      <rect>
        0 44 1 1</rect></_>
    <_>
      <rect>
        0 44 6 6</rect></_>
    <_>
      <rect>
        0 46 1 2</rect></_>
    <_>
      <rect>
        0 48 8 6</rect></_>
    <_>
      <rect>
        0 50 1 2</rect></_>
    <_>
      <rect>
        0 50 1 3</rect></_>
    <_>
      <rect>
        0 57 4 6</rect></_>
    <_>
      <rect>
        0 61 5 7</rect></_>
    <_>
      <rect>
        0 63 10 5</rect></_>
    <_>
      <rect>
        1 0 7 13</rect></_>
    <_>
      <rect>
        1 6 11 25</rect></_>
    <_>
      <rect>
        1 12 15 22</rect></_>
    <_>
      <rect>
        1 19 4 17</rect></_>
    <_>
      <rect>
        1 24 11 13</rect></_>
    <_>
      <rect>
        1 24 12 8</rect></_>
    <_>
      <rect>
        1 27 3 4</rect></_>
    <_>
      <rect>
        1 29 16 21</rect></_>
    <_>
      <rect>
        1 59 4 3</rect></_>
    <_>
      <rect>
        1 71 7 5</rect></_>
    <_>
      <rect>
        1 75 9 6</rect></_>
    <_>
      <rect>
        2 5 11 6</rect></_>
    <_>
      <rect>
        2 9 12 10</rect></_>
    <_>
      <rect>
        2 21 5 8</rect></_>
    <_>
      <rect>
        2 32 16 14</rect></_>
    <_>
      <rect>
        2 37 11 9</rect></_>
    <_>
      <rect>
        2 38 9 4</rect></_>
    <_>
      <rect>
        2 40 10 4</rect></_>
    <_>
      <rect>
        2 45 10 4</rect></_>
    <_>
      <rect>
        2 75 15 8</rect></_>
    <_>
      <rect>
        2 91 9 3</rect></_>
    <_>
      <rect>
        3 1 10 15</rect></_>
    <_>
      <rect>
        3 4 6 10</rect></_>
    <_>
      <rect>
        3 30 3 3</rect></_>
    <_>
      <rect>
        3 63 8 5</rect></_>
    <_>
      <rect>
        3 73 12 9</rect></_>
    <_>
      <rect>
        3 76 12 4</rect></_>
    <_>
      <rect>
        3 77 8 7</rect></_>
    <_>
      <rect>
        3 80 7 6</rect></_>
    <_>
      <rect>
        4 1 7 3</rect></_>
    <_>
      <rect>
        4 2 12 12</rect></_>
    <_>
      <rect>
        4 3 7 10</rect></_>
    <_>
      <rect>
        4 10 6 6</rect></_>
    <_>
      <rect>
        4 10 11 26</rect></_>
    <_>
      <rect>
        4 33 7 8</rect></_>
    <_>
      <rect>
        4 37 8 10</rect></_>
    <_>
      <rect>
        4 67 6 11</rect></_>
    <_>
      <rect>
        5 3 7 13</rect></_>
    <_>
      <rect>
        5 11 15 23</rect></_>
    <_>
      <rect>
        5 34 3 2</rect></_>
    <_>
      <rect>
        5 34 5 5</rect></_>
    <_>
      <rect>
        5 37 7 8</rect></_>
    <_>
      <rect>
        5 39 11 7</rect></_>
    <_>
      <rect>
        6 0 10 8</rect></_>
    <_>
      <rect>
        6 3 13 28</rect></_>
    <_>
      <rect>
        6 12 2 4</rect></_>
    <_>
      <rect>
        6 34 6 13</rect></_>
    <_>
      <rect>
        6 34 8 8</rect></_>
    <_>
      <rect>
        6 35 11 8</rect></_>
    <_>
      <rect>
        6 44 12 5</rect></_>
    <_>
      <rect>
        7 0 4 4</rect></_>
    <_>
      <rect>
        7 13 13 21</rect></_>
    <_>
      <rect>
        7 17 11 8</rect></_>
    <_>
      <rect>
        7 30 9 7</rect></_>
    <_>
      <rect>
        7 38 11 6</rect></_>
    <_>
      <rect>
        7 39 14 20</rect></_>
    <_>
      <rect>
        7 40 9 6</rect></_>
    <_>
      <rect>
        7 43 13 4</rect></_>
    <_>
      <rect>
        7 44 12 5</rect></_>
    <_>
      <rect>
        7 49 10 3</rect></_>
    <_>
      <rect>
        8 0 6 7</rect></_>
    <_>
      <rect>
        8 2 13 9</rect></_>
    <_>
      <rect>
        8 6 14 27</rect></_>
    <_>
      <rect>
        8 13 11 6</rect></_>
    <_>
      <rect>
        8 14 9 9</rect></_>
    <_>
      <rect>
        8 24 14 25</rect></_>
    <_>
      <rect>
        8 34 14 10</rect></_>
    <_>
      <rect>
        8 44 6 3</rect></_>
    <_>
      <rect>
        8 44 14 5</rect></_>
    <_>
      <rect>
        8 54 6 3</rect></_>
    <_>
      <rect>
        9 6 9 6</rect></_>
    <_>
      <rect>
        9 9 11 9</rect></_>
    <_>
      <rect>
        9 10 7 8</rect></_>
    <_>
      <rect>
        9 30 10 8</rect></_>
    <_>
      <rect>
        9 31 2 3</rect></_>
    <_>
      <rect>
        9 31 4 4</rect></_>
    <_>
      <rect>
        9 36 2 5</rect></_>
    <_>
      <rect>
        9 43 7 4</rect></_>
    <_>
      <rect>
        9 44 9 5</rect></_>
    <_>
      <rect>
        9 45 5 4</rect></_>
    <_>
      <rect>
        9 52 4 2</rect></_>
    <_>
      <rect>
        9 53 13 14</rect></_>
    <_>
      <rect>
        10 14 6 5</rect></_>
    <_>
      <rect>
        10 26 13 15</rect></_>
    <_>
      <rect>
        10 30 13 5</rect></_>
    <_>
      <rect>
        10 36 12 7</rect></_>
    <_>
      <rect>
        10 43 5 4</rect></_>
    <_>
      <rect>
        10 48 3 3</rect></_>
    <_>
      <rect>
        10 53 8 6</rect></_>
    <_>
      <rect>
        11 3 12 10</rect></_>
    <_>
      <rect>
        11 4 7 10</rect></_>
    <_>
      <rect>
        11 14 13 8</rect></_>
    <_>
      <rect>
        11 17 13 19</rect></_>
    <_>
      <rect>
        11 31 10 13</rect></_>
    <_>
      <rect>
        11 32 5 15</rect></_>
    <_>
      <rect>
        11 36 8 5</rect></_>
    <_>
      <rect>
        11 36 13 9</rect></_>
    <_>
      <rect>
        11 39 8 5</rect></_>
    <_>
      <rect>
        11 40 4 5</rect></_>
    <_>
      <rect>
        11 41 11 6</rect></_>
    <_>
      <rect>
        11 42 11 5</rect></_>
    <_>
      <rect>
        11 43 8 5</rect></_>
    <_>
      <rect>
        11 46 9 4</rect></_>
    <_>
      <rect>
        11 49 13 17</rect></_>
    <_>
      <rect>
        12 15 11 9</rect></_>
    <_>
      <rect>
        12 29 7 7</rect></_>
    <_>
      <rect>
        12 32 7 6</rect></_>
    <_>
      <rect>
        12 40 8 6</rect></_>
    <_>
      <rect>
        12 41 12 6</rect></_>
    <_>
      <rect>
        12 43 8 5</rect></_>
    <_>
      <rect>
        12 45 7 4</rect></_>
    <_>
      <rect>
        12 46 2 1</rect></_>
    <_>
      <rect>
        12 48 5 4</rect></_>
    <_>
      <rect>
        12 49 3 3</rect></_>
    <_>
      <rect>
        12 50 6 2</rect></_>
    <_>
      <rect>
        12 55 7 7</rect></_>
    <_>
      <rect>
        12 56 6 3</rect></_>
    <_>
      <rect>
        12 59 8 7</rect></_>
    <_>
      <rect>
        12 65 2 2</rect></_>
    <_>
      <rect>
        13 16 7 22</rect></_>
    <_>
      <rect>
        13 28 10 8</rect></_>
    <_>
      <rect>
        13 35 3 5</rect></_>
    <_>
      <rect>
        13 36 8 8</rect></_>
    <_>
      <rect>
        13 40 5 3</rect></_>
    <_>
      <rect>
        13 44 8 5</rect></_>
    <_>
      <rect>
        13 46 7 3</rect></_>
    <_>
      <rect>
        13 53 9 6</rect></_>
    <_>
      <rect>
        14 1 9 14</rect></_>
    <_>
      <rect>
        14 17 12 20</rect></_>
    <_>
      <rect>
        14 23 10 15</rect></_>
    <_>
      <rect>
        14 24 4 5</rect></_>
    <_>
      <rect>
        14 24 6 9</rect></_>
    <_>
      <rect>
        14 33 9 8</rect></_>
    <_>
      <rect>
        15 9 8 11</rect></_>
    <_>
      <rect>
        15 43 11 5</rect></_>
    <_>
      <rect>
        15 48 7 3</rect></_>
    <_>
      <rect>
        15 48 7 4</rect></_>
    <_>
      <rect>
        16 15 7 8</rect></_>
    <_>
      <rect>
        16 22 11 7</rect></_>
    <_>
      <rect>
        16 26 3 6</rect></_>
    <_>
      <rect>
        16 30 9 15</rect></_>
    <_>
      <rect>
        16 34 5 6</rect></_>
    <_>
      <rect>
        16 39 11 5</rect></_>
    <_>
      <rect>
        16 42 7 5</rect></_>
    <_>
      <rect>
        16 46 4 2</rect></_>
    <_>
      <rect>
        16 49 7 3</rect></_>
    <_>
      <rect>
        16 50 5 2</rect></_>
    <_>
      <rect>
        16 60 3 2</rect></_>
    <_>
      <rect>
        16 82 9 6</rect></_>
    <_>
      <rect>
        17 0 6 4</rect></_>
    <_>
      <rect>
        17 19 2 3</rect></_>
    <_>
      <rect>
        17 19 11 9</rect></_>
    <_>
      <rect>
        17 29 11 8</rect></_>
    <_>
      <rect>
        17 43 11 7</rect></_>
    <_>
      <rect>
        17 45 6 3</rect></_>
    <_>
      <rect>
        17 51 3 2</rect></_>
    <_>
      <rect>
        18 10 9 8</rect></_>
    <_>
      <rect>
        18 13 10 21</rect></_>
    <_>
      <rect>
        18 19 10 19</rect></_>
    <_>
      <rect>
        18 29 8 14</rect></_>
    <_>
      <rect>
        18 31 6 7</rect></_>
    <_>
      <rect>
        18 32 8 8</rect></_>
    <_>
      <rect>
        18 34 10 14</rect></_>
    <_>
      <rect>
        18 37 3 3</rect></_>
    <_>
      <rect>
        18 41 6 3</rect></_>
    <_>
      <rect>
        18 45 4 2</rect></_>
    <_>
      <rect>
        18 45 8 5</rect></_>
    <_>
      <rect>
        18 65 9 3</rect></_>
    <_>
      <rect>
        18 84 10 5</rect></_>
    <_>
      <rect>
        19 27 8 11</rect></_>
    <_>
      <rect>
        19 33 4 7</rect></_>
    <_>
      <rect>
        19 41 7 6</rect></_>
    <_>
      <rect>
        19 49 3 2</rect></_>
    <_>
      <rect>
        20 16 4 9</rect></_>
    <_>
      <rect>
        20 19 10 17</rect></_>
    <_>
      <rect>
        20 24 10 7</rect></_>
    <_>
      <rect>
        20 29 10 13</rect></_>
    <_>
      <rect>
        20 37 10 5</rect></_>
    <_>
      <rect>
        20 41 6 4</rect></_>
    <_>
      <rect>
        20 42 6 4</rect></_>
    <_>
      <rect>
        20 45 4 3</rect></_>
    <_>
      <rect>
        20 45 10 8</rect></_>
    <_>
      <rect>
        20 46 8 3</rect></_>
    <_>
      <rect>
        20 48 6 3</rect></_>
    <_>
      <rect>
        20 55 2 2</rect></_>
    <_>
      <rect>
        20 55 4 3</rect></_>
    <_>
      <rect>
        20 64 1 1</rect></_>
    <_>
      <rect>
        20 88 5 4</rect></_>
    <_>
      <rect>
        21 6 8 8</rect></_>
    <_>
      <rect>
        21 27 4 3</rect></_>
    <_>
      <rect>
        21 30 6 6</rect></_>
    <_>
      <rect>
        21 41 8 6</rect></_>
    <_>
      <rect>
        21 50 7 4</rect></_>
    <_>
      <rect>
        22 8 4 4</rect></_>
    <_>
      <rect>
        22 25 6 7</rect></_>
    <_>
      <rect>
        22 27 3 4</rect></_>
    <_>
      <rect>
        22 33 8 12</rect></_>
    <_>
      <rect>
        22 38 8 7</rect></_>
    <_>
      <rect>
        22 47 5 2</rect></_>
    <_>
      <rect>
        22 56 4 3</rect></_>
    <_>
      <rect>
        22 56 4 6</rect></_>
    <_>
      <rect>
        22 58 3 3</rect></_>
    <_>
      <rect>
        22 76 4 5</rect></_>
    <_>
      <rect>
        23 3 9 9</rect></_>
    <_>
      <rect>
        23 6 6 6</rect></_>
    <_>
      <rect>
        23 26 7 14</rect></_>
    <_>
      <rect>
        23 45 4 3</rect></_>
    <_>
      <rect>
        23 47 4 2</rect></_>
    <_>
      <rect>
        23 52 9 6</rect></_>
    <_>
      <rect>
        23 67 8 4</rect></_>
    <_>
      <rect>
        23 77 4 2</rect></_>
    <_>
      <rect>
        24 13 4 5</rect></_>
    <_>
      <rect>
        24 23 3 2</rect></_>
    <_>
      <rect>
        24 30 2 4</rect></_>
    <_>
      <rect>
        24 49 1 1</rect></_>
    <_>
      <rect>
        24 59 4 3</rect></_>
    <_>
      <rect>
        24 59 5 2</rect></_>
    <_>
      <rect>
        24 60 4 8</rect></_>
    <_>
      <rect>
        25 1 8 7</rect></_>
    <_>
      <rect>
        25 1 8 10</rect></_>
    <_>
      <rect>
        25 16 4 6</rect></_>
    <_>
      <rect>
        25 39 7 6</rect></_>
    <_>
      <rect>
        25 42 5 3</rect></_>
    <_>
      <rect>
        26 40 8 5</rect></_>
    <_>
      <rect>
        26 61 4 6</rect></_>
    <_>
      <rect>
        26 74 8 7</rect></_>
